{"learner":{"attributes":{"scikit_learn":"{\"_estimator_type\": \"classifier\"}"},"feature_names":["neutral","home_elo","away_elo","elo_diff","home_recent_form","away_recent_form","home_recent_goals_for","home_recent_goals_against","away_recent_goals_for","away_recent_goals_against","is_worldcup","is_qualifier","is_friendly"],"feature_types":["i","float","float","float","float","float","float","float","float","float","i","i","i"],"gradient_booster":{"model":{"cats":{"enc":[],"feature_segments":[],"sorted_idx":[]},"gbtree_model_param":{"num_parallel_tree":"1","num_trees":"1050"},"iteration_indptr":[0,3,6,9,12,15,18,21,24,27,30,33,36,39,42,45,48,51,54,57,60,63,66,69,72,75,78,81,84,87,90,93,96,99,102,105,108,111,114,117,120,123,126,129,132,135,138,141,144,147,150,153,156,159,162,165,168,171,174,177,180,183,186,189,192,195,198,201,204,207,210,213,216,219,222,225,228,231,234,237,240,243,246,249,252,255,258,261,264,267,270,273,276,279,282,285,288,291,294,297,300,303,306,309,312,315,318,321,324,327,330,333,336,339,342,345,348,351,354,357,360,363,366,369,372,375,378,381,384,387,390,393,396,399,402,405,408,411,414,417,420,423,426,429,432,435,438,441,444,447,450,453,456,459,462,465,468,471,474,477,480,483,486,489,492,495,498,501,504,507,510,513,516,519,522,525,528,531,534,537,540,543,546,549,552,555,558,561,564,567,570,573,576,579,582,585,588,591,594,597,600,603,606,609,612,615,618,621,624,627,630,633,636,639,642,645,648,651,654,657,660,663,666,669,672,675,678,681,684,687,690,693,696,699,702,705,708,711,714,717,720,723,726,729,732,735,738,741,744,747,750,753,756,759,762,765,768,771,774,777,780,783,786,789,792,795,798,801,804,807,810,813,816,819,822,825,828,831,834,837,840,843,846,849,852,855,858,861,864,867,870,873,876,879,882,885,888,891,894,897,900,903,906,909,912,915,918,921,924,927,930,933,936,939,942,945,948,951,954,957,960,963,966,969,972,975,978,981,984,987,990,993,996,999,1002,1005,1008,1011,1014,1017,1020,1023,1026,1029,1032,1035,1038,1041,1044,1047,1050],"tree_info":[0,1,2,0,1,2,0,1,2,0,1,2,0,1,2,0,1,2,0,1,2,0,1,2,0,1,2,0,1,2,0,1,2,0,1,2,0,1,2,0,1,2,0,1,2,0,1,2,0,1,2,0,1,2,0,1,2,0,1,2,0,1,2,0,1,2,0,1,2,0,1,2,0,1,2,0,1,2,0,1,2,0,1,2,0,1,2,0,1,2,0,1,2,0,1,2,0,1,2,0,1,2,0,1,2,0,1,2,0,1,2,0,1,2,0,1,2,0,1,2,0,1,2,0,1,2,0,1,2,0,1,2,0,1,2,0,1,2,0,1,2,0,1,2,0,1,2,0,1,2,0,1,2,0,1,2,0,1,2,0,1,2,0,1,2,0,1,2,0,1,2,0,1,2,0,1,2,0,1,2,0,1,2,0,1,2,0,1,2,0,1,2,0,1,2,0,1,2,0,1,2,0,1,2,0,1,2,0,1,2,0,1,2,0,1,2,0,1,2,0,1,2,0,1,2,0,1,2,0,1,2,0,1,2,0,1,2,0,1,2,0,1,2,0,1,2,0,1,2,0,1,2,0,1,2,0,1,2,0,1,2,0,1,2,0,1,2,0,1,2,0,1,2,0,1,2,0,1,2,0,1,2,0,1,2,0,1,2,0,1,2,0,1,2,0,1,2,0,1,2,0,1,2,0,1,2,0,1,2,0,1,2,0,1,2,0,1,2,0,1,2,0,1,2,0,1,2,0,1,2,0,1,2,0,1,2,0,1,2,0,1,2,0,1,2,0,1,2,0,1,2,0,1,2,0,1,2,0,1,2,0,1,2,0,1,2,0,1,2,0,1,2,0,1,2,0,1,2,0,1,2,0,1,2,0,1,2,0,1,2,0,1,2,0,1,2,0,1,2,0,1,2,0,1,2,0,1,2,0,1,2,0,1,2,0,1,2,0,1,2,0,1,2,0,1,2,0,1,2,0,1,2,0,1,2,0,1,2,0,1,2,0,1,2,0,1,2,0,1,2,0,1,2,0,1,2,0,1,2,0,1,2,0,1,2,0,1,2,0,1,2,0,1,2,0,1,2,0,1,2,0,1,2,0,1,2,0,1,2,0,1,2,0,1,2,0,1,2,0,1,2,0,1,2,0,1,2,0,1,2,0,1,2,0,1,2,0,1,2,0,1,2,0,1,2,0,1,2,0,1,2,0,1,2,0,1,2,0,1,2,0,1,2,0,1,2,0,1,2,0,1,2,0,1,2,0,1,2,0,1,2,0,1,2,0,1,2,0,1,2,0,1,2,0,1,2,0,1,2,0,1,2,0,1,2,0,1,2,0,1,2,0,1,2,0,1,2,0,1,2,0,1,2,0,1,2,0,1,2,0,1,2,0,1,2,0,1,2,0,1,2,0,1,2,0,1,2,0,1,2,0,1,2,0,1,2,0,1,2,0,1,2,0,1,2,0,1,2,0,1,2,0,1,2,0,1,2,0,1,2,0,1,2,0,1,2,0,1,2,0,1,2,0,1,2,0,1,2,0,1,2,0,1,2,0,1,2,0,1,2,0,1,2,0,1,2,0,1,2,0,1,2,0,1,2,0,1,2,0,1,2,0,1,2,0,1,2,0,1,2,0,1,2,0,1,2,0,1,2,0,1,2,0,1,2,0,1,2,0,1,2,0,1,2,0,1,2,0,1,2,0,1,2,0,1,2,0,1,2,0,1,2,0,1,2,0,1,2,0,1,2,0,1,2,0,1,2,0,1,2,0,1,2,0,1,2,0,1,2,0,1,2,0,1,2,0,1,2,0,1,2,0,1,2,0,1,2,0,1,2,0,1,2,0,1,2,0,1,2,0,1,2,0,1,2,0,1,2,0,1,2,0,1,2,0,1,2,0,1,2,0,1,2,0,1,2,0,1,2,0,1,2,0,1,2,0,1,2,0,1,2,0,1,2,0,1,2,0,1,2,0,1,2,0,1,2,0,1,2,0,1,2,0,1,2,0,1,2,0,1,2,0,1,2,0,1,2,0,1,2,0,1,2,0,1,2,0,1,2,0,1,2,0,1,2,0,1,2,0,1,2,0,1,2,0,1,2,0,1,2,0,1,2,0,1,2,0,1,2,0,1,2,0,1,2,0,1,2,0,1,2,0,1,2,0,1,2,0,1,2,0,1,2,0,1,2,0,1,2,0,1,2,0,1,2,0,1,2,0,1,2,0,1,2,0,1,2,0,1,2,0,1,2,0,1,2,0,1,2,0,1,2,0,1,2,0,1,2,0,1,2,0,1,2,0,1,2,0,1,2,0,1,2,0,1,2,0,1,2,0,1,2,0,1,2,0,1,2,0,1,2,0,1,2,0,1,2,0,1,2],"trees":[{"base_weights":[-2.61942E-3,-3.9938134E-1,3.5840136E-1,-5.8418834E-1,-1.6483979E-1,1.808273E-1,5.9255207E-1,-3.3019092E-2,-1.9662427E-2,8.879534E-3,-7.5255292E-3,3.6584758E-3,1.1488052E-2,1.9097954E-2,2.9364342E-2],"categories":[],"categories_nodes":[],"categories_segments":[],"categories_sizes":[],"default_left":[0,0,0,0,0,0,0,0,0,0,0,0,0,0,0],"id":0,"left_children":[1,3,5,7,9,11,13,-1,-1,-1,-1,-1,-1,-1,-1],"loss_changes":[2.9266396E3,4.2182642E2,4.4469568E2,1.2126489E2,3.8716194E1,5.7821777E1,7.481897E1,0E0,0E0,0E0,0E0,0E0,0E0,0E0,0E0],"parents":[2147483647,0,0,1,1,2,2,3,3,4,4,5,5,6,6],"right_children":[2,4,6,8,10,12,14,-1,-1,-1,-1,-1,-1,-1,-1],"split_conditions":[-8.572094E-1,-8.658934E1,1.21225655E2,-2.2118109E2,2E0,1E0,2.0323157E2,-3.3019092E-2,-1.9662427E-2,8.879534E-3,-7.5255292E-3,3.6584758E-3,1.1488052E-2,1.9097954E-2,2.9364342E-2],"split_indices":[3,3,3,3,5,11,3,0,0,0,0,0,0,0,0],"split_type":[0,0,0,0,0,0,0,0,0,0,0,0,0,0,0],"sum_hessian":[2.0429822E4,9.73307E3,1.0696753E4,5.4428696E3,4.2902E3,6.0843247E3,4.6124277E3,1.5076447E3,3.935225E3,2.43233E2,4.0469673E3,3.307519E3,2.776806E3,2.546322E3,2.0661057E3],"tree_param":{"num_deleted":"0","num_feature":"13","num_nodes":"15","size_leaf_vector":"1"}},{"base_weights":[1.5067601E-3,7.2356716E-2,-2.3433946E-1,1.0510071E-1,-1.4208189E-1,-3.239778E-1,-3.497106E-2,9.621412E-4,7.3157917E-3,-3.0070907E-3,-1.2878618E-2,-1.034561E-2,-1.87159E-2,-2.8380016E-3,8.08629E-3],"categories":[],"categories_nodes":[],"categories_segments":[],"categories_sizes":[],"default_left":[0,0,0,0,0,0,0,0,0,0,0,0,0,0,0],"id":1,"left_children":[1,3,5,7,9,11,13,-1,-1,-1,-1,-1,-1,-1,-1],"loss_changes":[2.3314977E2,7.5354126E1,5.759204E1,5.868811E1,1.708688E1,2.0786636E1,8.553257E0,0E0,0E0,0E0,0E0,0E0,0E0,0E0,0E0],"parents":[2147483647,0,0,1,1,2,2,3,3,4,4,5,5,6,6],"right_children":[2,4,6,8,10,12,14,-1,-1,-1,-1,-1,-1,-1,-1],"split_conditions":[1.1910918E2,1.3E1,1.4928068E3,1.5782808E3,1.9E1,2.6331613E2,1.6538241E3,9.621412E-4,7.3157917E-3,-3.0070907E-3,-1.2878618E-2,-1.034561E-2,-1.87159E-2,-2.8380016E-3,8.08629E-3],"split_indices":[3,7,2,2,7,3,2,0,0,0,0,0,0,0,0],"split_type":[0,0,0,0,0,0,0,0,0,0,0,0,0,0,0],"sum_hessian":[1.3950948E4,1.072867E4,3.2222788E3,9.307897E3,1.4207722E3,2.2224255E3,9.9985315E2,4.559276E3,4.7486216E3,1.0366324E3,3.8413977E2,1.5304292E3,6.9199646E2,8.6874164E2,1.3111153E2],"tree_param":{"num_deleted":"0","num_feature":"13","num_nodes":"15","size_leaf_vector":"1"}},{"base_weights":[-2.517796E-4,5.757214E-1,-2.8819072E-1,1.2252775E0,4.4630122E-1,-8.790609E-2,-4.8128584E-1,6.274646E-2,4.3468002E-2,1.4709452E-2,2.8528458E-2,-6.867807E-3,4.387755E-3,-1.5823938E-2,-2.274275E-2],"categories":[],"categories_nodes":[],"categories_segments":[],"categories_sizes":[],"default_left":[0,0,0,0,0,0,0,0,0,0,0,0,0,0,0],"id":2,"left_children":[1,3,5,7,9,11,13,-1,-1,-1,-1,-1,-1,-1,-1],"loss_changes":[2.7253394E3,4.598871E2,4.2366852E2,4.1569214E1,9.554193E1,8.90789E1,4.1492188E1,0E0,0E0,0E0,0E0,0E0,0E0,0E0,0E0],"parents":[2147483647,0,0,1,1,2,2,3,3,4,4,5,5,6,6],"right_children":[2,4,6,8,10,12,14,-1,-1,-1,-1,-1,-1,-1,-1],"split_conditions":[-5.7040157E1,-2.5265012E2,6.883682E1,-3.7201913E2,1E0,1E0,1.5384886E2,6.274646E-2,4.3468002E-2,1.4709452E-2,2.8528458E-2,-6.867807E-3,4.387755E-3,-1.5823938E-2,-2.274275E-2],"split_indices":[3,3,3,3,0,0,3,0,0,0,0,0,0,0,0],"split_type":[0,0,0,0,0,0,0,0,0,0,0,0,0,0,0],"sum_hessian":[1.6431041E4,5.4760767E3,1.0954965E4,9.083958E2,4.5676807E3,5.378089E3,5.5768755E3,2.5822214E2,6.5017365E2,3.5307764E3,1.0369045E3,3.77675E3,1.6013387E3,2.8169507E3,2.759925E3],"tree_param":{"num_deleted":"0","num_feature":"13","num_nodes":"15","size_leaf_vector":"1"}},{"base_weights":[-1.4483067E-3,-3.870244E-1,3.50181E-1,-5.661832E-1,-1.6773856E-1,1.7667915E-1,5.775559E-1,-3.1975567E-2,-1.898264E-2,1.2267326E-2,-7.396488E-3,1.0994725E-2,3.2736594E-3,2.0624846E-2,3.255148E-2],"categories":[],"categories_nodes":[],"categories_segments":[],"categories_sizes":[],"default_left":[0,0,0,0,0,0,0,0,0,0,0,0,0,0,0],"id":3,"left_children":[1,3,5,7,9,11,13,-1,-1,-1,-1,-1,-1,-1,-1],"loss_changes":[2.7832227E3,3.8458362E2,4.2346375E2,1.1474695E2,3.5939514E1,5.66996E1,6.756311E1,0E0,0E0,0E0,0E0,0E0,0E0,0E0,0E0],"parents":[2147483647,0,0,1,1,2,2,3,3,4,4,5,5,6,6],"right_children":[2,4,6,8,10,12,14,-1,-1,-1,-1,-1,-1,-1,-1],"split_conditions":[-8.572094E-1,-8.838518E1,1.21225655E2,-2.2118109E2,2E0,1.5099077E3,2.7890198E2,-3.1975567E-2,-1.898264E-2,1.2267326E-2,-7.396488E-3,1.0994725E-2,3.2736594E-3,2.0624846E-2,3.255148E-2],"split_indices":[3,3,3,3,8,2,3,0,0,0,0,0,0,0,0],"split_type":[0,0,0,0,0,0,0,0,0,0,0,0,0,0,0],"sum_hessian":[2.052629E4,9.7905E3,1.0735789E4,5.3873755E3,4.4031245E3,6.090283E3,4.645506E3,1.5173442E3,3.8700312E3,1.5323209E2,4.2498926E3,2.9913398E3,3.0989434E3,3.6830674E3,9.6243835E2],"tree_param":{"num_deleted":"0","num_feature":"13","num_nodes":"15","size_leaf_vector":"1"}},{"base_weights":[1.8018702E-3,7.271701E-2,-2.3881091E-1,9.740449E-2,-2.0566311E-1,-3.2709646E-1,-4.600752E-2,-1.3143685E-2,4.5616995E-3,-6.436914E-3,-1.5047976E-2,-1.0546405E-2,-1.8591005E-2,-4.0715284E-4,-7.264812E-3],"categories":[],"categories_nodes":[],"categories_segments":[],"categories_sizes":[],"default_left":[0,0,0,0,0,0,0,0,0,0,0,0,0,0,0],"id":4,"left_children":[1,3,5,7,9,11,13,-1,-1,-1,-1,-1,-1,-1,-1],"loss_changes":[2.3785571E2,7.4013214E1,5.3998474E1,7.013657E1,6.633503E0,1.888565E1,4.846373E0,0E0,0E0,0E0,0E0,0E0,0E0,0E0,0E0],"parents":[2147483647,0,0,1,1,2,2,3,3,4,4,5,5,6,6],"right_children":[2,4,6,8,10,12,14,-1,-1,-1,-1,-1,-1,-1,-1],"split_conditions":[1.1910918E2,1.3E1,1.4928068E3,-3.1740094E2,2.1E1,2.6331613E2,1.3E1,-1.3143685E-2,4.5616995E-3,-6.436914E-3,-1.5047976E-2,-1.0546405E-2,-1.8591005E-2,-4.0715284E-4,-7.264812E-3],"split_indices":[3,9,2,3,9,3,6,0,0,0,0,0,0,0,0],"split_type":[0,0,0,0,0,0,0,0,0,0,0,0,0,0,0],"sum_hessian":[1.3937762E4,1.0765557E4,3.1722053E3,9.889206E3,8.7635046E2,2.1753884E3,9.9681683E2,3.710162E2,9.51819E3,6.957609E2,1.8058952E2,1.4912162E3,6.8417224E2,7.893475E2,2.0746939E2],"tree_param":{"num_deleted":"0","num_feature":"13","num_nodes":"15","size_leaf_vector":"1"}},{"base_weights":[-2.079047E-4,5.498689E-1,-2.8061825E-1,1.1573976E0,4.276108E-1,-7.920392E-2,-4.6422386E-1,5.906298E-2,4.0872507E-2,1.47492E-2,3.224194E-2,-6.6301147E-3,4.8588696E-3,-1.52451545E-2,-2.225448E-2],"categories":[],"categories_nodes":[],"categories_segments":[],"categories_sizes":[],"default_left":[0,0,0,0,0,0,0,0,0,0,0,0,0,0,0],"id":5,"left_children":[1,3,5,7,9,11,13,-1,-1,-1,-1,-1,-1,-1,-1],"loss_changes":[2.5454788E3,4.1336926E2,4.041842E2,3.8861694E1,1.0309808E2,9.0573E1,4.3565186E1,0E0,0E0,0E0,0E0,0E0,0E0,0E0,0E0],"parents":[2147483647,0,0,1,1,2,2,3,3,4,4,5,5,6,6],"right_children":[2,4,6,8,10,12,14,-1,-1,-1,-1,-1,-1,-1,-1],"split_conditions":[-5.7040157E1,-2.5265012E2,6.379619E1,-3.7201913E2,1.4E1,1E0,1.5384886E2,5.906298E-2,4.0872507E-2,1.47492E-2,3.224194E-2,-6.6301147E-3,4.8588696E-3,-1.52451545E-2,-2.225448E-2],"split_indices":[3,3,3,3,7,0,3,0,0,0,0,0,0,0,0],"split_type":[0,0,0,0,0,0,0,0,0,0,0,0,0,0,0],"sum_hessian":[1.650059E4,5.5710273E3,1.09295625E4,9.318722E2,4.639155E3,5.2126953E3,5.7168667E3,2.748841E2,6.569881E2,4.0162449E3,6.229101E2,3.6420833E3,1.570612E3,3.0086484E3,2.7082185E3],"tree_param":{"num_deleted":"0","num_feature":"13","num_nodes":"15","size_leaf_vector":"1"}},{"base_weights":[-8.534579E-4,-3.7561685E-1,3.3996597E-1,-5.4908043E-1,-1.6215265E-1,1.692512E-1,5.559719E-1,-3.1158801E-2,-1.8303227E-2,8.751686E-3,-7.386655E-3,4.2905244E-3,1.2078845E-2,1.9738467E-2,3.114691E-2],"categories":[],"categories_nodes":[],"categories_segments":[],"categories_sizes":[],"default_left":[0,0,0,0,0,0,0,0,0,0,0,0,0,0,0],"id":6,"left_children":[1,3,5,7,9,11,13,-1,-1,-1,-1,-1,-1,-1,-1],"loss_changes":[2.6120393E3,3.605692E2,3.9484705E2,1.1266565E2,3.7502464E1,4.919568E1,6.5427124E1,0E0,0E0,0E0,0E0,0E0,0E0,0E0,0E0],"parents":[2147483647,0,0,1,1,2,2,3,3,4,4,5,5,6,6],"right_children":[2,4,6,8,10,12,14,-1,-1,-1,-1,-1,-1,-1,-1],"split_conditions":[-8.572094E-1,-8.838518E1,1.1910918E2,-2.2118109E2,2E0,7.578716E1,2.7143518E2,-3.1158801E-2,-1.8303227E-2,8.751686E-3,-7.386655E-3,4.2905244E-3,1.2078845E-2,1.9738467E-2,3.114691E-2],"split_indices":[3,3,3,3,5,3,3,0,0,0,0,0,0,0,0],"split_type":[0,0,0,0,0,0,0,0,0,0,0,0,0,0,0],"sum_hessian":[2.044823E4,9.739081E3,1.0709148E4,5.372087E3,4.366994E3,5.9826772E3,4.7264717E3,1.5272974E3,3.8447898E3,2.4319992E2,4.1237944E3,4.0792385E3,1.9034385E3,3.6930732E3,1.0333986E3],"tree_param":{"num_deleted":"0","num_feature":"13","num_nodes":"15","size_leaf_vector":"1"}},{"base_weights":[4.5885536E-4,6.876775E-2,-2.3577785E-1,9.97521E-2,-1.3433364E-1,-1.2707292E-1,-3.4096175E-1,4.794056E-3,-7.4985633E-3,-2.6420518E-3,-1.2754659E-2,-8.125528E-3,7.096967E-4,-1.7812448E-2,-1.0776006E-2],"categories":[],"categories_nodes":[],"categories_segments":[],"categories_sizes":[],"default_left":[0,0,0,0,0,0,0,0,0,0,0,0,0,0,0],"id":7,"left_children":[1,3,5,7,9,11,13,-1,-1,-1,-1,-1,-1,-1,-1],"loss_changes":[2.2493164E2,6.805524E1,3.5704483E1,5.4182022E1,1.80174E1,1.6957254E1,1.1740997E1,0E0,0E0,0E0,0E0,0E0,0E0,0E0,0E0],"parents":[2147483647,0,0,1,1,2,2,3,3,4,4,5,5,6,6],"right_children":[2,4,6,8,10,12,14,-1,-1,-1,-1,-1,-1,-1,-1],"split_conditions":[1.1910918E2,1.3E1,1.8932266E2,1.3E1,1.9E1,1.6698567E3,4E0,4.794056E-3,-7.4985633E-3,-2.6420518E-3,-1.2754659E-2,-8.125528E-3,7.096967E-4,-1.7812448E-2,-1.0776006E-2],"split_indices":[3,7,3,9,7,1,8,0,0,0,0,0,0,0,0],"split_type":[0,0,0,0,0,0,0,0,0,0,0,0,0,0,0],"sum_hessian":[1.3936812E4,1.0811366E4,3.1254456E3,9.38078E3,1.4305859E3,1.5380831E3,1.5873624E3,8.767795E3,6.1298505E2,1.045193E3,3.853929E2,1.0081451E3,5.2993805E2,6.4362335E2,9.43739E2],"tree_param":{"num_deleted":"0","num_feature":"13","num_nodes":"15","size_leaf_vector":"1"}},{"base_weights":[1.4885634E-3,5.2848417E-1,-2.7418676E-1,9.9641097E-1,3.8964063E-1,-9.138601E-2,-4.6694782E-1,5.1165264E-2,3.307053E-2,1.2293773E-2,2.6264327E-2,-6.9415853E-3,4.003294E-3,-1.5200642E-2,-2.202145E-2],"categories":[],"categories_nodes":[],"categories_segments":[],"categories_sizes":[],"default_left":[0,0,0,0,0,0,0,0,0,0,0,0,0,0,0],"id":8,"left_children":[1,3,5,7,9,11,13,-1,-1,-1,-1,-1,-1,-1,-1],"loss_changes":[2.3942607E3,3.6734302E2,3.812281E2,6.1031982E1,9.5734436E1,8.739395E1,3.8058838E1,0E0,0E0,0E0,0E0,0E0,0E0,0E0,0E0],"parents":[2147483647,0,0,1,1,2,2,3,3,4,4,5,5,6,6],"right_children":[2,4,6,8,10,12,14,-1,-1,-1,-1,-1,-1,-1,-1],"split_conditions":[-5.7040157E1,-2.2118109E2,7.398044E1,-3.1740094E2,1E0,1E0,1.5384886E2,5.1165264E-2,3.307053E-2,1.2293773E-2,2.6264327E-2,-6.9415853E-3,4.003294E-3,-1.5200642E-2,-2.202145E-2],"split_indices":[3,3,3,3,0,0,3,0,0,0,0,0,0,0,0],"split_type":[0,0,0,0,0,0,0,0,0,0,0,0,0,0,0],"sum_hessian":[1.647836E4,5.659136E3,1.0819223E4,1.293532E3,4.3656045E3,5.553837E3,5.2653857E3,4.8264932E2,8.108827E2,3.3385906E3,1.0270138E3,3.8863909E3,1.6674459E3,2.583794E3,2.681592E3],"tree_param":{"num_deleted":"0","num_feature":"13","num_nodes":"15","size_leaf_vector":"1"}},{"base_weights":[-1.897471E-3,-3.6895704E-1,3.1938815E-1,-5.7708913E-1,-2.0527177E-1,1.5563679E-1,5.4610443E-1,-2.9977443E-2,-1.9139959E-2,-1.3350559E-2,-5.687335E-3,4.714266E-3,1.6261663E-2,2.4914572E-2,1.5037712E-2],"categories":[],"categories_nodes":[],"categories_segments":[],"categories_sizes":[],"default_left":[0,0,0,0,0,0,0,0,0,0,0,0,0,0,0],"id":9,"left_children":[1,3,5,7,9,11,13,-1,-1,-1,-1,-1,-1,-1,-1],"loss_changes":[2.4015635E3,3.236985E2,4.0306274E2,7.073157E1,4.3095856E1,5.9733063E1,5.924353E1,0E0,0E0,0E0,0E0,0E0,0E0,0E0,0E0],"parents":[2147483647,0,0,1,1,2,2,3,3,4,4,5,5,6,6],"right_children":[2,4,6,8,10,12,14,-1,-1,-1,-1,-1,-1,-1,-1],"split_conditions":[-5.1264625E0,-1.1836714E2,1.21225655E2,-2.2118109E2,-7.5235664E1,1.3E1,1.4928068E3,-2.9977443E-2,-1.9139959E-2,-1.3350559E-2,-5.687335E-3,4.714266E-3,1.6261663E-2,2.4914572E-2,1.5037712E-2],"split_indices":[3,3,3,3,3,9,2,0,0,0,0,0,0,0,0],"split_type":[0,0,0,0,0,0,0,0,0,0,0,0,0,0,0],"sum_hessian":[2.0362146E4,9.503978E3,1.0858169E4,4.182827E3,5.3211504E3,6.3055317E3,4.552637E3,1.519669E3,2.6631584E3,1.7508666E3,3.5702837E3,5.481606E3,8.2392615E2,3.135537E3,1.4171002E3],"tree_param":{"num_deleted":"0","num_feature":"13","num_nodes":"15","size_leaf_vector":"1"}},{"base_weights":[4.90039E-4,6.6617824E-2,-2.2734544E-1,9.78295E-2,-1.4025232E-1,-3.1556848E-1,-3.734638E-2,4.6738214E-3,-7.203605E-3,-2.9493275E-3,-1.2692587E-2,-7.559198E-3,-1.5375163E-2,7.022973E-4,-6.097155E-3],"categories":[],"categories_nodes":[],"categories_segments":[],"categories_sizes":[],"default_left":[0,0,0,0,0,0,0,0,0,0,0,0,0,0,0],"id":10,"left_children":[1,3,5,7,9,11,13,-1,-1,-1,-1,-1,-1,-1,-1],"loss_changes":[2.0986774E2,6.972183E1,5.251306E1,4.960105E1,1.6651308E1,1.8565964E1,6.2880197E0,0E0,0E0,0E0,0E0,0E0,0E0,0E0,0E0],"parents":[2147483647,0,0,1,1,2,2,3,3,4,4,5,5,6,6],"right_children":[2,4,6,8,10,12,14,-1,-1,-1,-1,-1,-1,-1,-1],"split_conditions":[1.1910918E2,1.3E1,1.4928068E3,1.3E1,1.9E1,1E0,1.8932266E2,4.6738214E-3,-7.203605E-3,-2.9493275E-3,-1.2692587E-2,-7.559198E-3,-1.5375163E-2,7.022973E-4,-6.097155E-3],"split_indices":[3,7,2,9,7,11,3,0,0,0,0,0,0,0,0],"split_type":[0,0,0,0,0,0,0,0,0,0,0,0,0,0,0],"sum_hessian":[1.3927649E4,1.0795138E4,3.132512E3,9.380392E3,1.4147458E3,2.1387544E3,9.9375745E2,8.780205E3,6.001868E2,1.0294257E3,3.8532025E2,7.5449066E2,1.3842638E3,6.7335785E2,3.2039963E2],"tree_param":{"num_deleted":"0","num_feature":"13","num_nodes":"15","size_leaf_vector":"1"}},{"base_weights":[-2.75879E-3,4.9757603E-1,-2.6897326E-1,1.0452826E0,3.849233E-1,-7.3546715E-2,-4.506647E-1,5.398639E-2,3.6614433E-2,1.283226E-2,2.839919E-2,6.250453E-4,-7.529584E-3,-1.4633896E-2,-2.1797294E-2],"categories":[],"categories_nodes":[],"categories_segments":[],"categories_sizes":[],"default_left":[0,0,0,0,0,0,0,0,0,0,0,0,0,0,0],"id":11,"left_children":[1,3,5,7,9,11,13,-1,-1,-1,-1,-1,-1,-1,-1],"loss_changes":[2.191492E3,3.5215405E2,3.8128363E2,3.728894E1,9.8578064E1,5.293204E1,4.4295044E1,0E0,0E0,0E0,0E0,0E0,0E0,0E0,0E0],"parents":[2147483647,0,0,1,1,2,2,3,3,4,4,5,5,6,6],"right_children":[2,4,6,8,10,12,14,-1,-1,-1,-1,-1,-1,-1,-1],"split_conditions":[-5.7040157E1,-2.5265012E2,6.379619E1,-3.7201913E2,1.3E1,1E0,1.5384886E2,5.398639E-2,3.6614433E-2,1.283226E-2,2.839919E-2,6.250453E-4,-7.529584E-3,-1.4633896E-2,-2.1797294E-2],"split_indices":[3,3,3,3,7,11,3,0,0,0,0,0,0,0,0],"split_type":[0,0,0,0,0,0,0,0,0,0,0,0,0,0,0],"sum_hessian":[1.6451084E4,5.712986E3,1.0738099E4,9.7318353E2,4.7398027E3,5.174179E3,5.56392E3,2.8832217E2,6.848614E2,3.9605735E3,7.7922906E2,2.9114292E3,2.26275E3,2.9313337E3,2.632586E3],"tree_param":{"num_deleted":"0","num_feature":"13","num_nodes":"15","size_leaf_vector":"1"}},{"base_weights":[-3.7474823E-3,-3.63392E-1,3.088204E-1,-5.2278113E-1,-1.5990841E-1,1.4898773E-1,5.2252406E-1,-2.921074E-2,-1.76551E-2,-4.549468E-3,-1.1023016E-2,9.877694E-3,2.2311658E-3,1.676851E-2,2.6197761E-2],"categories":[],"categories_nodes":[],"categories_segments":[],"categories_sizes":[],"default_left":[0,0,0,0,0,0,0,0,0,0,0,0,0,0,0],"id":12,"left_children":[1,3,5,7,9,11,13,-1,-1,-1,-1,-1,-1,-1,-1],"loss_changes":[2.2962053E3,3.079646E2,3.732047E2,8.9628296E1,2.225663E1,5.708374E1,6.3692505E1,0E0,0E0,0E0,0E0,0E0,0E0,0E0,0E0],"parents":[2147483647,0,0,1,1,2,2,3,3,4,4,5,5,6,6],"right_children":[2,4,6,8,10,12,14,-1,-1,-1,-1,-1,-1,-1,-1],"split_conditions":[-5.1264625E0,-8.838518E1,1.1910918E2,-2.2118109E2,1E0,1.5099077E3,2.0323157E2,-2.921074E-2,-1.76551E-2,-4.549468E-3,-1.1023016E-2,9.877694E-3,2.2311658E-3,1.676851E-2,2.6197761E-2],"split_indices":[3,3,3,3,0,2,3,0,0,0,0,0,0,0,0],"split_type":[0,0,0,0,0,0,0,0,0,0,0,0,0,0,0],"sum_hessian":[2.0424453E4,9.496965E3,1.0927488E4,5.324614E3,4.1723506E3,6.2526904E3,4.674798E3,1.4981216E3,3.8264924E3,2.9834185E3,1.188932E3,3.0479229E3,3.2047676E3,2.6283667E3,2.0464315E3],"tree_param":{"num_deleted":"0","num_feature":"13","num_nodes":"15","size_leaf_vector":"1"}},{"base_weights":[6.953307E-4,-1.5128185E-1,8.210829E-2,-4.080629E-2,-2.6333424E-1,-3.3379665E-1,9.5222294E-2,-1.0455301E-2,7.666081E-4,-1.6737394E-2,-7.5571695E-3,-1.4498903E-2,9.703775E-3,9.074986E-4,5.5655125E-3],"categories":[],"categories_nodes":[],"categories_segments":[],"categories_sizes":[],"default_left":[0,0,0,0,0,0,0,0,0,0,0,0,0,0,0],"id":13,"left_children":[1,3,5,7,9,11,13,-1,-1,-1,-1,-1,-1,-1,-1],"loss_changes":[1.7208347E2,6.0046547E1,4.942782E1,3.233673E1,2.7714401E1,4.6672916E0,2.7966255E1,0E0,0E0,0E0,0E0,0E0,0E0,0E0,0E0],"parents":[2147483647,0,0,1,1,2,2,3,3,4,4,5,5,6,6],"right_children":[2,4,6,8,10,12,14,-1,-1,-1,-1,-1,-1,-1,-1],"split_conditions":[1.491482E3,1.5048337E3,1.3158094E3,2E0,1.3957964E3,7E0,1.5782808E3,-1.0455301E-2,7.666081E-4,-1.6737394E-2,-7.5571695E-3,-1.4498903E-2,9.703775E-3,9.074986E-4,5.5655125E-3],"split_indices":[2,1,1,5,2,4,2,0,0,0,0,0,0,0,0],"split_type":[0,0,0,0,0,0,0,0,0,0,0,0,0,0,0],"sum_hessian":[1.3906077E4,4.8505264E3,9.055551E3,2.4431355E3,2.4073909E3,2.7605728E2,8.779493E3,5.215408E2,1.9215947E3,7.789696E2,1.6284213E3,2.6332764E2,1.2729638E1,3.3114768E3,5.4680166E3],"tree_param":{"num_deleted":"0","num_feature":"13","num_nodes":"15","size_leaf_vector":"1"}},{"base_weights":[-2.2973216E-3,4.7652018E-1,-2.619089E-1,9.753543E-1,3.721298E-1,-8.9765295E-2,-4.4883603E-1,5.0171003E-2,3.452227E-2,1.3706976E-2,3.9199833E-2,-6.83789E-3,3.888189E-3,-1.4491372E-2,-2.1268202E-2],"categories":[],"categories_nodes":[],"categories_segments":[],"categories_sizes":[],"default_left":[0,0,0,0,0,0,0,0,0,0,0,0,0,0,0],"id":14,"left_children":[1,3,5,7,9,11,13,-1,-1,-1,-1,-1,-1,-1,-1],"loss_changes":[2.0361973E3,2.9952405E2,3.417423E2,3.0113892E1,8.496222E1,8.396431E1,3.6328613E1,0E0,0E0,0E0,0E0,0E0,0E0,0E0,0E0],"parents":[2147483647,0,0,1,1,2,2,3,3,4,4,5,5,6,6],"right_children":[2,4,6,8,10,12,14,-1,-1,-1,-1,-1,-1,-1,-1],"split_conditions":[-5.7040157E1,-2.5265012E2,7.398044E1,-3.7201913E2,1.9E1,1E0,1.5384886E2,5.0171003E-2,3.452227E-2,1.3706976E-2,3.9199833E-2,-6.83789E-3,3.888189E-3,-1.4491372E-2,-2.1268202E-2],"split_indices":[3,3,3,3,7,0,3,0,0,0,0,0,0,0,0],"split_type":[0,0,0,0,0,0,0,0,0,0,0,0,0,0,0],"sum_hessian":[1.6378442E4,5.757921E3,1.0620521E4,9.949872E2,4.762934E3,5.5296636E3,5.0908584E3,2.8268787E2,7.122993E2,4.5442944E3,2.186394E2,3.8556394E3,1.6740242E3,2.4927266E3,2.5981316E3],"tree_param":{"num_deleted":"0","num_feature":"13","num_nodes":"15","size_leaf_vector":"1"}},{"base_weights":[-4.985611E-4,-3.4069586E-1,3.0807397E-1,-5.385781E-1,-1.854947E-1,1.6056271E-1,5.130858E-1,-2.8457472E-2,-1.7888037E-2,9.191503E-3,-8.324608E-3,1.038817E-2,2.662494E-3,1.6273737E-2,2.5456987E-2],"categories":[],"categories_nodes":[],"categories_segments":[],"categories_sizes":[],"default_left":[0,0,0,0,0,0,0,0,0,0,0,0,0,0,0],"id":15,"left_children":[1,3,5,7,9,11,13,-1,-1,-1,-1,-1,-1,-1,-1],"loss_changes":[2.134418E3,2.9690222E2,3.2234796E2,6.681726E1,5.0975662E1,5.778038E1,5.819629E1,0E0,0E0,0E0,0E0,0E0,0E0,0E0,0E0],"parents":[2147483647,0,0,1,1,2,2,3,3,4,4,5,5,6,6],"right_children":[2,4,6,8,10,12,14,-1,-1,-1,-1,-1,-1,-1,-1],"split_conditions":[-8.572094E-1,-1.1407581E2,1.2551722E2,-2.2118109E2,2E0,1.5085808E3,2.0323157E2,-2.8457472E-2,-1.7888037E-2,9.191503E-3,-8.324608E-3,1.038817E-2,2.662494E-3,1.6273737E-2,2.5456987E-2],"split_indices":[3,3,3,3,5,2,3,0,0,0,0,0,0,0,0],"split_type":[0,0,0,0,0,0,0,0,0,0,0,0,0,0,0],"sum_hessian":[2.033053E4,9.669701E3,1.0660827E4,4.2493228E3,5.420379E3,6.2009023E3,4.459925E3,1.4671399E3,2.7821829E3,2.7952426E2,5.1408545E3,3.017063E3,3.183839E3,2.398333E3,2.0615916E3],"tree_param":{"num_deleted":"0","num_feature":"13","num_nodes":"15","size_leaf_vector":"1"}},{"base_weights":[-1.3226222E-3,6.026065E-2,-2.2031866E-1,1.0058324E-1,-8.91017E-2,-3.061924E-1,-3.772194E-2,1.1568823E-3,6.6335183E-3,-1.8989345E-3,-1.1986598E-2,-9.812052E-3,-1.7816857E-2,-4.910831E-4,-1.3515248E-2],"categories":[],"categories_nodes":[],"categories_segments":[],"categories_sizes":[],"default_left":[0,0,0,0,0,0,0,0,0,0,0,0,0,0,0],"id":16,"left_children":[1,3,5,7,9,11,13,-1,-1,-1,-1,-1,-1,-1,-1],"loss_changes":[1.8819057E2,6.560382E1,4.8012543E1,4.010109E1,2.0284412E1,1.7549332E1,7.486628E0,0E0,0E0,0E0,0E0,0E0,0E0,0E0,0E0],"parents":[2147483647,0,0,1,1,2,2,3,3,4,4,5,5,6,6],"right_children":[2,4,6,8,10,12,14,-1,-1,-1,-1,-1,-1,-1,-1],"split_conditions":[1.1910918E2,1.1E1,1.4928068E3,1.5796674E3,1.9E1,2.6331613E2,1.6E1,1.1568823E-3,6.6335183E-3,-1.8989345E-3,-1.1986598E-2,-9.812052E-3,-1.7816857E-2,-4.910831E-4,-1.3515248E-2],"split_indices":[3,7,2,2,7,3,6,0,0,0,0,0,0,0,0],"split_type":[0,0,0,0,0,0,0,0,0,0,0,0,0,0,0],"sum_hessian":[1.39520205E4,1.0890312E4,3.0617095E3,8.575542E3,2.314769E3,2.0819219E3,9.797876E2,4.0878286E3,4.4877134E3,1.9337018E3,3.810672E2,1.4503712E3,6.3155054E2,9.0418005E2,7.560753E1],"tree_param":{"num_deleted":"0","num_feature":"13","num_nodes":"15","size_leaf_vector":"1"}},{"base_weights":[1.9121361E-3,4.58226E-1,-2.5115862E-1,9.291997E-1,3.6002684E-1,-7.9936914E-2,-4.3915153E-1,4.796798E-2,3.270804E-2,1.14154965E-2,2.435548E-2,-6.4271525E-3,4.1301013E-3,-1.3610636E-2,-2.0650255E-2],"categories":[],"categories_nodes":[],"categories_segments":[],"categories_sizes":[],"default_left":[0,0,0,0,0,0,0,0,0,0,0,0,0,0,0],"id":17,"left_children":[1,3,5,7,9,11,13,-1,-1,-1,-1,-1,-1,-1,-1],"loss_changes":[1.8926774E3,2.7008337E2,3.3931915E2,2.9369202E1,8.972504E1,8.1644035E1,3.813794E1,0E0,0E0,0E0,0E0,0E0,0E0,0E0,0E0],"parents":[2147483647,0,0,1,1,2,2,3,3,4,4,5,5,6,6],"right_children":[2,4,6,8,10,12,14,-1,-1,-1,-1,-1,-1,-1,-1],"split_conditions":[-5.7040157E1,-2.5265012E2,7.398044E1,-3.7201913E2,1E0,1E0,1E0,4.796798E-2,3.270804E-2,1.14154965E-2,2.435548E-2,-6.4271525E-3,4.1301013E-3,-1.3610636E-2,-2.0650255E-2],"split_indices":[3,3,3,3,0,0,11,0,0,0,0,0,0,0,0],"split_type":[0,0,0,0,0,0,0,0,0,0,0,0,0,0,0],"sum_hessian":[1.6387703E4,5.8459727E3,1.05417295E4,1.00714325E3,4.8388296E3,5.5176997E3,5.0240303E3,2.915016E2,7.1564166E2,3.7240422E3,1.1147871E3,3.8298098E3,1.6878899E3,2.203497E3,2.8205332E3],"tree_param":{"num_deleted":"0","num_feature":"13","num_nodes":"15","size_leaf_vector":"1"}},{"base_weights":[-2.061392E-3,-3.3177674E-1,2.9852453E-1,-5.303663E-1,-1.8645641E-1,1.513219E-1,4.9389055E-1,-2.7547605E-2,-1.7565556E-2,1.1869134E-2,-8.068623E-3,4.630755E-3,1.54753355E-2,1.7467843E-2,2.8576948E-2],"categories":[],"categories_nodes":[],"categories_segments":[],"categories_sizes":[],"default_left":[0,0,0,0,0,0,0,0,0,0,0,0,0,0,0],"id":18,"left_children":[1,3,5,7,9,11,13,-1,-1,-1,-1,-1,-1,-1,-1],"loss_changes":[2.0233234E3,2.8087146E2,3.070489E2,5.910962E1,4.152208E1,5.097441E1,5.7564453E1,0E0,0E0,0E0,0E0,0E0,0E0,0E0,0E0],"parents":[2147483647,0,0,1,1,2,2,3,3,4,4,5,5,6,6],"right_children":[2,4,6,8,10,12,14,-1,-1,-1,-1,-1,-1,-1,-1],"split_conditions":[-8.572094E-1,-1.1836714E2,1.21225655E2,-2.2118109E2,2E0,1.3E1,2.7890198E2,-2.7547605E-2,-1.7565556E-2,1.1869134E-2,-8.068623E-3,4.630755E-3,1.54753355E-2,1.7467843E-2,2.8576948E-2],"split_indices":[3,3,3,3,8,9,3,0,0,0,0,0,0,0,0],"split_type":[0,0,0,0,0,0,0,0,0,0,0,0,0,0,0],"sum_hessian":[2.041338E4,9.734938E3,1.0678443E4,4.1124126E3,5.6225254E3,6.090901E3,4.5875425E3,1.500963E3,2.6114495E3,1.7156096E2,5.4509644E3,5.293457E3,7.9744385E2,3.6451638E3,9.423788E2],"tree_param":{"num_deleted":"0","num_feature":"13","num_nodes":"15","size_leaf_vector":"1"}},{"base_weights":[3.3713763E-3,4.1252147E-2,-3.052513E-1,6.6254966E-2,-2.1002555E-1,-4.0668148E-1,-1.611158E-1,-1.2897695E-2,3.1841036E-3,-6.7726593E-3,-1.7651992E-2,-1.3168037E-2,-1.9203793E-2,-8.470949E-3,1.4800861E-3],"categories":[],"categories_nodes":[],"categories_segments":[],"categories_sizes":[],"default_left":[0,0,0,0,0,0,0,0,0,0,0,0,0,0,0],"id":19,"left_children":[1,3,5,7,9,11,13,-1,-1,-1,-1,-1,-1,-1,-1],"loss_changes":[1.6308777E2,7.80751E1,2.2230331E1,5.865847E1,1.0513966E1,4.9298706E0,6.3464947E0,0E0,0E0,0E0,0E0,0E0,0E0,0E0,0E0],"parents":[2147483647,0,0,1,1,2,2,3,3,4,4,5,5,6,6],"right_children":[2,4,6,8,10,12,14,-1,-1,-1,-1,-1,-1,-1,-1],"split_conditions":[1.8932266E2,1.3E1,1.4304795E3,-3.1740094E2,2.3E1,2.7890198E2,1.8317747E3,-1.2897695E-2,3.1841036E-3,-6.7726593E-3,-1.7651992E-2,-1.3168037E-2,-1.9203793E-2,-8.470949E-3,1.4800861E-3],"split_indices":[3,9,2,3,9,3,1,0,0,0,0,0,0,0,0],"split_type":[0,0,0,0,0,0,0,0,0,0,0,0,0,0,0],"sum_hessian":[1.3947939E4,1.2423882E4,1.5240579E3,1.1300216E4,1.123666E3,8.9348126E2,6.3057666E2,3.743908E2,1.0925825E4,9.569543E2,1.6671172E2,4.3736743E2,4.561138E2,5.021182E2,1.2845845E2],"tree_param":{"num_deleted":"0","num_feature":"13","num_nodes":"15","size_leaf_vector":"1"}},{"base_weights":[9.7037526E-4,3.6770365E-1,-2.9504976E-1,8.2322454E-1,2.6141173E-1,-1.4000016E-1,-4.4155428E-1,4.40634E-2,2.878345E-2,1.633824E-2,4.8776474E-3,-8.352605E-3,6.838434E-4,-1.3729926E-2,-2.0735E-2],"categories":[],"categories_nodes":[],"categories_segments":[],"categories_sizes":[],"default_left":[0,0,0,0,0,0,0,0,0,0,0,0,0,0,0],"id":20,"left_children":[1,3,5,7,9,11,13,-1,-1,-1,-1,-1,-1,-1,-1],"loss_changes":[1.7737781E3,3.5313507E2,2.0531335E2,3.9026E1,1.2133148E2,4.7504837E1,3.4925232E1,0E0,0E0,0E0,0E0,0E0,0E0,0E0,0E0],"parents":[2147483647,0,0,1,1,2,2,3,3,4,4,5,5,6,6],"right_children":[2,4,6,8,10,12,14,-1,-1,-1,-1,-1,-1,-1,-1],"split_conditions":[-2.2665716E1,-2.2118109E2,8.2738625E1,-3.5332138E2,-9.9599434E1,1E0,1E0,4.40634E-2,2.878345E-2,1.633824E-2,4.8776474E-3,-8.352605E-3,6.838434E-4,-1.3729926E-2,-2.0735E-2],"split_indices":[3,3,3,3,3,0,11,0,0,0,0,0,0,0,0],"split_type":[0,0,0,0,0,0,0,0,0,0,0,0,0,0,0],"sum_hessian":[1.6337086E4,7.296884E3,9.040202E3,1.3792546E3,5.917629E3,4.392966E3,4.647236E3,3.715866E2,1.00766797E3,2.8796624E3,3.0379668E3,3.054593E3,1.3383729E3,2.0409437E3,2.6062922E3],"tree_param":{"num_deleted":"0","num_feature":"13","num_nodes":"15","size_leaf_vector":"1"}},{"base_weights":[3.9506276E-4,-3.721833E-1,2.517966E-1,-5.601947E-1,-2.5807604E-1,1.1311267E-1,4.8409215E-1,-2.8359698E-2,-1.9113105E-2,-8.452765E-3,-1.5513285E-2,3.2098705E-4,7.950986E-3,2.177012E-2,1.0718612E-2],"categories":[],"categories_nodes":[],"categories_segments":[],"categories_sizes":[],"default_left":[0,0,0,0,0,0,0,0,0,0,0,0,0,0,0],"id":21,"left_children":[1,3,5,7,9,11,13,-1,-1,-1,-1,-1,-1,-1,-1],"loss_changes":[1.9061497E3,1.7575562E2,3.914035E2,3.760443E1,3.088562E1,6.8503845E1,5.8913452E1,0E0,0E0,0E0,0E0,0E0,0E0,0E0,0E0],"parents":[2147483647,0,0,1,1,2,2,3,3,4,4,5,5,6,6],"right_children":[2,4,6,8,10,12,14,-1,-1,-1,-1,-1,-1,-1,-1],"split_conditions":[-2.8645712E1,-1.4903763E2,1.21225655E2,-2.5265012E2,1E0,3.2674477E1,1.5305664E3,-2.8359698E-2,-1.9113105E-2,-8.452765E-3,-1.5513285E-2,3.2098705E-4,7.950986E-3,2.177012E-2,1.0718612E-2],"split_indices":[3,3,3,3,0,3,2,0,0,0,0,0,0,0,0],"split_type":[0,0,0,0,0,0,0,0,0,0,0,0,0,0,0],"sum_hessian":[2.0348328E4,8.198149E3,1.2150179E4,3.0948838E3,5.1032656E3,7.6089863E3,4.5411924E3,1.1000371E3,1.9948468E3,3.7533828E3,1.3498827E3,3.4175337E3,4.1914526E3,3.551173E3,9.9001953E2],"tree_param":{"num_deleted":"0","num_feature":"13","num_nodes":"15","size_leaf_vector":"1"}},{"base_weights":[3.6838267E-3,4.3620538E-2,-2.7472717E-1,6.6337995E-2,-1.9618523E-1,-1.6929565E-1,-3.6620212E-1,-1.2734466E-2,3.1868268E-3,-6.5539056E-3,-1.7027335E-2,-5.482538E-3,-1.7741848E-2,-1.8450588E-2,-1.1108067E-2],"categories":[],"categories_nodes":[],"categories_segments":[],"categories_sizes":[],"default_left":[0,0,0,0,0,0,0,0,0,0,0,0,0,0,0],"id":22,"left_children":[1,3,5,7,9,11,13,-1,-1,-1,-1,-1,-1,-1,-1],"loss_changes":[1.5501755E2,6.643675E1,1.6806076E1,5.7155365E1,7.7625046E0,7.1380997E0,7.743454E0,0E0,0E0,0E0,0E0,0E0,0E0,0E0,0E0],"parents":[2147483647,0,0,1,1,2,2,3,3,4,4,5,5,6,6],"right_children":[2,4,6,8,10,12,14,-1,-1,-1,-1,-1,-1,-1,-1],"split_conditions":[1.7393344E2,1.3E1,9E0,-3.1740094E2,2.4E1,3.394388E2,4E0,-1.2734466E-2,3.1868268E-3,-6.5539056E-3,-1.7027335E-2,-5.482538E-3,-1.7741848E-2,-1.8450588E-2,-1.1108067E-2],"split_indices":[3,9,9,3,9,3,8,0,0,0,0,0,0,0,0],"split_type":[0,0,0,0,0,0,0,0,0,0,0,0,0,0,0],"sum_hessian":[1.3939828E4,1.2191814E4,1.7480137E3,1.1137456E4,1.0543583E3,8.1338226E2,9.346314E2,3.7229913E2,1.0765157E4,9.2564374E2,1.2871455E2,7.2918243E2,8.419979E1,4.4857907E2,4.860523E2],"tree_param":{"num_deleted":"0","num_feature":"13","num_nodes":"15","size_leaf_vector":"1"}},{"base_weights":[-1.6364905E-3,2.6543453E-1,-1.760019E-1,3.0943316E-3,5.404352E-1,-4.2208296E-1,2.4358698E-3,-3.3170604E-3,1.9735476E-2,3.763645E-2,1.7994335E-2,-1.2381043E-2,-2.033531E-2,-3.8458996E-3,7.96165E-3],"categories":[],"categories_nodes":[],"categories_segments":[],"categories_sizes":[],"default_left":[0,0,0,0,0,0,0,0,0,0,0,0,0,0,0],"id":23,"left_children":[1,3,5,7,9,11,13,-1,-1,-1,-1,-1,-1,-1,-1],"loss_changes":[7.604091E2,4.6531772E2,4.33795E2,1.3930133E2,1.1380145E2,4.0178467E1,1.1103224E2,0E0,0E0,0E0,0E0,0E0,0E0,0E0,0E0],"parents":[2147483647,0,0,1,1,2,2,3,3,4,4,5,5,6,6],"right_children":[2,4,6,8,10,12,14,-1,-1,-1,-1,-1,-1,-1,-1],"split_conditions":[1.502065E3,1.515052E3,1.5456501E3,1.6E1,1.3581206E3,1E0,1.6858485E3,-3.3170604E-3,1.9735476E-2,3.763645E-2,1.7994335E-2,-1.2381043E-2,-2.033531E-2,-3.8458996E-3,7.96165E-3],"split_indices":[1,2,2,7,1,11,2,0,0,0,0,0,0,0,0],"split_type":[0,0,0,0,0,0,0,0,0,0,0,0,0,0,0],"sum_hessian":[1.632702E4,6.448893E3,9.878126E3,3.3009363E3,3.1479568E3,4.1514937E3,5.7266323E3,2.8089436E3,4.9199268E2,5.789224E2,2.5690344E3,1.8036549E3,2.3478386E3,3.8144653E3,1.9121671E3],"tree_param":{"num_deleted":"0","num_feature":"13","num_nodes":"15","size_leaf_vector":"1"}},{"base_weights":[-1.0339025E-3,-3.0567577E-1,2.889364E-1,-4.588267E-1,-1.235267E-1,1.4861731E-1,4.6815366E-1,-2.6141915E-2,-1.5414342E-2,8.810688E-3,-5.7955394E-3,4.6454696E-3,1.444345E-2,1.6489549E-2,2.7384955E-2],"categories":[],"categories_nodes":[],"categories_segments":[],"categories_sizes":[],"default_left":[0,0,0,0,0,0,0,0,0,0,0,0,0,0,0],"id":24,"left_children":[1,3,5,7,9,11,13,-1,-1,-1,-1,-1,-1,-1,-1],"loss_changes":[1.7967496E3,2.7664423E2,2.619881E2,7.682788E1,3.3314514E1,4.030287E1,5.5101013E1,0E0,0E0,0E0,0E0,0E0,0E0,0E0,0E0],"parents":[2147483647,0,0,1,1,2,2,3,3,4,4,5,5,6,6],"right_children":[2,4,6,8,10,12,14,-1,-1,-1,-1,-1,-1,-1,-1],"split_conditions":[3.1149652E0,-8.658934E1,1.21225655E2,-2.2118109E2,2E0,1.3E1,2.7890198E2,-2.6141915E-2,-1.5414342E-2,8.810688E-3,-5.7955394E-3,4.6454696E-3,1.444345E-2,1.6489549E-2,2.7384955E-2],"split_indices":[3,3,3,3,5,9,3,0,0,0,0,0,0,0,0],"split_type":[0,0,0,0,0,0,0,0,0,0,0,0,0,0,0],"sum_hessian":[2.0337693E4,9.917912E3,1.041978E4,5.387003E3,4.530909E3,5.8451323E3,4.5746484E3,1.4735592E3,3.9134438E3,2.645158E2,4.266393E3,5.071403E3,7.737293E2,3.6378774E3,9.36771E2],"tree_param":{"num_deleted":"0","num_feature":"13","num_nodes":"15","size_leaf_vector":"1"}},{"base_weights":[5.834853E-4,5.4831512E-2,-1.9362637E-1,1.0761299E-1,-4.8154652E-2,-2.734662E-1,-3.0528724E-2,4.874429E-3,-7.102728E-3,-1.6352106E-2,-1.1025829E-3,-8.750684E-3,-1.6801773E-2,-2.997944E-4,-1.2432444E-2],"categories":[],"categories_nodes":[],"categories_segments":[],"categories_sizes":[],"default_left":[0,0,0,0,0,0,0,0,0,0,0,0,0,0,0],"id":25,"left_children":[1,3,5,7,9,11,13,-1,-1,-1,-1,-1,-1,-1,-1],"loss_changes":[1.4658707E2,5.9123093E1,3.9550087E1,2.9239311E1,2.735943E1,1.6259247E1,6.45048E0,0E0,0E0,0E0,0E0,0E0,0E0,0E0,0E0],"parents":[2147483647,0,0,1,1,2,2,3,3,4,4,5,5,6,6],"right_children":[2,4,6,8,10,12,14,-1,-1,-1,-1,-1,-1,-1,-1],"split_conditions":[1.17127205E2,9E0,1.4928068E3,1.3E1,-3.5332138E2,2.7143518E2,1.6E1,4.874429E-3,-7.102728E-3,-1.6352106E-2,-1.1025829E-3,-8.750684E-3,-1.6801773E-2,-2.997944E-4,-1.2432444E-2],"split_indices":[3,7,2,9,3,3,6,0,0,0,0,0,0,0,0],"split_type":[0,0,0,0,0,0,0,0,0,0,0,0,0,0,0],"sum_hessian":[1.3911622E4,1.0874734E4,3.0368877E3,7.189828E3,3.6849067E3,2.0383798E3,9.9850793E2,6.84826E3,3.415683E2,1.9799783E2,3.486909E3,1.4862444E3,5.5213525E2,9.2362994E2,7.487801E1],"tree_param":{"num_deleted":"0","num_feature":"13","num_nodes":"15","size_leaf_vector":"1"}},{"base_weights":[-3.4655125E-3,4.051734E-1,-2.403829E-1,7.3783964E-1,2.9972696E-1,-6.754159E-2,-4.1076365E-1,3.7823062E-2,2.436626E-2,1.0108111E-2,2.4703912E-2,-3.6483111E-3,1.4985094E-2,-1.3108816E-2,-2.0231407E-2],"categories":[],"categories_nodes":[],"categories_segments":[],"categories_sizes":[],"default_left":[0,0,0,0,0,0,0,0,0,0,0,0,0,0,0],"id":26,"left_children":[1,3,5,7,9,11,13,-1,-1,-1,-1,-1,-1,-1,-1],"loss_changes":[1.5747135E3,2.0917499E2,3.0317853E2,3.7812622E1,6.7621216E1,5.3531693E1,4.0746338E1,0E0,0E0,0E0,0E0,0E0,0E0,0E0,0E0],"parents":[2147483647,0,0,1,1,2,2,3,3,4,4,5,5,6,6],"right_children":[2,4,6,8,10,12,14,-1,-1,-1,-1,-1,-1,-1,-1],"split_conditions":[-5.7040157E1,-2.2118109E2,6.379619E1,-3.1740094E2,1.4E1,1.6E1,1.5384886E2,3.7823062E-2,2.436626E-2,1.0108111E-2,2.4703912E-2,-3.6483111E-3,1.4985094E-2,-1.3108816E-2,-2.0231407E-2],"split_indices":[3,3,3,3,7,7,3,0,0,0,0,0,0,0,0],"split_type":[0,0,0,0,0,0,0,0,0,0,0,0,0,0,0],"sum_hessian":[1.62634E4,5.968363E3,1.0295037E4,1.435042E3,4.533321E3,5.111309E3,5.183728E3,5.464858E2,8.885562E2,3.9506736E3,5.8264716E2,4.8523887E3,2.5892047E2,2.7685906E3,2.4151377E3],"tree_param":{"num_deleted":"0","num_feature":"13","num_nodes":"15","size_leaf_vector":"1"}},{"base_weights":[-1.6827851E-3,2.1949121E-1,-1.9666387E-1,-1.609534E-3,4.211054E-1,-5.242436E-1,-9.07282E-2,1.2170324E-2,-2.8936581E-3,2.2191273E-2,1.232805E-2,-2.8922515E-2,-1.865125E-2,-5.742451E-4,-1.133227E-2],"categories":[],"categories_nodes":[],"categories_segments":[],"categories_sizes":[],"default_left":[0,0,0,0,0,0,0,0,0,0,0,0,0,0,0],"id":27,"left_children":[1,3,5,7,9,11,13,-1,-1,-1,-1,-1,-1,-1,-1],"loss_changes":[8.714355E2,4.220445E2,3.7264148E2,9.773773E1,7.456903E1,2.9903748E1,1.19369194E2,0E0,0E0,0E0,0E0,0E0,0E0,0E0,0E0],"parents":[2147483647,0,0,1,1,2,2,3,3,4,4,5,5,6,6],"right_children":[2,4,6,8,10,12,14,-1,-1,-1,-1,-1,-1,-1,-1],"split_conditions":[1.5305664E3,1.5048337E3,1.4832809E3,2E0,1.4485021E3,1.3620687E3,1.6883737E3,1.2170324E-2,-2.8936581E-3,2.2191273E-2,1.232805E-2,-2.8922515E-2,-1.865125E-2,-5.742451E-4,-1.133227E-2],"split_indices":[2,1,1,5,2,1,2,0,0,0,0,0,0,0,0],"split_type":[0,0,0,0,0,0,0,0,0,0,0,0,0,0,0],"sum_hessian":[2.0205318E4,9.466736E3,1.0738582E4,4.5156396E3,4.951096E3,2.6231604E3,8.1154214E3,8.474953E2,3.6681443E3,2.2652126E3,2.6858835E3,5.8952594E2,2.0336345E3,5.81171E3,2.3037117E3],"tree_param":{"num_deleted":"0","num_feature":"13","num_nodes":"15","size_leaf_vector":"1"}},{"base_weights":[1.6177506E-3,3.2477956E-2,-2.9357168E-1,5.635694E-2,-2.1188036E-1,-4.0900722E-1,-2.1083587E-1,-1.2471617E-2,2.7390898E-3,-7.1620867E-3,-1.7519277E-2,-1.1811107E-2,-2.0180715E-2,-9.991766E-3,1.8519026E-3],"categories":[],"categories_nodes":[],"categories_segments":[],"categories_sizes":[],"default_left":[0,0,0,0,0,0,0,0,0,0,0,0,0,0,0],"id":28,"left_children":[1,3,5,7,9,11,13,-1,-1,-1,-1,-1,-1,-1,-1],"loss_changes":[1.2641269E2,7.3319626E1,1.24578705E1,5.1092945E1,8.224579E0,5.7958755E0,7.696377E0,0E0,0E0,0E0,0E0,0E0,0E0,0E0,0E0],"parents":[2147483647,0,0,1,1,2,2,3,3,4,4,5,5,6,6],"right_children":[2,4,6,8,10,12,14,-1,-1,-1,-1,-1,-1,-1,-1],"split_conditions":[1.9916228E2,1.3E1,4E0,-3.1740094E2,2.4E1,1.1E1,1.8317747E3,-1.2471617E-2,2.7390898E-3,-7.1620867E-3,-1.7519277E-2,-1.1811107E-2,-2.0180715E-2,-9.991766E-3,1.8519026E-3],"split_indices":[3,9,8,3,9,9,1,0,0,0,0,0,0,0,0],"split_type":[0,0,0,0,0,0,0,0,0,0,0,0,0,0,0],"sum_hessian":[1.3874809E4,1.2562381E4,1.3124282E3,1.1444755E4,1.1176257E3,5.4628754E2,7.661407E2,3.639914E2,1.1080764E4,9.7749335E2,1.4013245E2,2.5122836E2,2.9505914E2,6.653605E2,1.0078021E2],"tree_param":{"num_deleted":"0","num_feature":"13","num_nodes":"15","size_leaf_vector":"1"}},{"base_weights":[1.1200547E-3,3.9773986E-1,-2.3451376E-1,7.2896147E-1,2.9545286E-1,-6.028884E-2,-4.0897006E-1,3.6678895E-2,2.463765E-2,8.980432E-3,2.0922052E-2,-5.6065023E-3,4.7699823E-3,-1.2453243E-2,-1.9565264E-2],"categories":[],"categories_nodes":[],"categories_segments":[],"categories_sizes":[],"default_left":[0,0,0,0,0,0,0,0,0,0,0,0,0,0,0],"id":29,"left_children":[1,3,5,7,9,11,13,-1,-1,-1,-1,-1,-1,-1,-1],"loss_changes":[1.5212258E3,2.0531073E2,3.1033246E2,2.9835876E1,7.474771E1,7.3296455E1,3.9779724E1,0E0,0E0,0E0,0E0,0E0,0E0,0E0,0E0],"parents":[2147483647,0,0,1,1,2,2,3,3,4,4,5,5,6,6],"right_children":[2,4,6,8,10,12,14,-1,-1,-1,-1,-1,-1,-1,-1],"split_conditions":[-5.7040157E1,-2.2118109E2,6.379619E1,-3.1740094E2,1E0,1E0,1E0,3.6678895E-2,2.463765E-2,8.980432E-3,2.0922052E-2,-5.6065023E-3,4.7699823E-3,-1.2453243E-2,-1.9565264E-2],"split_indices":[3,3,3,3,0,0,11,0,0,0,0,0,0,0,0],"split_type":[0,0,0,0,0,0,0,0,0,0,0,0,0,0,0],"sum_hessian":[1.6275276E4,6.065356E3,1.020992E4,1.4296837E3,4.6356724E3,5.1090205E3,5.1008994E3,5.3409503E2,8.955887E2,3.5356135E3,1.1000588E3,3.5360906E3,1.57293E3,2.3019478E3,2.7989517E3],"tree_param":{"num_deleted":"0","num_feature":"13","num_nodes":"15","size_leaf_vector":"1"}},{"base_weights":[-4.3925317E-4,-3.4774446E-1,2.3321667E-1,-5.2071655E-1,-2.453439E-1,1.0469509E-1,4.48824E-1,-2.6772022E-2,-1.7590126E-2,-7.946135E-3,-1.5055625E-2,3.8549613E-4,7.366137E-3,1.2689533E-2,2.1549849E-2],"categories":[],"categories_nodes":[],"categories_segments":[],"categories_sizes":[],"default_left":[0,0,0,0,0,0,0,0,0,0,0,0,0,0,0],"id":30,"left_children":[1,3,5,7,9,11,13,-1,-1,-1,-1,-1,-1,-1,-1],"loss_changes":[1.6364241E3,1.4352557E2,3.340031E2,3.5976074E1,3.1107605E1,5.7056145E1,5.309796E1,0E0,0E0,0E0,0E0,0E0,0E0,0E0,0E0],"parents":[2147483647,0,0,1,1,2,2,3,3,4,4,5,5,6,6],"right_children":[2,4,6,8,10,12,14,-1,-1,-1,-1,-1,-1,-1,-1],"split_conditions":[-2.8645712E1,-1.4903763E2,1.21225655E2,-2.5265012E2,1E0,3.2674477E1,1E0,-2.6772022E-2,-1.7590126E-2,-7.946135E-3,-1.5055625E-2,3.8549613E-4,7.366137E-3,1.2689533E-2,2.1549849E-2],"split_indices":[3,3,3,3,0,3,11,0,0,0,0,0,0,0,0],"split_type":[0,0,0,0,0,0,0,0,0,0,0,0,0,0,0],"sum_hessian":[2.0163443E4,8.1093105E3,1.2054134E4,3.0140237E3,5.0952866E3,7.5532153E3,4.5009185E3,1.0605093E3,1.9535143E3,3.7586401E3,1.3366466E3,3.4395413E3,4.1136743E3,1.8290085E3,2.67191E3],"tree_param":{"num_deleted":"0","num_feature":"13","num_nodes":"15","size_leaf_vector":"1"}},{"base_weights":[5.297877E-3,5.6968898E-2,-1.8289977E-1,8.418371E-2,-1.2594296E-1,-2.5883096E-1,-2.9527437E-2,8.0972654E-4,5.8369767E-3,-2.583325E-3,-1.1880015E-2,-8.178547E-3,-1.6132992E-2,-2.1667022E-3,7.854031E-3],"categories":[],"categories_nodes":[],"categories_segments":[],"categories_sizes":[],"default_left":[0,0,0,0,0,0,0,0,0,0,0,0,0,0,0],"id":31,"left_children":[1,3,5,7,9,11,13,-1,-1,-1,-1,-1,-1,-1,-1],"loss_changes":[1.3500116E2,5.423078E1,3.4819504E1,3.7429634E1,1.479192E1,1.5630066E1,5.5285144E0,0E0,0E0,0E0,0E0,0E0,0E0,0E0,0E0],"parents":[2147483647,0,0,1,1,2,2,3,3,4,4,5,5,6,6],"right_children":[2,4,6,8,10,12,14,-1,-1,-1,-1,-1,-1,-1,-1],"split_conditions":[1.17127205E2,1.3E1,1.4928068E3,1.581187E3,1.9E1,2.7143518E2,1.6697408E3,8.0972654E-4,5.8369767E-3,-2.583325E-3,-1.1880015E-2,-8.178547E-3,-1.6132992E-2,-2.1667022E-3,7.854031E-3],"split_indices":[3,7,2,2,7,3,2,0,0,0,0,0,0,0,0],"split_type":[0,0,0,0,0,0,0,0,0,0,0,0,0,0,0],"sum_hessian":[1.38807E4,1.0891153E4,2.9895474E3,9.481042E3,1.4101112E3,1.9991335E3,9.904137E2,4.6581987E3,4.8228433E3,1.0388456E3,3.712657E2,1.4543387E3,5.447948E2,8.936855E2,9.672825E1],"tree_param":{"num_deleted":"0","num_feature":"13","num_nodes":"15","size_leaf_vector":"1"}},{"base_weights":[-1.0890226E-3,3.047889E-1,-2.9135004E-1,6.4226556E-1,2.00111E-1,-1.4795515E-1,-4.2354816E-1,3.559487E-2,2.144123E-2,1.2734464E-2,3.1075205E-3,-8.601334E-3,7.674435E-5,-1.3006906E-2,-2.0022247E-2],"categories":[],"categories_nodes":[],"categories_segments":[],"categories_sizes":[],"default_left":[0,0,0,0,0,0,0,0,0,0,0,0,0,0,0],"id":32,"left_children":[1,3,5,7,9,11,13,-1,-1,-1,-1,-1,-1,-1,-1],"loss_changes":[1.4411824E3,2.7907568E2,1.5782263E2,4.873004E1,8.73255E1,4.018077E1,3.2663147E1,0E0,0E0,0E0,0E0,0E0,0E0,0E0,0E0],"parents":[2147483647,0,0,1,1,2,2,3,3,4,4,5,5,6,6],"right_children":[2,4,6,8,10,12,14,-1,-1,-1,-1,-1,-1,-1,-1],"split_conditions":[-1.3683767E1,-1.9399509E2,8.442363E1,-3.1740094E2,-8.658934E1,1E0,1E0,3.559487E-2,2.144123E-2,1.2734464E-2,3.1075205E-3,-8.601334E-3,7.674435E-5,-1.3006906E-2,-2.0022247E-2],"split_indices":[3,3,3,3,3,0,11,0,0,0,0,0,0,0,0],"split_type":[0,0,0,0,0,0,0,0,0,0,0,0,0,0,0],"sum_hessian":[1.6230378E4,7.9025728E3,8.327805E3,1.8696788E3,6.032894E3,3.9957485E3,4.332056E3,5.591249E2,1.310554E3,3.067927E3,2.964967E3,2.7600244E3,1.2357242E3,1.9044272E3,2.427629E3],"tree_param":{"num_deleted":"0","num_feature":"13","num_nodes":"15","size_leaf_vector":"1"}},{"base_weights":[5.4250826E-4,-2.7776125E-1,2.680663E-1,-4.2079467E-1,-1.1637497E-1,1.4360759E-1,4.3810743E-1,-2.5834031E-2,-1.4582432E-2,8.033718E-3,-5.4708445E-3,2.3372367E-3,9.762787E-3,1.5287212E-2,2.6113223E-2],"categories":[],"categories_nodes":[],"categories_segments":[],"categories_sizes":[],"default_left":[0,0,0,0,0,0,0,0,0,0,0,0,0,0,0],"id":33,"left_children":[1,3,5,7,9,11,13,-1,-1,-1,-1,-1,-1,-1,-1],"loss_changes":[1.5015066E3,2.2812024E2,2.17552E2,6.6078186E1,3.0084938E1,5.080287E1,5.1930298E1,0E0,0E0,0E0,0E0,0E0,0E0,0E0,0E0],"parents":[2147483647,0,0,1,1,2,2,3,3,4,4,5,5,6,6],"right_children":[2,4,6,8,10,12,14,-1,-1,-1,-1,-1,-1,-1,-1],"split_conditions":[3.1149652E0,-8.838518E1,1.2551722E2,-2.5265012E2,2E0,1E0,2.7890198E2,-2.5834031E-2,-1.4582432E-2,8.033718E-3,-5.4708445E-3,2.3372367E-3,9.762787E-3,1.5287212E-2,2.6113223E-2],"split_indices":[3,3,3,3,5,11,3,0,0,0,0,0,0,0,0],"split_type":[0,0,0,0,0,0,0,0,0,0,0,0,0,0,0],"sum_hessian":[2.0165209E4,9.883456E3,1.0281752E4,5.2388027E3,4.6446533E3,5.937641E3,4.344111E3,1.0452151E3,4.193588E3,2.80061E2,4.3645923E3,3.2141284E3,2.7235127E3,3.4486501E3,8.9546063E2],"tree_param":{"num_deleted":"0","num_feature":"13","num_nodes":"15","size_leaf_vector":"1"}},{"base_weights":[3.91936E-3,-1.1469084E-1,7.794395E-2,-6.154793E-2,-2.824028E-1,-3.395073E-1,9.089913E-2,-2.2682303E-4,-9.204631E-3,-8.228533E-3,-1.5909139E-2,-1.4861287E-2,1.1395993E-2,4.984273E-4,5.151469E-3],"categories":[],"categories_nodes":[],"categories_segments":[],"categories_sizes":[],"default_left":[0,0,0,0,0,0,0,0,0,0,0,0,0,0,0],"id":34,"left_children":[1,3,5,7,9,11,13,-1,-1,-1,-1,-1,-1,-1,-1],"loss_changes":[1.21801796E2,4.7495094E1,4.6225395E1,3.814064E1,1.1260551E1,5.251232E0,2.4621109E1,0E0,0E0,0E0,0E0,0E0,0E0,0E0,0E0],"parents":[2147483647,0,0,1,1,2,2,3,3,4,4,5,5,6,6],"right_children":[2,4,6,8,10,12,14,-1,-1,-1,-1,-1,-1,-1,-1],"split_conditions":[1.5069956E3,1.3E1,1.3158094E3,1.5929108E3,1.5278463E3,7E0,1.5162751E3,-2.2682303E-4,-9.204631E-3,-8.228533E-3,-1.5909139E-2,-1.4861287E-2,1.1395993E-2,4.984273E-4,5.151469E-3],"split_indices":[2,9,1,1,1,4,1,0,0,0,0,0,0,0,0],"split_type":[0,0,0,0,0,0,0,0,0,0,0,0,0,0,0],"sum_hessian":[1.3870512E4,5.3298696E3,8.540643E3,4.0484148E3,1.2814546E3,2.5631357E2,8.284329E3,3.0413071E3,1.00710767E3,7.713227E2,5.1013193E2,2.4419421E2,1.2119349E1,2.6986533E3,5.585676E3],"tree_param":{"num_deleted":"0","num_feature":"13","num_nodes":"15","size_leaf_vector":"1"}},{"base_weights":[-1.8028502E-3,-1.8954754E-1,1.4905594E-1,-2.6772588E-1,2.6530135E-1,1.4916585E-2,3.9319828E-1,-1.4371246E-2,-7.019167E-3,6.3540195E-3,2.999741E-2,-2.0062288E-3,6.372553E-3,1.1924699E-2,2.6281726E-2],"categories":[],"categories_nodes":[],"categories_segments":[],"categories_sizes":[],"default_left":[0,0,0,0,0,0,0,0,0,0,0,0,0,0,0],"id":35,"left_children":[1,3,5,7,9,11,13,-1,-1,-1,-1,-1,-1,-1,-1],"loss_changes":[4.5839484E2,2.5648035E2,2.938791E2,5.1908722E1,5.4467537E1,5.4438046E1,7.963205E1,0E0,0E0,0E0,0E0,0E0,0E0,0E0,0E0],"parents":[2147483647,0,0,1,1,2,2,3,3,4,4,5,5,6,6],"right_children":[2,4,6,8,10,12,14,-1,-1,-1,-1,-1,-1,-1,-1],"split_conditions":[1.5322135E3,1.3E1,8E0,1.4544758E3,2.2E1,1.6837975E3,1.3E1,-1.4371246E-2,-7.019167E-3,6.3540195E-3,2.999741E-2,-2.0062288E-3,6.372553E-3,1.1924699E-2,2.6281726E-2],"split_indices":[2,7,7,2,7,2,7,0,0,0,0,0,0,0,0],"split_type":[0,0,0,0,0,0,0,0,0,0,0,0,0,0,0],"sum_hessian":[1.6182583E4,7.209749E3,8.972834E3,6.1526567E3,1.0570924E3,5.791736E3,3.181098E3,3.086448E3,3.0662087E3,8.6780505E2,1.892874E2,3.9929668E3,1.798769E3,2.3399785E3,8.411194E2],"tree_param":{"num_deleted":"0","num_feature":"13","num_nodes":"15","size_leaf_vector":"1"}},{"base_weights":[-1.0703983E-3,-2.8290907E-1,2.543971E-1,-4.926813E-1,-1.812315E-1,1.3506557E-1,4.3660286E-1,-2.5768263E-2,-1.6731815E-2,-1.1415307E-2,-4.556097E-3,8.808018E-3,2.1761379E-3,1.5249773E-2,2.5397541E-2],"categories":[],"categories_nodes":[],"categories_segments":[],"categories_sizes":[],"default_left":[0,0,0,0,0,0,0,0,0,0,0,0,0,0,0],"id":36,"left_children":[1,3,5,7,9,11,13,-1,-1,-1,-1,-1,-1,-1,-1],"loss_changes":[1.4424553E3,2.030777E2,2.2842853E2,3.4774292E1,4.496759E1,4.360366E1,4.541394E1,0E0,0E0,0E0,0E0,0E0,0E0,0E0,0E0],"parents":[2147483647,0,0,1,1,2,2,3,3,4,4,5,5,6,6],"right_children":[2,4,6,8,10,12,14,-1,-1,-1,-1,-1,-1,-1,-1],"split_conditions":[-8.572094E-1,-1.4388684E2,1.2966159E2,-2.5265012E2,-7.715923E1,1.5085808E3,2.7890198E2,-2.5768263E-2,-1.6731815E-2,-1.1415307E-2,-4.556097E-3,8.808018E-3,2.1761379E-3,1.5249773E-2,2.5397541E-2],"split_indices":[3,3,3,3,3,2,3,0,0,0,0,0,0,0,0],"split_type":[0,0,0,0,0,0,0,0,0,0,0,0,0,0,0],"sum_hessian":[2.003193E4,9.524326E3,1.0507604E4,3.1081074E3,6.4162188E3,6.3503364E3,4.157267E3,1.02088617E3,2.0872214E3,2.5179575E3,3.8982615E3,3.088669E3,3.2616675E3,3.2523955E3,9.048715E2],"tree_param":{"num_deleted":"0","num_feature":"13","num_nodes":"15","size_leaf_vector":"1"}},{"base_weights":[1.1752035E-3,4.8987735E-2,-1.8160059E-1,-3.145539E-1,6.123548E-2,-3.4150314E-1,-1.0122218E-1,-1.6582146E-2,-7.5394446E-3,3.2433986E-3,-6.8404865E-3,-6.8228096E-3,-1.6938578E-2,-7.091233E-3,-9.935589E-4],"categories":[],"categories_nodes":[],"categories_segments":[],"categories_sizes":[],"default_left":[0,0,0,0,0,0,0,0,0,0,0,0,0,0,0],"id":37,"left_children":[1,3,5,7,9,11,13,-1,-1,-1,-1,-1,-1,-1,-1],"loss_changes":[1.21022484E2,4.8895355E1,3.687213E1,4.4341736E0,4.8972683E1,1.3379387E1,1.110564E1,0E0,0E0,0E0,0E0,0E0,0E0,0E0,0E0],"parents":[2147483647,0,0,1,1,2,2,3,3,4,4,5,5,6,6],"right_children":[2,4,6,8,10,12,14,-1,-1,-1,-1,-1,-1,-1,-1],"split_conditions":[1.1910918E2,-3.1740094E2,1.3957964E3,-3.7201913E2,1.3E1,1E0,1.4928068E3,-1.6582146E-2,-7.5394446E-3,3.2433986E-3,-6.8404865E-3,-6.8228096E-3,-1.6938578E-2,-7.091233E-3,-9.935589E-4],"split_indices":[3,3,2,3,9,11,2,0,0,0,0,0,0,0,0],"split_type":[0,0,0,0,0,0,0,0,0,0,0,0,0,0,0],"sum_hessian":[1.3846576E4,1.0976065E4,2.87051E3,3.5692795E2,1.0619138E4,9.591517E2,1.9113583E3,1.9776666E2,1.5916127E2,9.783613E3,8.355244E2,3.1185324E2,6.4729846E2,9.57052E2,9.5430634E2],"tree_param":{"num_deleted":"0","num_feature":"13","num_nodes":"15","size_leaf_vector":"1"}},{"base_weights":[-3.1070816E-3,2.8216758E-1,-2.7848575E-1,5.0744426E-1,1.4741994E-1,-1.4059712E-1,-4.1094193E-1,3.2975327E-2,1.734575E-2,2.775427E-3,1.4157764E-2,-8.580936E-3,9.932384E-4,-1.2537559E-2,-1.9510455E-2],"categories":[],"categories_nodes":[],"categories_segments":[],"categories_sizes":[],"default_left":[0,0,0,0,0,0,0,0,0,0,0,0,0,0,0],"id":38,"left_children":[1,3,5,7,9,11,13,-1,-1,-1,-1,-1,-1,-1,-1],"loss_changes":[1.2741195E3,2.4174408E2,1.5066742E2,6.937219E1,8.033107E1,4.9471764E1,3.1370361E1,0E0,0E0,0E0,0E0,0E0,0E0,0E0,0E0],"parents":[2147483647,0,0,1,1,2,2,3,3,4,4,5,5,6,6],"right_children":[2,4,6,8,10,12,14,-1,-1,-1,-1,-1,-1,-1,-1],"split_conditions":[-1.3683767E1,-1.4670288E2,8.6056694E1,-3.1740094E2,1E0,1E0,1E0,3.2975327E-2,1.734575E-2,2.775427E-3,1.4157764E-2,-8.580936E-3,9.932384E-4,-1.2537559E-2,-1.9510455E-2],"split_indices":[3,3,3,3,0,0,11,0,0,0,0,0,0,0,0],"split_type":[0,0,0,0,0,0,0,0,0,0,0,0,0,0,0],"sum_hessian":[1.6216723E4,7.96523E3,8.251492E3,2.9801406E3,4.9850894E3,4.0438516E3,4.207641E3,5.609502E2,2.4191904E3,3.6190012E3,1.366088E3,2.7946743E3,1.2491772E3,1.8564391E3,2.351202E3],"tree_param":{"num_deleted":"0","num_feature":"13","num_nodes":"15","size_leaf_vector":"1"}},{"base_weights":[-1.1845462E-3,-2.4121511E-1,2.766623E-1,-4.0182102E-1,-9.295962E-2,2.0318033E-1,5.177086E-1,-2.3676373E-2,-1.3257521E-2,7.5666285E-3,-4.492126E-3,1.1103401E-2,3.427826E-3,2.3611115E-2,1.6095461E-2],"categories":[],"categories_nodes":[],"categories_segments":[],"categories_sizes":[],"default_left":[0,0,0,0,0,0,0,0,0,0,0,0,0,0,0],"id":39,"left_children":[1,3,5,7,9,11,13,-1,-1,-1,-1,-1,-1,-1,-1],"loss_changes":[1.3376268E3,2.5618304E2,1.6455328E2,6.890515E1,3.0564705E1,6.2267212E1,1.7932678E1,0E0,0E0,0E0,0E0,0E0,0E0,0E0,0E0],"parents":[2147483647,0,0,1,1,2,2,3,3,4,4,5,5,6,6],"right_children":[2,4,6,8,10,12,14,-1,-1,-1,-1,-1,-1,-1,-1],"split_conditions":[1.9642235E1,-8.838518E1,1.9239583E2,-2.2118109E2,2E0,1.5305664E3,1.4322489E3,-2.3676373E-2,-1.3257521E-2,7.5666285E-3,-4.492126E-3,1.1103401E-2,3.427826E-3,2.3611115E-2,1.6095461E-2],"split_indices":[3,3,3,3,5,2,2,0,0,0,0,0,0,0,0],"split_type":[0,0,0,0,0,0,0,0,0,0,0,0,0,0,0],"sum_hessian":[2.0054863E4,1.0759722E4,9.295141E3,5.1639155E3,5.5958066E3,7.124967E3,2.1701733E3,1.3933601E3,3.7705554E3,3.5848764E2,5.237319E3,4.361442E3,2.7635251E3,1.3294595E3,8.407139E2],"tree_param":{"num_deleted":"0","num_feature":"13","num_nodes":"15","size_leaf_vector":"1"}},{"base_weights":[1.6227544E-3,3.0664837E-2,-2.5856102E-1,5.0683945E-2,-1.8017244E-1,-3.1912732E-1,-7.6162316E-2,2.438361E-3,-1.339316E-2,-5.8344165E-3,-1.6951652E-2,-7.004017E-3,-1.5499568E-2,-5.2318536E-3,6.8782885E-3],"categories":[],"categories_nodes":[],"categories_segments":[],"categories_sizes":[],"default_left":[0,0,0,0,0,0,0,0,0,0,0,0,0,0,0],"id":40,"left_children":[1,3,5,7,9,11,13,-1,-1,-1,-1,-1,-1,-1,-1],"loss_changes":[1.04481094E2,5.250961E1,1.5313881E1,4.5022285E1,8.956379E0,1.01916275E1,4.7320175E0,0E0,0E0,0E0,0E0,0E0,0E0,0E0,0E0],"parents":[2147483647,0,0,1,1,2,2,3,3,4,4,5,5,6,6],"right_children":[2,4,6,8,10,12,14,-1,-1,-1,-1,-1,-1,-1,-1],"split_conditions":[1.8932266E2,1.3E1,7E0,1.9E1,2.4E1,1E0,1.842463E3,2.438361E-3,-1.339316E-2,-5.8344165E-3,-1.6951652E-2,-7.004017E-3,-1.5499568E-2,-5.2318536E-3,6.8782885E-3],"split_indices":[3,9,5,7,9,11,1,0,0,0,0,0,0,0,0],"split_type":[0,0,0,0,0,0,0,0,0,0,0,0,0,0,0],"sum_hessian":[1.3825008E4,1.2437589E4,1.3874193E3,1.1359735E4,1.0778531E3,1.0410006E3,3.4641858E2,1.1065645E4,2.940908E2,9.461879E2,1.3166524E2,3.3621466E2,7.04786E2,2.8429242E2,6.2126175E1],"tree_param":{"num_deleted":"0","num_feature":"13","num_nodes":"15","size_leaf_vector":"1"}},{"base_weights":[-2.650541E-3,2.8690496E-1,-2.6087612E-1,6.3442874E-1,2.0391265E-1,-1.17199086E-1,-3.8949385E-1,3.6025114E-2,2.2410784E-2,5.436544E-3,1.6210737E-2,-7.3260674E-3,1.1362019E-3,-1.1676623E-2,-1.8763818E-2],"categories":[],"categories_nodes":[],"categories_segments":[],"categories_sizes":[],"default_left":[0,0,0,0,0,0,0,0,0,0,0,0,0,0,0],"id":41,"left_children":[1,3,5,7,9,11,13,-1,-1,-1,-1,-1,-1,-1,-1],"loss_changes":[1.20544E3,2.19065E2,1.5743512E2,2.8407959E1,8.396315E1,3.8674E1,3.4786804E1,0E0,0E0,0E0,0E0,0E0,0E0,0E0,0E0],"parents":[2147483647,0,0,1,1,2,2,3,3,4,4,5,5,6,6],"right_children":[2,4,6,8,10,12,14,-1,-1,-1,-1,-1,-1,-1,-1],"split_conditions":[-2.2665716E1,-2.2118109E2,7.398044E1,-3.7201913E2,1E0,1E0,1E0,3.6025114E-2,2.2410784E-2,5.436544E-3,1.6210737E-2,-7.3260674E-3,1.1362019E-3,-1.1676623E-2,-1.8763818E-2],"split_indices":[3,3,3,3,0,0,11,0,0,0,0,0,0,0,0],"split_type":[0,0,0,0,0,0,0,0,0,0,0,0,0,0,0],"sum_hessian":[1.6119837E4,7.598885E3,8.520952E3,1.4635868E3,6.1352983E3,4.0257532E3,4.4951987E3,3.1646603E2,1.1471207E3,4.5876846E3,1.5476135E3,2.770551E3,1.255202E3,2.0216547E3,2.4735442E3],"tree_param":{"num_deleted":"0","num_feature":"13","num_nodes":"15","size_leaf_vector":"1"}},{"base_weights":[-2.1318493E-3,-2.674948E-1,2.3962094E-1,-4.1081992E-1,-1.3007578E-1,1.2002696E-1,4.04389E-1,-2.4634318E-2,-1.420222E-2,7.7679413E-3,-5.9497454E-3,6.929083E-3,-2.2474199E-4,1.1227289E-2,1.959131E-2],"categories":[],"categories_nodes":[],"categories_segments":[],"categories_sizes":[],"default_left":[0,0,0,0,0,0,0,0,0,0,0,0,0,0,0],"id":42,"left_children":[1,3,5,7,9,11,13,-1,-1,-1,-1,-1,-1,-1,-1],"loss_changes":[1.2789141E3,1.8712811E2,2.0551459E2,5.2964966E1,2.9408348E1,4.041442E1,4.6204956E1,0E0,0E0,0E0,0E0,0E0,0E0,0E0,0E0],"parents":[2147483647,0,0,1,1,2,2,3,3,4,4,5,5,6,6],"right_children":[2,4,6,8,10,12,14,-1,-1,-1,-1,-1,-1,-1,-1],"split_conditions":[-8.572094E-1,-9.9599434E1,1.21225655E2,-2.5265012E2,2E0,1E0,1E0,-2.4634318E-2,-1.420222E-2,7.7679413E-3,-5.9497454E-3,6.929083E-3,-2.2474199E-4,1.1227289E-2,1.959131E-2],"split_indices":[3,3,3,3,5,0,11,0,0,0,0,0,0,0,0],"split_type":[0,0,0,0,0,0,0,0,0,0,0,0,0,0,0],"sum_hessian":[1.9933613E4,9.502725E3,1.043089E4,4.650432E3,4.852292E3,6.044978E3,4.385912E3,9.922014E2,3.658231E3,2.6362E2,4.588672E3,4.2465493E3,1.7984286E3,1.7928962E3,2.5930156E3],"tree_param":{"num_deleted":"0","num_feature":"13","num_nodes":"15","size_leaf_vector":"1"}},{"base_weights":[3.3014317E-3,-1.0483769E-1,7.42573E-2,-5.8699828E-2,-3.136873E-1,-2.604507E-1,8.871078E-2,-6.865695E-4,-8.609524E-3,-1.7015344E-2,-8.764198E-3,-1.4691632E-2,-5.0299764E-3,6.054118E-4,4.9083703E-3],"categories":[],"categories_nodes":[],"categories_segments":[],"categories_sizes":[],"default_left":[0,0,0,0,0,0,0,0,0,0,0,0,0,0,0],"id":43,"left_children":[1,3,5,7,9,11,13,-1,-1,-1,-1,-1,-1,-1,-1],"loss_changes":[1.06279884E2,5.285981E1,4.0482216E1,2.922843E1,1.0394325E1,4.9397736E0,2.0054432E1,0E0,0E0,0E0,0E0,0E0,0E0,0E0,0E0],"parents":[2147483647,0,0,1,1,2,2,3,3,4,4,5,5,6,6],"right_children":[2,4,6,8,10,12,14,-1,-1,-1,-1,-1,-1,-1,-1],"split_conditions":[1.5123037E3,2.0323157E2,-3.1740094E2,1.3E1,4E0,-3.7201913E2,1.5782808E3,-6.865695E-4,-8.609524E-3,-1.7015344E-2,-8.764198E-3,-1.4691632E-2,-5.0299764E-3,6.054118E-4,4.9083703E-3],"split_indices":[2,3,3,9,8,3,2,0,0,0,0,0,0,0,0],"split_type":[0,0,0,0,0,0,0,0,0,0,0,0,0,0,0],"sum_hessian":[1.3848946E4,5.486642E3,8.362304E3,4.494929E3,9.91713E2,3.4545157E2,8.0168525E3,3.5532307E3,9.4169836E2,4.53114E2,5.38599E2,1.9168631E2,1.5376526E2,2.5341626E3,5.48269E3],"tree_param":{"num_deleted":"0","num_feature":"13","num_nodes":"15","size_leaf_vector":"1"}},{"base_weights":[1.7370702E-3,2.1088547E-1,-1.5940414E-1,2.9067477E-2,3.2333183E-1,-3.117421E-1,-5.2401178E-2,1.9436598E-2,-1.2203817E-3,1.1235507E-2,3.4553517E-2,-8.587694E-3,-1.5913714E-2,-5.024481E-3,5.3578485E-3],"categories":[],"categories_nodes":[],"categories_segments":[],"categories_sizes":[],"default_left":[0,0,0,0,0,0,0,0,0,0,0,0,0,0,0],"id":44,"left_children":[1,3,5,7,9,11,13,-1,-1,-1,-1,-1,-1,-1,-1],"loss_changes":[5.432831E2,1.4341138E2,1.4840018E2,7.30052E1,9.9191956E1,3.1303864E1,7.299816E1,0E0,0E0,0E0,0E0,0E0,0E0,0E0,0E0],"parents":[2147483647,0,0,1,1,2,2,3,3,4,4,5,5,6,6],"right_children":[2,4,6,8,10,12,14,-1,-1,-1,-1,-1,-1,-1,-1],"split_conditions":[1.5118008E3,6E0,7E0,1E0,1.9E1,1E0,1E0,1.9436598E-2,-1.2203817E-3,1.1235507E-2,3.4553517E-2,-8.587694E-3,-1.5913714E-2,-5.024481E-3,5.3578485E-3],"split_indices":[1,5,5,4,7,11,0,0,0,0,0,0,0,0,0],"split_type":[0,0,0,0,0,0,0,0,0,0,0,0,0,0,0],"sum_hessian":[1.6118001E4,7.0140356E3,9.103966E3,2.6807336E3,4.3333022E3,3.7554683E3,5.3484976E3,3.0843573E2,2.3722979E3,4.019207E3,3.1409518E2,1.7671229E3,1.9883453E3,3.8401372E3,1.5083602E3],"tree_param":{"num_deleted":"0","num_feature":"13","num_nodes":"15","size_leaf_vector":"1"}},{"base_weights":[-3.8617589E-3,-3.0601853E-1,1.9772074E-1,-4.684232E-1,-2.1297641E-1,4.7749188E-2,3.447266E-1,-2.3945445E-2,-1.6003901E-2,-6.861693E-3,-1.3207506E-2,1.1689798E-3,1.3185082E-2,1.0813532E-2,1.9809382E-2],"categories":[],"categories_nodes":[],"categories_segments":[],"categories_sizes":[],"default_left":[0,0,0,0,0,0,0,0,0,0,0,0,0,0,0],"id":45,"left_children":[1,3,5,7,9,11,13,-1,-1,-1,-1,-1,-1,-1,-1],"loss_changes":[1.2155564E3,1.20574524E2,2.6389636E2,2.5632507E1,2.4610474E1,3.093784E1,6.754523E1,0E0,0E0,0E0,0E0,0E0,0E0,0E0,0E0],"parents":[2147483647,0,0,1,1,2,2,3,3,4,4,5,5,6,6],"right_children":[2,4,6,8,10,12,14,-1,-1,-1,-1,-1,-1,-1,-1],"split_conditions":[-2.8645712E1,-1.4903763E2,8.2738625E1,-2.5265012E2,1E0,1.6E1,1.9916228E2,-2.3945445E-2,-1.6003901E-2,-6.861693E-3,-1.3207506E-2,1.1689798E-3,1.3185082E-2,1.0813532E-2,1.9809382E-2],"split_indices":[3,3,3,3,0,9,3,0,0,0,0,0,0,0,0],"split_type":[0,0,0,0,0,0,0,0,0,0,0,0,0,0,0],"sum_hessian":[1.9954764E4,7.9851357E3,1.1969628E4,2.90698E3,5.078156E3,5.925704E3,6.043924E3,9.977455E2,1.9092345E3,3.7536924E3,1.3244634E3,5.5613237E3,3.6438013E2,4.0466643E3,1.9972595E3],"tree_param":{"num_deleted":"0","num_feature":"13","num_nodes":"15","size_leaf_vector":"1"}},{"base_weights":[5.281512E-3,3.6474235E-2,-2.335528E-1,5.572987E-2,-1.7432438E-1,-3.6526883E-1,-1.350169E-1,2.626773E-3,-1.3064973E-2,-5.5625653E-3,-1.5376382E-2,-7.896613E-3,-1.7432565E-2,-8.997112E-3,-1.9145284E-3],"categories":[],"categories_nodes":[],"categories_segments":[],"categories_sizes":[],"default_left":[0,0,0,0,0,0,0,0,0,0,0,0,0,0,0],"id":46,"left_children":[1,3,5,7,9,11,13,-1,-1,-1,-1,-1,-1,-1,-1],"loss_changes":[1.02702255E2,4.950226E1,2.061924E1,4.2484383E1,7.5083466E0,7.9768906E0,7.1402206E0,0E0,0E0,0E0,0E0,0E0,0E0,0E0,0E0],"parents":[2147483647,0,0,1,1,2,2,3,3,4,4,5,5,6,6],"right_children":[2,4,6,8,10,12,14,-1,-1,-1,-1,-1,-1,-1,-1],"split_conditions":[1.7393344E2,1.3E1,1.3957964E3,1.9E1,2.3E1,1E0,6E0,2.626773E-3,-1.3064973E-2,-5.5625653E-3,-1.5376382E-2,-7.896613E-3,-1.7432565E-2,-8.997112E-3,-1.9145284E-3],"split_indices":[3,9,2,7,9,11,5,0,0,0,0,0,0,0,0],"split_type":[0,0,0,0,0,0,0,0,0,0,0,0,0,0,0],"sum_hessian":[1.3783594E4,1.2192103E4,1.5914906E3,1.1172293E4,1.01980975E3,6.7991705E2,9.1157355E2,1.089003E4,2.822628E2,8.746691E2,1.4514062E2,2.023203E2,4.7759677E2,4.4791132E2,4.636622E2],"tree_param":{"num_deleted":"0","num_feature":"13","num_nodes":"15","size_leaf_vector":"1"}},{"base_weights":[-3.364542E-3,1.9843583E-1,-1.6040368E-1,-8.081403E-3,3.917284E-1,-3.8341132E-1,-1.829097E-2,-3.8939912E-3,1.2686862E-2,3.176345E-2,1.3480333E-2,-1.0524707E-2,-1.906047E-2,-4.0722196E-3,6.0049E-3],"categories":[],"categories_nodes":[],"categories_segments":[],"categories_sizes":[],"default_left":[0,0,0,0,0,0,0,0,0,0,0,0,0,0,0],"id":47,"left_children":[1,3,5,7,9,11,13,-1,-1,-1,-1,-1,-1,-1,-1],"loss_changes":[5.0735107E2,2.7968112E2,2.8532632E2,9.840777E1,7.941278E1,3.911969E1,7.737328E1,0E0,0E0,0E0,0E0,0E0,0E0,0E0,0E0],"parents":[2147483647,0,0,1,1,2,2,3,3,4,4,5,5,6,6],"right_children":[2,4,6,8,10,12,14,-1,-1,-1,-1,-1,-1,-1,-1],"split_conditions":[1.5118008E3,1.5110352E3,1.5456501E3,1.4E1,1.3303271E3,1E0,1.6909783E3,-3.8939912E-3,1.2686862E-2,3.176345E-2,1.3480333E-2,-1.0524707E-2,-1.906047E-2,-4.0722196E-3,6.0049E-3],"split_indices":[1,2,2,7,1,11,2,0,0,0,0,0,0,0,0],"split_type":[0,0,0,0,0,0,0,0,0,0,0,0,0,0,0],"sum_hessian":[1.600753E4,7.0052695E3,9.002262E3,3.38724E3,3.6180295E3,3.5032134E3,5.499048E3,2.6583376E3,7.289022E2,4.315226E2,3.1865068E3,1.5300659E3,1.9731475E3,3.6763694E3,1.8226785E3],"tree_param":{"num_deleted":"0","num_feature":"13","num_nodes":"15","size_leaf_vector":"1"}},{"base_weights":[7.204078E-4,-2.9171517E-1,1.9595121E-1,-4.5247817E-1,-2.0007466E-1,8.649928E-2,3.863638E-1,-2.3630036E-2,-1.5224723E-2,-1.0917811E-2,-5.62604E-3,2.3337277E-3,1.1472656E-2,1.0461407E-2,1.8912412E-2],"categories":[],"categories_nodes":[],"categories_segments":[],"categories_sizes":[],"default_left":[0,0,0,0,0,0,0,0,0,0,0,0,0,0,0],"id":48,"left_children":[1,3,5,7,9,11,13,-1,-1,-1,-1,-1,-1,-1,-1],"loss_changes":[1.1282053E3,1.16458496E2,2.4693188E2,2.8307129E1,2.1788513E1,4.243078E1,4.6547363E1,0E0,0E0,0E0,0E0,0E0,0E0,0E0,0E0],"parents":[2147483647,0,0,1,1,2,2,3,3,4,4,5,5,6,6],"right_children":[2,4,6,8,10,12,14,-1,-1,-1,-1,-1,-1,-1,-1],"split_conditions":[-2.8645712E1,-1.4903763E2,1.21225655E2,-2.5265012E2,-8.658934E1,1.3E1,1E0,-2.3630036E-2,-1.5224723E-2,-1.0917811E-2,-5.62604E-3,2.3337277E-3,1.1472656E-2,1.0461407E-2,1.8912412E-2],"split_indices":[3,3,3,3,3,9,11,0,0,0,0,0,0,0,0],"split_type":[0,0,0,0,0,0,0,0,0,0,0,0,0,0,0],"sum_hessian":[1.9759027E4,7.910068E3,1.184896E4,2.870491E3,5.039577E3,7.524958E3,4.3240015E3,9.791652E2,1.8913257E3,2.2620522E3,2.777525E3,6.598746E3,9.262123E2,1.7708795E3,2.553122E3],"tree_param":{"num_deleted":"0","num_feature":"13","num_nodes":"15","size_leaf_vector":"1"}},{"base_weights":[7.180364E-3,-1.072672E-1,6.4187445E-2,-2.8015602E-1,-6.128567E-2,8.361743E-2,-1.3294232E-1,-9.649056E-3,-2.047265E-2,-1.1595316E-3,-5.558885E-3,4.00393E-3,-3.8084367E-3,-3.429965E-3,-1.1415324E-2],"categories":[],"categories_nodes":[],"categories_segments":[],"categories_sizes":[],"default_left":[0,0,0,0,0,0,0,0,0,0,0,0,0,0,0],"id":49,"left_children":[1,3,5,7,9,11,13,-1,-1,-1,-1,-1,-1,-1,-1],"loss_changes":[9.013338E1,3.6498764E1,3.5331734E1,8.576836E0,9.103024E0,2.4751003E1,5.930525E0,0E0,0E0,0E0,0E0,0E0,0E0,0E0,0E0],"parents":[2147483647,0,0,1,1,2,2,3,3,4,4,5,5,6,6],"right_children":[2,4,6,8,10,12,14,-1,-1,-1,-1,-1,-1,-1,-1],"split_conditions":[1.491482E3,2E0,1.3E1,2.4E1,9E0,1.4E1,1.9E1,-9.649056E-3,-2.047265E-2,-1.1595316E-3,-5.558885E-3,4.00393E-3,-3.8084367E-3,-3.429965E-3,-1.1415324E-2],"split_indices":[2,5,7,9,4,6,7,0,0,0,0,0,0,0,0],"split_type":[0,0,0,0,0,0,0,0,0,0,0,0,0,0,0],"sum_hessian":[1.3812925E4,4.5923765E3,9.220548E3,9.637227E2,3.6286536E3,8.393795E3,8.2675354E2,8.2682E2,1.369027E2,2.5640488E3,1.0646047E3,7.685902E3,7.0789276E2,6.325033E2,1.9425026E2],"tree_param":{"num_deleted":"0","num_feature":"13","num_nodes":"15","size_leaf_vector":"1"}},{"base_weights":[-1.8553501E-3,2.3708808E-1,-2.6850045E-1,3.8706258E-1,6.1678927E-2,-1.3510725E-1,-3.8941765E-1,2.5678867E-2,1.2482999E-2,1.8502197E-3,2.9972896E-2,-2.1251864E-3,-9.585455E-3,-1.1881722E-2,-1.8583877E-2],"categories":[],"categories_nodes":[],"categories_segments":[],"categories_sizes":[],"default_left":[0,0,0,0,0,0,0,0,0,0,0,0,0,0,0],"id":50,"left_children":[1,3,5,7,9,11,13,-1,-1,-1,-1,-1,-1,-1,-1],"loss_changes":[1.02229156E3,2.2259009E2,1.2225836E2,8.699542E1,4.134446E1,3.0896248E1,2.7480896E1,0E0,0E0,0E0,0E0,0E0,0E0,0E0,0E0],"parents":[2147483647,0,0,1,1,2,2,3,3,4,4,5,5,6,6],"right_children":[2,4,6,8,10,12,14,-1,-1,-1,-1,-1,-1,-1,-1],"split_conditions":[-5.1264625E0,-9.9599434E1,8.6056694E1,-2.5998923E2,2.3E1,1E0,1E0,2.5678867E-2,1.2482999E-2,1.8502197E-3,2.9972896E-2,-2.1251864E-3,-9.585455E-3,-1.1881722E-2,-1.8583877E-2],"split_indices":[3,3,3,3,7,11,11,0,0,0,0,0,0,0,0],"split_type":[0,0,0,0,0,0,0,0,0,0,0,0,0,0,0],"sum_hessian":[1.6043236E4,8.461188E3,7.582048E3,4.5606416E3,3.9005466E3,3.60605E3,3.9759978E3,1.0349436E3,3.5256982E3,3.816023E3,8.4523865E1,2.0218839E3,1.584166E3,1.7862015E3,2.1897964E3],"tree_param":{"num_deleted":"0","num_feature":"13","num_nodes":"15","size_leaf_vector":"1"}},{"base_weights":[3.1379255E-4,-2.8241012E-1,1.8889873E-1,-4.3933797E-1,-1.9415888E-1,8.167503E-2,3.746163E-1,-2.3028927E-2,-1.482696E-2,-1.1057138E-2,-5.244649E-3,5.8581354E-4,6.549704E-3,1.2967146E-2,2.3235783E-2],"categories":[],"categories_nodes":[],"categories_segments":[],"categories_sizes":[],"default_left":[0,0,0,0,0,0,0,0,0,0,0,0,0,0,0],"id":51,"left_children":[1,3,5,7,9,11,13,-1,-1,-1,-1,-1,-1,-1,-1],"loss_changes":[1.0512784E3,1.09177E2,2.3550082E2,2.6373169E1,2.6163315E1,4.1253906E1,4.485144E1,0E0,0E0,0E0,0E0,0E0,0E0,0E0,0E0],"parents":[2147483647,0,0,1,1,2,2,3,3,4,4,5,5,6,6],"right_children":[2,4,6,8,10,12,14,-1,-1,-1,-1,-1,-1,-1,-1],"split_conditions":[-2.8645712E1,-1.4903763E2,1.21225655E2,-2.5265012E2,-8.838518E1,1E0,2.7890198E2,-2.3028927E-2,-1.482696E-2,-1.1057138E-2,-5.244649E-3,5.8581354E-4,6.549704E-3,1.2967146E-2,2.3235783E-2],"split_indices":[3,3,3,3,3,11,3,0,0,0,0,0,0,0,0],"split_type":[0,0,0,0,0,0,0,0,0,0,0,0,0,0,0],"sum_hessian":[1.9715334E4,7.8885024E3,1.1826831E4,2.8380032E3,5.050499E3,7.498833E3,4.327998E3,9.4787726E2,1.890126E3,2.1896543E3,2.860845E3,4.1282295E3,3.3706033E3,3.4797314E3,8.482664E2],"tree_param":{"num_deleted":"0","num_feature":"13","num_nodes":"15","size_leaf_vector":"1"}},{"base_weights":[3.4147352E-3,3.1838402E-2,-2.2003248E-1,-2.1483378E-2,9.2627876E-2,-3.5707435E-1,-1.1388928E-1,-1.0818984E-2,-2.7347423E-4,-1.1812168E-2,4.654864E-3,-7.016884E-3,-1.7387303E-2,5.9890684E-2,-4.8155063E-3],"categories":[],"categories_nodes":[],"categories_segments":[],"categories_sizes":[],"default_left":[0,0,0,0,0,0,0,0,0,0,0,0,0,0,0],"id":52,"left_children":[1,3,5,7,9,11,13,-1,-1,-1,-1,-1,-1,-1,-1],"loss_changes":[8.756476E1,3.9648094E1,2.2591301E1,2.3763275E1,5.2680004E1,9.490875E0,9.375487E0,0E0,0E0,0E0,0E0,0E0,0E0,0E0,0E0],"parents":[2147483647,0,0,1,1,2,2,3,3,4,4,5,5,6,6],"right_children":[2,4,6,8,10,12,14,-1,-1,-1,-1,-1,-1,-1,-1],"split_conditions":[1.7393344E2,1.5782808E3,1.3986405E3,1E0,-3.1740094E2,1E0,1E0,-1.0818984E-2,-2.7347423E-4,-1.1812168E-2,4.654864E-3,-7.016884E-3,-1.7387303E-2,5.9890684E-2,-4.8155063E-3],"split_indices":[3,2,2,5,3,11,9,0,0,0,0,0,0,0,0],"split_type":[0,0,0,0,0,0,0,0,0,0,0,0,0,0,0],"sum_hessian":[1.3785039E4,1.2230156E4,1.5548829E3,6.5156064E3,5.7145493E3,6.7762933E2,8.7725366E2,3.6100726E2,6.154599E3,3.289314E2,5.3856177E3,2.0382063E2,4.7380865E2,2.602508E0,8.746512E2],"tree_param":{"num_deleted":"0","num_feature":"13","num_nodes":"15","size_leaf_vector":"1"}},{"base_weights":[-4.2062597E-3,1.992926E-1,-1.4659554E-1,5.639491E-3,3.9010325E-1,-3.6280298E-1,-6.549214E-3,-2.7457052E-3,1.6574113E-2,2.739725E-2,1.2929595E-2,-9.981896E-3,-1.8185388E-2,-3.2529132E-3,5.327384E-3],"categories":[],"categories_nodes":[],"categories_segments":[],"categories_sizes":[],"default_left":[0,0,0,0,0,0,0,0,0,0,0,0,0,0,0],"id":53,"left_children":[1,3,5,7,9,11,13,-1,-1,-1,-1,-1,-1,-1,-1],"loss_changes":[4.645655E2,2.4387817E2,2.8560898E2,9.950819E1,6.531375E1,3.8451782E1,5.9834297E1,0E0,0E0,0E0,0E0,0E0,0E0,0E0,0E0],"parents":[2147483647,0,0,1,1,2,2,3,3,4,4,5,5,6,6],"right_children":[2,4,6,8,10,12,14,-1,-1,-1,-1,-1,-1,-1,-1],"split_conditions":[1.502065E3,1.5164106E3,1.5456501E3,1.6E1,1.3581206E3,1E0,1.6858485E3,-2.7457052E-3,1.6574113E-2,2.739725E-2,1.2929595E-2,-9.981896E-3,-1.8185388E-2,-3.2529132E-3,5.327384E-3],"split_indices":[1,2,2,7,1,11,2,0,0,0,0,0,0,0,0],"split_type":[0,0,0,0,0,0,0,0,0,0,0,0,0,0,0],"sum_hessian":[1.6030728E4,6.59909E3,9.431638E3,3.2756614E3,3.3234285E3,3.7070303E3,5.724608E3,2.7725862E3,5.0307516E2,6.126702E2,2.710758E3,1.6615571E3,2.045473E3,3.72938E3,1.995228E3],"tree_param":{"num_deleted":"0","num_feature":"13","num_nodes":"15","size_leaf_vector":"1"}},{"base_weights":[-2.512783E-3,-2.1826181E-1,2.2836867E-1,-3.558662E-1,-8.486872E-2,1.4588892E-1,4.0273723E-1,-2.1471484E-2,-1.1673833E-2,-3.6609666E-3,2.8688828E-2,8.680354E-3,1.8232665E-3,2.0342302E-2,1.1739382E-2],"categories":[],"categories_nodes":[],"categories_segments":[],"categories_sizes":[],"default_left":[0,0,0,0,0,0,0,0,0,0,0,0,0,0,0],"id":54,"left_children":[1,3,5,7,9,11,13,-1,-1,-1,-1,-1,-1,-1,-1],"loss_changes":[9.821277E2,1.8705362E2,1.3691782E2,5.7948975E1,2.7699875E1,4.6127304E1,3.520337E1,0E0,0E0,0E0,0E0,0E0,0E0,0E0,0E0],"parents":[2147483647,0,0,1,1,2,2,3,3,4,4,5,5,6,6],"right_children":[2,4,6,8,10,12,14,-1,-1,-1,-1,-1,-1,-1,-1],"split_conditions":[1.2933325E1,-8.838518E1,1.5613861E2,-2.2118109E2,2.8E1,1.5305664E3,1.4267261E3,-2.1471484E-2,-1.1673833E-2,-3.6609666E-3,2.8688828E-2,8.680354E-3,1.8232665E-3,2.0342302E-2,1.1739382E-2],"split_indices":[3,3,3,3,9,2,2,0,0,0,0,0,0,0,0],"split_type":[0,0,0,0,0,0,0,0,0,0,0,0,0,0,0],"sum_hessian":[1.9714512E4,1.0191261E4,9.523251E3,5.0156235E3,5.1756367E3,6.466368E3,3.0568823E3,1.3090046E3,3.706619E3,5.1339233E3,4.171352E1,3.7829883E3,2.6833801E3,1.5509769E3,1.5059054E3],"tree_param":{"num_deleted":"0","num_feature":"13","num_nodes":"15","size_leaf_vector":"1"}},{"base_weights":[6.54099E-3,-9.728867E-2,6.680709E-2,-5.1847495E-2,-3.0154967E-1,-2.7353254E-1,8.071877E-2,1.8005469E-4,-6.7305467E-3,-5.271297E-3,-1.481062E-2,-1.4884394E-2,-5.884726E-3,3.7926289E-3,-3.0282114E-3],"categories":[],"categories_nodes":[],"categories_segments":[],"categories_sizes":[],"default_left":[0,0,0,0,0,0,0,0,0,0,0,0,0,0,0],"id":55,"left_children":[1,3,5,7,9,11,13,-1,-1,-1,-1,-1,-1,-1,-1],"loss_changes":[8.634503E1,4.702312E1,4.1360695E1,2.7203259E1,1.07074585E1,4.220825E0,1.8505558E1,0E0,0E0,0E0,0E0,0E0,0E0,0E0,0E0],"parents":[2147483647,0,0,1,1,2,2,3,3,4,4,5,5,6,6],"right_children":[2,4,6,8,10,12,14,-1,-1,-1,-1,-1,-1,-1,-1],"split_conditions":[1.503983E3,2.0323157E2,-3.1740094E2,1.1E1,1E0,-3.7201913E2,1.4E1,1.8005469E-4,-6.7305467E-3,-5.271297E-3,-1.481062E-2,-1.4884394E-2,-5.884726E-3,3.7926289E-3,-3.0282114E-3],"split_indices":[2,3,3,9,11,3,6,0,0,0,0,0,0,0,0],"split_type":[0,0,0,0,0,0,0,0,0,0,0,0,0,0,0],"sum_hessian":[1.3796811E4,5.0668154E3,8.729995E3,4.1457744E3,9.21041E2,3.4209973E2,8.387895E3,2.7942407E3,1.3515336E3,2.6622687E2,6.5481415E2,1.91121E2,1.5097874E2,7.69483E3,6.93065E2],"tree_param":{"num_deleted":"0","num_feature":"13","num_nodes":"15","size_leaf_vector":"1"}},{"base_weights":[-3.1012555E-3,2.043661E-1,-2.822596E-1,3.9594156E-1,7.757074E-2,-2.071177E-1,-4.5424035E-1,2.424611E-2,1.2505532E-2,1.5581143E-4,1.0369716E-2,-1.0669093E-2,-2.8399467E-3,-1.6520828E-2,-2.2645006E-2],"categories":[],"categories_nodes":[],"categories_segments":[],"categories_sizes":[],"default_left":[0,0,0,0,0,0,0,0,0,0,0,0,0,0,0],"id":56,"left_children":[1,3,5,7,9,11,13,-1,-1,-1,-1,-1,-1,-1,-1],"loss_changes":[9.2291034E2,2.2202316E2,8.770209E1,6.355963E1,7.364194E1,3.83593E1,9.289398E0,0E0,0E0,0E0,0E0,0E0,0E0,0E0,0E0],"parents":[2147483647,0,0,1,1,2,2,3,3,4,4,5,5,6,6],"right_children":[2,4,6,8,10,12,14,-1,-1,-1,-1,-1,-1,-1,-1],"split_conditions":[8.796275E0,-1.266414E2,1.5384886E2,-2.5998923E2,1E0,1E0,2.7890198E2,2.424611E-2,1.2505532E-2,1.5581143E-4,1.0369716E-2,-1.0669093E-2,-2.8399467E-3,-1.6520828E-2,-2.2645006E-2],"split_indices":[3,3,3,3,0,0,3,0,0,0,0,0,0,0,0],"split_type":[0,0,0,0,0,0,0,0,0,0,0,0,0,0,0],"sum_hessian":[1.5933263E4,9.14045E3,6.7928125E3,3.6394592E3,5.5009907E3,4.728875E3,2.0639373E3,1.0311448E3,2.6083145E3,3.9145166E3,1.5864741E3,3.2880178E3,1.4408572E3,1.511701E3,5.5223627E2],"tree_param":{"num_deleted":"0","num_feature":"13","num_nodes":"15","size_leaf_vector":"1"}},{"base_weights":[-2.8589002E-3,-2.7192792E-1,1.7638704E-1,-4.3134028E-1,-1.8499106E-1,4.0412974E-2,3.1145474E-1,-2.2337437E-2,-1.4548128E-2,-5.8280122E-3,-1.1855579E-2,9.158407E-4,1.2364977E-2,1.557448E-2,6.822881E-3],"categories":[],"categories_nodes":[],"categories_segments":[],"categories_sizes":[],"default_left":[0,0,0,0,0,0,0,0,0,0,0,0,0,0,0],"id":57,"left_children":[1,3,5,7,9,11,13,-1,-1,-1,-1,-1,-1,-1,-1],"loss_changes":[9.47762E2,1.0880768E2,2.1659555E2,2.3625793E1,2.2217682E1,2.7663107E1,6.4873474E1,0E0,0E0,0E0,0E0,0E0,0E0,0E0,0E0],"parents":[2147483647,0,0,1,1,2,2,3,3,4,4,5,5,6,6],"right_children":[2,4,6,8,10,12,14,-1,-1,-1,-1,-1,-1,-1,-1],"split_conditions":[-2.8645712E1,-1.5189122E2,8.2738625E1,-2.5265012E2,1E0,1.6E1,1.5E3,-2.2337437E-2,-1.4548128E-2,-5.8280122E-3,-1.1855579E-2,9.158407E-4,1.2364977E-2,1.557448E-2,6.822881E-3],"split_indices":[3,3,3,3,0,9,2,0,0,0,0,0,0,0,0],"split_type":[0,0,0,0,0,0,0,0,0,0,0,0,0,0,0],"sum_hessian":[1.9649078E4,7.8559165E3,1.1793162E4,2.7709622E3,5.0849546E3,5.87751E3,5.915652E3,9.599257E2,1.8110363E3,3.7608079E3,1.3241467E3,5.5188296E3,3.5868024E2,3.8080564E3,2.1075957E3],"tree_param":{"num_deleted":"0","num_feature":"13","num_nodes":"15","size_leaf_vector":"1"}},{"base_weights":[2.2786567E-3,2.8743424E-2,-2.3353682E-1,4.4499125E-2,-1.9345051E-1,-1.3907237E-1,-3.2968807E-1,-1.1217088E-2,2.1744375E-3,-1.09309135E-2,-1.1770357E-3,-3.8446528E-3,-1.2629483E-2,-1.1685019E-2,-2.2060122E-2],"categories":[],"categories_nodes":[],"categories_segments":[],"categories_sizes":[],"default_left":[0,0,0,0,0,0,0,0,0,0,0,0,0,0,0],"id":58,"left_children":[1,3,5,7,9,11,13,-1,-1,-1,-1,-1,-1,-1,-1],"loss_changes":[8.584657E1,4.3305485E1,1.2561058E1,3.702413E1,1.07163315E1,5.2959747E0,5.563957E0,0E0,0E0,0E0,0E0,0E0,0E0,0E0,0E0],"parents":[2147483647,0,0,1,1,2,2,3,3,4,4,5,5,6,6],"right_children":[2,4,6,8,10,12,14,-1,-1,-1,-1,-1,-1,-1,-1],"split_conditions":[1.3E1,1.9916228E2,8.9730965E1,-3.1740094E2,7E0,2.1E1,2.4E1,-1.1217088E-2,2.1744375E-3,-1.09309135E-2,-1.1770357E-3,-3.8446528E-3,-1.2629483E-2,-1.1685019E-2,-2.2060122E-2],"split_indices":[9,3,3,3,5,9,9,0,0,0,0,0,0,0,0],"split_type":[0,0,0,0,0,0,0,0,0,0,0,0,0,0,0],"sum_hessian":[1.375362E4,1.2366633E4,1.3869869E3,1.154853E4,8.181029E2,7.008643E2,6.861226E2,3.3937543E2,1.1209154E4,5.498521E2,2.682508E2,5.6502295E2,1.3584137E2,5.88741E2,9.73816E1],"tree_param":{"num_deleted":"0","num_feature":"13","num_nodes":"15","size_leaf_vector":"1"}},{"base_weights":[-1.9435688E-3,1.9982399E-1,-1.2740067E-1,8.389614E-3,3.7486982E-1,-3.278617E-1,4.6950504E-3,-2.5949744E-3,1.5310143E-2,2.8655384E-2,1.2698388E-2,-8.208709E-3,-1.7290844E-2,4.724187E-3,-3.3527762E-3],"categories":[],"categories_nodes":[],"categories_segments":[],"categories_sizes":[],"default_left":[0,0,0,0,0,0,0,0,0,0,0,0,0,0,0],"id":59,"left_children":[1,3,5,7,9,11,13,-1,-1,-1,-1,-1,-1,-1,-1],"loss_changes":[4.02395E2,2.0423044E2,2.595567E2,7.989669E1,6.2192047E1,4.976776E1,5.933135E1,0E0,0E0,0E0,0E0,0E0,0E0,0E0,0E0],"parents":[2147483647,0,0,1,1,2,2,3,3,4,4,5,5,6,6],"right_children":[2,4,6,8,10,12,14,-1,-1,-1,-1,-1,-1,-1,-1],"split_conditions":[1.4919982E3,1.5099077E3,1.5456501E3,1.6E1,1.3303271E3,1E0,1.608761E3,-2.5949744E-3,1.5310143E-2,2.8655384E-2,1.2698388E-2,-8.208709E-3,-1.7290844E-2,4.724187E-3,-3.3527762E-3],"split_indices":[1,2,2,7,1,11,1,0,0,0,0,0,0,0,0],"split_type":[0,0,0,0,0,0,0,0,0,0,0,0,0,0,0],"sum_hessian":[1.5894659E4,6.093744E3,9.800915E3,2.9111204E3,3.182624E3,3.8924575E3,5.9084575E3,2.435344E3,4.7577628E2,4.5636633E2,2.7262576E3,1.7912916E3,2.1011658E3,2.5898562E3,3.3186013E3],"tree_param":{"num_deleted":"0","num_feature":"13","num_nodes":"15","size_leaf_vector":"1"}},{"base_weights":[-2.2298873E-3,-2.666609E-1,1.7346011E-1,-4.1584325E-1,-1.867272E-1,4.3058272E-2,3.0474505E-1,-2.1799631E-2,-1.4001963E-2,-5.9384364E-3,-1.1872742E-2,3.6939462E-3,-2.8719902E-3,1.520364E-2,6.6792923E-3],"categories":[],"categories_nodes":[],"categories_segments":[],"categories_sizes":[],"default_left":[0,0,0,0,0,0,0,0,0,0,0,0,0,0,0],"id":60,"left_children":[1,3,5,7,9,11,13,-1,-1,-1,-1,-1,-1,-1,-1],"loss_changes":[9.081969E2,9.297803E1,2.0106274E2,2.2935913E1,2.136914E1,3.3372604E1,6.0686035E1,0E0,0E0,0E0,0E0,0E0,0E0,0E0,0E0],"parents":[2147483647,0,0,1,1,2,2,3,3,4,4,5,5,6,6],"right_children":[2,4,6,8,10,12,14,-1,-1,-1,-1,-1,-1,-1,-1],"split_conditions":[-2.8645712E1,-1.5189122E2,8.2738625E1,-2.5265012E2,1E0,1E0,1.5E3,-2.1799631E-2,-1.4001963E-2,-5.9384364E-3,-1.1872742E-2,3.6939462E-3,-2.8719902E-3,1.520364E-2,6.6792923E-3],"split_indices":[3,3,3,3,0,0,2,0,0,0,0,0,0,0,0],"split_type":[0,0,0,0,0,0,0,0,0,0,0,0,0,0,0],"sum_hessian":[1.9546826E4,7.8026064E3,1.1744221E4,2.7206973E3,5.081909E3,5.892593E3,5.8516274E3,9.157959E2,1.8049012E3,3.7728616E3,1.3090476E3,4.1233057E3,1.7692871E3,3.7816099E3,2.0700178E3],"tree_param":{"num_deleted":"0","num_feature":"13","num_nodes":"15","size_leaf_vector":"1"}},{"base_weights":[7.510088E-3,3.1097176E-2,-2.2502035E-1,7.62945E-2,-3.715267E-2,-3.4105214E-1,-1.16157345E-1,5.6927564E-4,5.4267356E-3,-7.76541E-4,-1.06578395E-2,-7.523943E-3,-1.6239734E-2,-9.032436E-3,-5.023916E-4],"categories":[],"categories_nodes":[],"categories_segments":[],"categories_sizes":[],"default_left":[0,0,0,0,0,0,0,0,0,0,0,0,0,0,0],"id":61,"left_children":[1,3,5,7,9,11,13,-1,-1,-1,-1,-1,-1,-1,-1],"loss_changes":[7.559184E1,3.860093E1,1.599337E1,2.7737923E1,2.0274143E1,6.021431E0,7.4536047E0,0E0,0E0,0E0,0E0,0E0,0E0,0E0,0E0],"parents":[2147483647,0,0,1,1,2,2,3,3,4,4,5,5,6,6],"right_children":[2,4,6,8,10,12,14,-1,-1,-1,-1,-1,-1,-1,-1],"split_conditions":[1.8932266E2,8E0,1.4059814E3,1.581187E3,1.9E1,1E0,6E0,5.6927564E-4,5.4267356E-3,-7.76541E-4,-1.06578395E-2,-7.523943E-3,-1.6239734E-2,-9.032436E-3,-5.023916E-4],"split_indices":[3,7,2,2,7,11,5,0,0,0,0,0,0,0,0],"split_type":[0,0,0,0,0,0,0,0,0,0,0,0,0,0,0],"sum_hessian":[1.3779996E4,1.2511717E4,1.2682793E3,7.5269814E3,4.9847354E3,6.1289325E2,6.55386E2,3.68077E3,3.8462112E3,4.6277935E3,3.5694186E2,1.8382764E2,4.290656E2,3.1781393E2,3.3757208E2],"tree_param":{"num_deleted":"0","num_feature":"13","num_nodes":"15","size_leaf_vector":"1"}},{"base_weights":[-3.6004758E-3,2.0906466E-1,-2.524533E-1,3.633431E-1,8.459046E-2,-1.6052389E-1,-4.139247E-1,1.1894579E-2,2.3338357E-2,5.782587E-4,1.03784455E-2,-2.850638E-3,-1.0869718E-2,-1.5156883E-2,-2.2141716E-2],"categories":[],"categories_nodes":[],"categories_segments":[],"categories_sizes":[],"default_left":[0,0,0,0,0,0,0,0,0,0,0,0,0,0,0],"id":62,"left_children":[1,3,5,7,9,11,13,-1,-1,-1,-1,-1,-1,-1,-1],"loss_changes":[8.398907E2,1.6430157E2,1.0848639E2,5.5316986E1,5.8098057E1,4.625676E1,1.2752441E1,0E0,0E0,0E0,0E0,0E0,0E0,0E0,0E0],"parents":[2147483647,0,0,1,1,2,2,3,3,4,4,5,5,6,6],"right_children":[2,4,6,8,10,12,14,-1,-1,-1,-1,-1,-1,-1,-1],"split_conditions":[-5.1264625E0,-1.2262784E2,1.2551722E2,1.3E1,1E0,1E0,2.7890198E2,1.1894579E-2,2.3338357E-2,5.782587E-4,1.03784455E-2,-2.850638E-3,-1.0869718E-2,-1.5156883E-2,-2.2141716E-2],"split_indices":[3,3,3,7,0,11,3,0,0,0,0,0,0,0,0],"split_type":[0,0,0,0,0,0,0,0,0,0,0,0,0,0,0],"sum_hessian":[1.5868258E4,8.556331E3,7.311927E3,3.8198875E3,4.7364443E3,4.660557E3,2.6513694E3,2.9407605E3,8.7912683E2,3.3813826E3,1.3550615E3,2.586458E3,2.0740994E3,2.1228738E3,5.284955E2],"tree_param":{"num_deleted":"0","num_feature":"13","num_nodes":"15","size_leaf_vector":"1"}},{"base_weights":[-3.1935635E-3,-2.602694E-1,1.6809598E-1,-4.1082639E-1,-1.7975526E-1,3.5885397E-2,3.002552E-1,-2.160133E-2,-1.3765541E-2,-5.6171776E-3,-1.1600538E-2,3.3162215E-3,-2.9375276E-3,1.5034407E-2,6.470006E-3],"categories":[],"categories_nodes":[],"categories_segments":[],"categories_sizes":[],"default_left":[0,0,0,0,0,0,0,0,0,0,0,0,0,0,0],"id":63,"left_children":[1,3,5,7,9,11,13,-1,-1,-1,-1,-1,-1,-1,-1],"loss_changes":[8.54439E2,9.398035E1,2.0345905E2,2.310254E1,2.188739E1,2.9935932E1,6.092047E1,0E0,0E0,0E0,0E0,0E0,0E0,0E0,0E0],"parents":[2147483647,0,0,1,1,2,2,3,3,4,4,5,5,6,6],"right_children":[2,4,6,8,10,12,14,-1,-1,-1,-1,-1,-1,-1,-1],"split_conditions":[-2.8645712E1,-1.5189122E2,8.2738625E1,-2.5265012E2,1E0,1E0,1.5E3,-2.160133E-2,-1.3765541E-2,-5.6171776E-3,-1.1600538E-2,3.3162215E-3,-2.9375276E-3,1.5034407E-2,6.470006E-3],"split_indices":[3,3,3,3,0,0,2,0,0,0,0,0,0,0,0],"split_type":[0,0,0,0,0,0,0,0,0,0,0,0,0,0,0],"sum_hessian":[1.9401902E4,7.757989E3,1.1643913E4,2.7017554E3,5.0562334E3,5.8214614E3,5.8224517E3,9.1733405E2,1.7844214E3,3.7286196E3,1.3276139E3,4.0708347E3,1.7506268E3,3.7653616E3,2.05709E3],"tree_param":{"num_deleted":"0","num_feature":"13","num_nodes":"15","size_leaf_vector":"1"}},{"base_weights":[1.15278205E-2,3.5221286E-2,-2.031908E-1,5.01552E-2,-1.7806152E-1,-1.0381852E-1,-3.06983E-1,-1.1203384E-2,2.407284E-3,-8.9330977E-4,-1.0188398E-2,-2.2518884E-3,-1.187428E-2,-1.0885664E-2,-2.1073597E-2],"categories":[],"categories_nodes":[],"categories_segments":[],"categories_sizes":[],"default_left":[0,0,0,0,0,0,0,0,0,0,0,0,0,0,0],"id":64,"left_children":[1,3,5,7,9,11,13,-1,-1,-1,-1,-1,-1,-1,-1],"loss_changes":[6.98132E1,3.9372604E1,1.403418E1,3.8264084E1,9.649984E0,6.388482E0,4.9624023E0,0E0,0E0,0E0,0E0,0E0,0E0,0E0,0E0],"parents":[2147483647,0,0,1,1,2,2,3,3,4,4,5,5,6,6],"right_children":[2,4,6,8,10,12,14,-1,-1,-1,-1,-1,-1,-1,-1],"split_conditions":[1.3E1,1.9916228E2,8.9730965E1,-3.1740094E2,1E0,2.1E1,2.4E1,-1.1203384E-2,2.407284E-3,-8.9330977E-4,-1.0188398E-2,-2.2518884E-3,-1.187428E-2,-1.0885664E-2,-2.1073597E-2],"split_indices":[9,3,3,3,11,9,9,0,0,0,0,0,0,0,0],"split_type":[0,0,0,0,0,0,0,0,0,0,0,0,0,0,0],"sum_hessian":[1.3720284E4,1.2357512E4,1.3627732E3,1.1549582E4,8.0792896E2,6.972323E2,6.655409E2,3.3954672E2,1.1210036E4,2.669172E2,5.410117E2,5.6053424E2,1.3669804E2,5.764302E2,8.911076E1],"tree_param":{"num_deleted":"0","num_feature":"13","num_nodes":"15","size_leaf_vector":"1"}},{"base_weights":[-4.8425286E-3,1.9752416E-1,-2.4427977E-1,4.9464065E-1,1.3390088E-1,-1.550211E-1,-4.018597E-1,2.7955625E-2,1.6841289E-2,2.9616787E-3,1.217458E-2,-8.703537E-3,-7.366063E-4,-1.4536075E-2,-2.2247657E-2],"categories":[],"categories_nodes":[],"categories_segments":[],"categories_sizes":[],"default_left":[0,0,0,0,0,0,0,0,0,0,0,0,0,0,0],"id":65,"left_children":[1,3,5,7,9,11,13,-1,-1,-1,-1,-1,-1,-1,-1],"loss_changes":[7.6478467E2,1.6163528E2,1.0162546E2,2.2382263E1,7.18808E1,3.9457687E1,1.5310699E1,0E0,0E0,0E0,0E0,0E0,0E0,0E0,0E0],"parents":[2147483647,0,0,1,1,2,2,3,3,4,4,5,5,6,6],"right_children":[2,4,6,8,10,12,14,-1,-1,-1,-1,-1,-1,-1,-1],"split_conditions":[-5.1264625E0,-2.2118109E2,1.2551722E2,-3.5332138E2,1E0,1E0,2.7890198E2,2.7955625E-2,1.6841289E-2,2.9616787E-3,1.217458E-2,-8.703537E-3,-7.366063E-4,-1.4536075E-2,-2.2247657E-2],"split_indices":[3,3,3,3,0,0,3,0,0,0,0,0,0,0,0],"split_type":[0,0,0,0,0,0,0,0,0,0,0,0,0,0,0],"sum_hessian":[1.5781691E4,8.55304E3,7.228652E3,1.5072957E3,7.045744E3,4.6159844E3,2.6126675E3,3.9705258E2,1.110243E3,5.215676E3,1.8300685E3,3.1655347E3,1.4504496E3,2.094176E3,5.1849146E2],"tree_param":{"num_deleted":"0","num_feature":"13","num_nodes":"15","size_leaf_vector":"1"}},{"base_weights":[-2.2701763E-3,-2.527806E-1,1.6414297E-1,-4.8899293E-1,-2.0709442E-1,4.1944493E-2,2.904232E-1,-2.4573201E-2,-1.7309386E-2,-1.0983018E-2,-4.8683616E-3,1.4441977E-2,1.0336066E-3,8.904931E-3,1.7182497E-2],"categories":[],"categories_nodes":[],"categories_segments":[],"categories_sizes":[],"default_left":[0,0,0,0,0,0,0,0,0,0,0,0,0,0,0],"id":66,"left_children":[1,3,5,7,9,11,13,-1,-1,-1,-1,-1,-1,-1,-1],"loss_changes":[8.108654E2,8.3681305E1,1.8033374E2,8.601044E0,3.7460205E1,3.051968E1,5.4122864E1,0E0,0E0,0E0,0E0,0E0,0E0,0E0,0E0],"parents":[2147483647,0,0,1,1,2,2,3,3,4,4,5,5,6,6],"right_children":[2,4,6,8,10,12,14,-1,-1,-1,-1,-1,-1,-1,-1],"split_conditions":[-2.8645712E1,-2.2118109E2,8.442363E1,2E0,-8.838518E1,1E0,1.9916228E2,-2.4573201E-2,-1.7309386E-2,-1.0983018E-2,-4.8683616E-3,1.4441977E-2,1.0336066E-3,8.904931E-3,1.7182497E-2],"split_indices":[3,3,3,4,3,5,3,0,0,0,0,0,0,0,0],"split_type":[0,0,0,0,0,0,0,0,0,0,0,0,0,0,0],"sum_hessian":[1.944871E4,7.7626577E3,1.1686054E4,1.2564902E3,6.5061675E3,5.939687E3,5.746366E3,3.8618747E2,8.703028E2,3.63286E3,2.8733076E3,2.8432898E2,5.655358E3,3.8654202E3,1.880946E3],"tree_param":{"num_deleted":"0","num_feature":"13","num_nodes":"15","size_leaf_vector":"1"}},{"base_weights":[6.748917E-3,2.9598786E-2,-2.3057242E-1,4.6925083E-2,-1.6724467E-1,-3.3176348E-1,-1.3181758E-1,-1.0814566E-2,2.2646985E-3,-1.2984094E-2,-4.6802172E-3,-6.4790803E-3,-1.62158E-2,-9.336965E-3,-1.4199541E-3],"categories":[],"categories_nodes":[],"categories_segments":[],"categories_sizes":[],"default_left":[0,0,0,0,0,0,0,0,0,0,0,0,0,0,0],"id":67,"left_children":[1,3,5,7,9,11,13,-1,-1,-1,-1,-1,-1,-1,-1],"loss_changes":[7.4559715E1,4.2781765E1,1.202356E1,3.546647E1,7.9847984E0,7.38237E0,5.988921E0,0E0,0E0,0E0,0E0,0E0,0E0,0E0,0E0],"parents":[2147483647,0,0,1,1,2,2,3,3,4,4,5,5,6,6],"right_children":[2,4,6,8,10,12,14,-1,-1,-1,-1,-1,-1,-1,-1],"split_conditions":[1.9239583E2,1.3E1,1.4059814E3,-3.1740094E2,1E0,1E0,6E0,-1.0814566E-2,2.2646985E-3,-1.2984094E-2,-4.6802172E-3,-6.4790803E-3,-1.62158E-2,-9.336965E-3,-1.4199541E-3],"split_indices":[3,9,2,3,5,11,5,0,0,0,0,0,0,0,0],"split_type":[0,0,0,0,0,0,0,0,0,0,0,0,0,0,0],"sum_hessian":[1.3747143E4,1.2540581E4,1.206562E3,1.152675E4,1.0138309E3,5.94765E2,6.1179694E2,3.4087848E2,1.1185872E4,2.4402927E2,7.698016E2,1.8087837E2,4.1388663E2,2.9703326E2,3.1476367E2],"tree_param":{"num_deleted":"0","num_feature":"13","num_nodes":"15","size_leaf_vector":"1"}},{"base_weights":[-5.44772E-3,1.8200316E-1,-2.529209E-1,3.214105E-1,3.3276003E-2,-1.8242104E-1,-4.249147E-1,9.643583E-3,1.9413467E-2,-1.4325842E-3,7.839354E-3,-9.886389E-3,-1.5037879E-3,-1.5282027E-2,-2.1995243E-2],"categories":[],"categories_nodes":[],"categories_segments":[],"categories_sizes":[],"default_left":[0,0,0,0,0,0,0,0,0,0,0,0,0,0,0],"id":68,"left_children":[1,3,5,7,9,11,13,-1,-1,-1,-1,-1,-1,-1,-1],"loss_changes":[7.324642E2,1.8626755E2,8.243988E1,6.094168E1,4.888526E1,4.5262268E1,1.0383728E1,0E0,0E0,0E0,0E0,0E0,0E0,0E0,0E0],"parents":[2147483647,0,0,1,1,2,2,3,3,4,4,5,5,6,6],"right_children":[2,4,6,8,10,12,14,-1,-1,-1,-1,-1,-1,-1,-1],"split_conditions":[3.1149652E0,-9.9599434E1,1.5176855E2,1.1E1,1E0,1E0,2.7890198E2,9.643583E-3,1.9413467E-2,-1.4325842E-3,7.839354E-3,-9.886389E-3,-1.5037879E-3,-1.5282027E-2,-2.1995243E-2],"split_indices":[3,3,3,7,0,0,3,0,0,0,0,0,0,0,0],"split_type":[0,0,0,0,0,0,0,0,0,0,0,0,0,0,0],"sum_hessian":[1.5787595E4,8.983343E3,6.8042524E3,4.636357E3,4.346986E3,4.827522E3,1.9767302E3,3.1133447E3,1.5230122E3,3.0518562E3,1.2951294E3,3.335719E3,1.491803E3,1.4748932E3,5.01837E2],"tree_param":{"num_deleted":"0","num_feature":"13","num_nodes":"15","size_leaf_vector":"1"}},{"base_weights":[-5.5031106E-3,-2.0669816E-1,1.8759564E-1,-3.248651E-1,-8.282997E-2,1.12019315E-1,3.5872722E-1,-1.9328741E-2,-1.0822636E-2,1.1959383E-2,-3.913383E-3,6.617791E-3,-6.5039477E-4,1.8211424E-2,1.0352903E-2],"categories":[],"categories_nodes":[],"categories_segments":[],"categories_sizes":[],"default_left":[0,0,0,0,0,0,0,0,0,0,0,0,0,0,0],"id":69,"left_children":[1,3,5,7,9,11,13,-1,-1,-1,-1,-1,-1,-1,-1],"loss_changes":[7.539063E2,1.3907571E2,1.2802603E2,4.1686157E1,2.6618134E1,4.708548E1,2.9139282E1,0E0,0E0,0E0,0E0,0E0,0E0,0E0,0E0],"parents":[2147483647,0,0,1,1,2,2,3,3,4,4,5,5,6,6],"right_children":[2,4,6,8,10,12,14,-1,-1,-1,-1,-1,-1,-1,-1],"split_conditions":[3.1149652E0,-8.838518E1,1.5384886E2,-2.2118109E2,2E0,1E0,1.4304795E3,-1.9328741E-2,-1.0822636E-2,1.1959383E-2,-3.913383E-3,6.617791E-3,-6.5039477E-4,1.8211424E-2,1.0352903E-2],"split_indices":[3,3,3,3,8,0,2,0,0,0,0,0,0,0,0],"split_type":[0,0,0,0,0,0,0,0,0,0,0,0,0,0,0],"sum_hessian":[1.9403314E4,9.502411E3,9.900902E3,4.8622925E3,4.640119E3,6.869015E3,3.0318875E3,1.2395317E3,3.6227605E3,1.7473756E2,4.4653813E3,4.8491577E3,2.0198572E3,1.539955E3,1.4919324E3],"tree_param":{"num_deleted":"0","num_feature":"13","num_nodes":"15","size_leaf_vector":"1"}},{"base_weights":[1.0865661E-2,-8.2424566E-2,6.5259874E-2,-3.078446E-1,-5.6827202E-2,-2.330406E-2,1.09685704E-1,-9.770477E-3,-1.564191E-2,6.6638365E-4,-5.4556024E-3,-1.20140435E-2,1.2528019E-5,5.2299756E-3,-5.7644537E-3],"categories":[],"categories_nodes":[],"categories_segments":[],"categories_sizes":[],"default_left":[0,0,0,0,0,0,0,0,0,0,0,0,0,0,0],"id":70,"left_children":[1,3,5,7,9,11,13,-1,-1,-1,-1,-1,-1,-1,-1],"loss_changes":[6.9701355E1,2.917442E1,3.4140762E1,2.6325417E0,2.657281E1,1.8970303E1,3.0909058E1,0E0,0E0,0E0,0E0,0E0,0E0,0E0,0E0],"parents":[2147483647,0,0,1,1,2,2,3,3,4,4,5,5,6,6],"right_children":[2,4,6,8,10,12,14,-1,-1,-1,-1,-1,-1,-1,-1],"split_conditions":[1.5069956E3,1E0,1.5132E3,1.5132E3,1.5048337E3,1.3158094E3,1.5E1,-9.770477E-3,-1.564191E-2,6.6638365E-4,-5.4556024E-3,-1.20140435E-2,1.2528019E-5,5.2299756E-3,-5.7644537E-3],"split_indices":[2,5,1,1,1,1,6,0,0,0,0,0,0,0,0],"split_type":[0,0,0,0,0,0,0,0,0,0,0,0,0,0,0],"sum_hessian":[1.3733689E4,5.058117E3,8.675572E3,5.146744E2,4.543443E3,2.898273E3,5.7772993E3,2.939656E2,2.2070879E2,2.3623196E3,2.181123E3,2.2673972E2,2.6715332E3,5.3350093E3,4.4229004E2],"tree_param":{"num_deleted":"0","num_feature":"13","num_nodes":"15","size_leaf_vector":"1"}},{"base_weights":[-1.0406203E-3,1.9956696E-1,-2.2204158E-1,3.440067E-1,8.0171056E-2,-1.3661565E-1,-3.85693E-1,1.0777533E-2,2.1109099E-2,2.3768586E-3,1.878253E-2,-2.3032706E-3,-9.484064E-3,-1.389324E-2,-2.1224821E-2],"categories":[],"categories_nodes":[],"categories_segments":[],"categories_sizes":[],"default_left":[0,0,0,0,0,0,0,0,0,0,0,0,0,0,0],"id":71,"left_children":[1,3,5,7,9,11,13,-1,-1,-1,-1,-1,-1,-1,-1],"loss_changes":[6.980125E2,1.4229791E2,1.0467682E2,5.1018982E1,3.6487995E1,3.9088463E1,1.4097229E1,0E0,0E0,0E0,0E0,0E0,0E0,0E0,0E0],"parents":[2147483647,0,0,1,1,2,2,3,3,4,4,5,5,6,6],"right_children":[2,4,6,8,10,12,14,-1,-1,-1,-1,-1,-1,-1,-1],"split_conditions":[-1.3683767E1,-1.266414E2,1.2369848E2,1.2E1,1.8E1,1E0,2.7143518E2,1.0777533E-2,2.1109099E-2,2.3768586E-3,1.878253E-2,-2.3032706E-3,-9.484064E-3,-1.389324E-2,-2.1224821E-2],"split_indices":[3,3,3,7,7,11,3,0,0,0,0,0,0,0,0],"split_type":[0,0,0,0,0,0,0,0,0,0,0,0,0,0,0],"sum_hessian":[1.574224E4,8.2519E3,7.4903403E3,3.7334553E3,4.518445E3,4.9225874E3,2.5677527E3,2.6573572E3,1.076098E3,4.2909453E3,2.274996E2,2.7562913E3,2.1662964E3,2.0330149E3,5.3473773E2],"tree_param":{"num_deleted":"0","num_feature":"13","num_nodes":"15","size_leaf_vector":"1"}},{"base_weights":[-5.104892E-3,-2.0527504E-1,1.7585507E-1,-3.359475E-1,-1.112734E-1,5.1333576E-2,2.7402294E-1,-1.8979363E-2,-1.08554065E-2,8.187552E-3,-5.1059127E-3,4.5560994E-3,-6.012129E-4,6.7915833E-3,1.4332032E-2],"categories":[],"categories_nodes":[],"categories_segments":[],"categories_sizes":[],"default_left":[0,0,0,0,0,0,0,0,0,0,0,0,0,0,0],"id":72,"left_children":[1,3,5,7,9,11,13,-1,-1,-1,-1,-1,-1,-1,-1],"loss_changes":[6.9672406E2,1.1214044E2,1.2347241E2,3.4042236E1,2.7514069E1,1.8498062E1,4.9558716E1,0E0,0E0,0E0,0E0,0E0,0E0,0E0,0E0],"parents":[2147483647,0,0,1,1,2,2,3,3,4,4,5,5,6,6],"right_children":[2,4,6,8,10,12,14,-1,-1,-1,-1,-1,-1,-1,-1],"split_conditions":[-8.572094E-1,-1.1407581E2,8.442363E1,-2.2118109E2,2E0,1.5657454E3,1E0,-1.8979363E-2,-1.08554065E-2,8.187552E-3,-5.1059127E-3,4.5560994E-3,-6.012129E-4,6.7915833E-3,1.4332032E-2],"split_indices":[3,3,3,3,5,1,11,0,0,0,0,0,0,0,0],"split_type":[0,0,0,0,0,0,0,0,0,0,0,0,0,0,0],"sum_hessian":[1.9232418E4,9.131457E3,1.0100961E4,3.8194436E3,5.3120137E3,4.4534653E3,5.6474956E3,1.2121302E3,2.6073132E3,2.6115945E2,5.050854E3,2.2919055E3,2.16156E3,2.5261777E3,3.1213179E3],"tree_param":{"num_deleted":"0","num_feature":"13","num_nodes":"15","size_leaf_vector":"1"}},{"base_weights":[7.623704E-3,3.0103296E-2,-2.020659E-1,3.758036E-2,-2.959104E-1,-1.4637077E-1,-3.6251494E-1,2.4693145E-3,-3.0152684E-3,-1.4184961E-2,3.0845543E-3,-4.679821E-3,-1.4724468E-2,-1.901782E-2,-1.0759094E-2],"categories":[],"categories_nodes":[],"categories_segments":[],"categories_sizes":[],"default_left":[0,0,0,0,0,0,0,0,0,0,0,0,0,0,0],"id":73,"left_children":[1,3,5,7,9,11,13,-1,-1,-1,-1,-1,-1,-1,-1],"loss_changes":[6.458219E1,3.0174244E1,1.1801552E1,3.3010292E1,6.1060257E0,6.382225E0,3.4757652E0,0E0,0E0,0E0,0E0,0E0,0E0,0E0,0E0],"parents":[2147483647,0,0,1,1,2,2,3,3,4,4,5,5,6,6],"right_children":[2,4,6,8,10,12,14,-1,-1,-1,-1,-1,-1,-1,-1],"split_conditions":[1.3E1,1.9E1,1.7969214E2,1.17127205E2,1E0,2.4E1,3E0,2.4693145E-3,-3.0152684E-3,-1.4184961E-2,3.0845543E-3,-4.679821E-3,-1.4724468E-2,-1.901782E-2,-1.0759094E-2],"split_indices":[9,7,3,3,12,9,8,0,0,0,0,0,0,0,0],"split_type":[0,0,0,0,0,0,0,0,0,0,0,0,0,0,0],"sum_hessian":[1.3698558E4,1.23729795E4,1.3255781E3,1.2096436E4,2.7654477E2,9.854282E2,3.4014993E2,9.966042E3,2.1303936E3,2.3897903E2,3.7565735E1,8.71503E2,1.1392518E2,1.5225058E2,1.8789935E2],"tree_param":{"num_deleted":"0","num_feature":"13","num_nodes":"15","size_leaf_vector":"1"}},{"base_weights":[-2.7096996E-3,1.5554132E-1,-1.2844232E-1,-4.8006265E-3,3.0791792E-1,-3.2817528E-1,-1.1967072E-2,1.5741E-2,-2.2783692E-3,2.626646E-2,1.0759529E-2,-8.154323E-3,-1.7248899E-2,-2.8472552E-3,5.1107584E-3],"categories":[],"categories_nodes":[],"categories_segments":[],"categories_sizes":[],"default_left":[0,0,0,0,0,0,0,0,0,0,0,0,0,0,0],"id":74,"left_children":[1,3,5,7,9,11,13,-1,-1,-1,-1,-1,-1,-1,-1],"loss_changes":[3.118034E2,1.6951602E2,2.0314864E2,7.028059E1,4.812079E1,4.1118195E1,4.5658203E1,0E0,0E0,0E0,0E0,0E0,0E0,0E0,0E0],"parents":[2147483647,0,0,1,1,2,2,3,3,4,4,5,5,6,6],"right_children":[2,4,6,8,10,12,14,-1,-1,-1,-1,-1,-1,-1,-1],"split_conditions":[1.5091782E3,1.5164106E3,1.5456501E3,1E0,1.3158094E3,1E0,1E0,1.5741E-2,-2.2783692E-3,2.626646E-2,1.0759529E-2,-8.154323E-3,-1.7248899E-2,-2.8472552E-3,5.1107584E-3],"split_indices":[1,2,2,4,1,11,0,0,0,0,0,0,0,0,0],"split_type":[0,0,0,0,0,0,0,0,0,0,0,0,0,0,0],"sum_hessian":[1.5668622E4,6.937115E3,8.731507E3,3.380681E3,3.556434E3,3.21558E3,5.5159272E3,3.90669E2,2.990012E3,3.555395E2,3.2008948E3,1.4587307E3,1.7568495E3,3.8745464E3,1.6413807E3],"tree_param":{"num_deleted":"0","num_feature":"13","num_nodes":"15","size_leaf_vector":"1"}},{"base_weights":[-2.2767503E-3,-2.3481876E-1,1.5158726E-1,-4.7229642E-1,-1.8989931E-1,3.641273E-2,2.699002E-1,-2.0236714E-2,-1.24480305E-2,-1.0017403E-2,-4.493417E-3,7.4778165E-4,1.2031743E-2,9.299427E-3,2.035497E-2],"categories":[],"categories_nodes":[],"categories_segments":[],"categories_sizes":[],"default_left":[0,0,0,0,0,0,0,0,0,0,0,0,0,0,0],"id":75,"left_children":[1,3,5,7,9,11,13,-1,-1,-1,-1,-1,-1,-1,-1],"loss_changes":[6.889577E2,8.170108E1,1.5789691E2,6.4446106E0,3.0254532E1,2.7505955E1,5.0989075E1,0E0,0E0,0E0,0E0,0E0,0E0,0E0,0E0],"parents":[2147483647,0,0,1,1,2,2,3,3,4,4,5,5,6,6],"right_children":[2,4,6,8,10,12,14,-1,-1,-1,-1,-1,-1,-1,-1],"split_conditions":[-2.8645712E1,-2.2118109E2,8.2738625E1,1.4807281E3,-8.838518E1,1.6E1,2.7890198E2,-2.0236714E-2,-1.24480305E-2,-1.0017403E-2,-4.493417E-3,7.4778165E-4,1.2031743E-2,9.299427E-3,2.035497E-2],"split_indices":[3,3,3,1,3,9,3,0,0,0,0,0,0,0,0],"split_type":[0,0,0,0,0,0,0,0,0,0,0,0,0,0,0],"sum_hessian":[1.9253475E4,7.6663813E3,1.1587093E4,1.2179382E3,6.448443E3,5.872083E3,5.7150103E3,1.0058683E3,2.1207E2,3.6205256E3,2.8279172E3,5.50427E3,3.6781268E2,4.9430796E3,7.719306E2],"tree_param":{"num_deleted":"0","num_feature":"13","num_nodes":"15","size_leaf_vector":"1"}},{"base_weights":[9.466562E-3,3.0237127E-2,-2.0444678E-1,7.32268E-2,-3.451541E-2,-3.2617083E-1,-9.435112E-2,5.842333E-4,5.142361E-3,-7.632648E-4,-9.64952E-3,-1.3326764E-2,2.1934176E-2,-8.952164E-3,9.2727627E-4],"categories":[],"categories_nodes":[],"categories_segments":[],"categories_sizes":[],"default_left":[0,0,0,0,0,0,0,0,0,0,0,0,0,0,0],"id":76,"left_children":[1,3,5,7,9,11,13,-1,-1,-1,-1,-1,-1,-1,-1],"loss_changes":[6.082278E1,3.4735477E1,1.6205765E1,2.4322483E1,1.5881553E1,3.701725E0,9.705923E0,0E0,0E0,0E0,0E0,0E0,0E0,0E0,0E0],"parents":[2147483647,0,0,1,1,2,2,3,3,4,4,5,5,6,6],"right_children":[2,4,6,8,10,12,14,-1,-1,-1,-1,-1,-1,-1,-1],"split_conditions":[1.8932266E2,8E0,1.4059814E3,1.581187E3,1.9E1,1.7E1,6E0,5.842333E-4,5.142361E-3,-7.632648E-4,-9.64952E-3,-1.3326764E-2,2.1934176E-2,-8.952164E-3,9.2727627E-4],"split_indices":[3,7,2,2,7,7,5,0,0,0,0,0,0,0,0],"split_type":[0,0,0,0,0,0,0,0,0,0,0,0,0,0,0],"sum_hessian":[1.3686872E4,1.2476306E4,1.210566E3,7.4981196E3,4.978186E3,5.7398914E2,6.3657697E2,3.6414739E3,3.8566458E3,4.6333545E3,3.448313E2,5.7004645E2,3.9426928E0,3.0249707E2,3.340799E2],"tree_param":{"num_deleted":"0","num_feature":"13","num_nodes":"15","size_leaf_vector":"1"}},{"base_weights":[-4.4087493E-3,1.5538745E-1,-2.5976193E-1,2.8527987E-1,2.3772463E-2,-1.7463876E-1,-3.833205E-1,2.0170381E-2,9.044036E-3,-1.7944677E-3,7.2387424E-3,-3.7557855E-3,-1.099195E-2,-1.1678121E-2,-1.8026492E-2],"categories":[],"categories_nodes":[],"categories_segments":[],"categories_sizes":[],"default_left":[0,0,0,0,0,0,0,0,0,0,0,0,0,0,0],"id":77,"left_children":[1,3,5,7,9,11,13,-1,-1,-1,-1,-1,-1,-1,-1],"loss_changes":[6.378229E2,1.6436197E2,6.3214264E1,6.2592773E1,5.154417E1,2.8799362E1,1.4963837E1,0E0,0E0,0E0,0E0,0E0,0E0,0E0,0E0],"parents":[2147483647,0,0,1,1,2,2,3,3,4,4,5,5,6,6],"right_children":[2,4,6,8,10,12,14,-1,-1,-1,-1,-1,-1,-1,-1],"split_conditions":[1.674972E1,-9.5808075E1,1.2551722E2,-2.5998923E2,1E0,1E0,1E0,2.0170381E-2,9.044036E-3,-1.7944677E-3,7.2387424E-3,-3.7557855E-3,-1.099195E-2,-1.1678121E-2,-1.8026492E-2],"split_indices":[3,3,3,3,0,11,11,0,0,0,0,0,0,0,0],"split_type":[0,0,0,0,0,0,0,0,0,0,0,0,0,0,0],"sum_hessian":[1.5629214E4,9.613574E3,6.0156396E3,4.8378623E3,4.775712E3,3.563235E3,2.4524045E3,1.0276672E3,3.810195E3,3.3247788E3,1.4509332E3,1.9739053E3,1.5893297E3,1.0428412E3,1.4095634E3],"tree_param":{"num_deleted":"0","num_feature":"13","num_nodes":"15","size_leaf_vector":"1"}},{"base_weights":[-4.3028905E-3,-2.22752E-1,1.4760919E-1,-4.5575035E-1,-1.8118842E-1,3.436633E-2,2.6064E-1,-2.3273718E-2,-1.591839E-2,-9.793646E-3,-4.1527124E-3,1.3195865E-2,7.611908E-4,6.3085034E-3,1.3798297E-2],"categories":[],"categories_nodes":[],"categories_segments":[],