{"learner":{"attributes":{"scikit_learn":"{\"_estimator_type\": \"classifier\"}"},"feature_names":["market_H","market_D","market_A","nomarket_H","nomarket_D","nomarket_A","poisson_home_xg","poisson_away_xg","poisson_diff","market_pick_encoded","nomarket_pick_encoded","market_confidence","nomarket_confidence","models_agree","market_nomarket_disagree"],"feature_types":["float","float","float","float","float","float","float","float","float","int","int","float","float","int","int"],"gradient_booster":{"model":{"cats":{"enc":[],"feature_segments":[],"sorted_idx":[]},"gbtree_model_param":{"num_parallel_tree":"1","num_trees":"900"},"iteration_indptr":[0,3,6,9,12,15,18,21,24,27,30,33,36,39,42,45,48,51,54,57,60,63,66,69,72,75,78,81,84,87,90,93,96,99,102,105,108,111,114,117,120,123,126,129,132,135,138,141,144,147,150,153,156,159,162,165,168,171,174,177,180,183,186,189,192,195,198,201,204,207,210,213,216,219,222,225,228,231,234,237,240,243,246,249,252,255,258,261,264,267,270,273,276,279,282,285,288,291,294,297,300,303,306,309,312,315,318,321,324,327,330,333,336,339,342,345,348,351,354,357,360,363,366,369,372,375,378,381,384,387,390,393,396,399,402,405,408,411,414,417,420,423,426,429,432,435,438,441,444,447,450,453,456,459,462,465,468,471,474,477,480,483,486,489,492,495,498,501,504,507,510,513,516,519,522,525,528,531,534,537,540,543,546,549,552,555,558,561,564,567,570,573,576,579,582,585,588,591,594,597,600,603,606,609,612,615,618,621,624,627,630,633,636,639,642,645,648,651,654,657,660,663,666,669,672,675,678,681,684,687,690,693,696,699,702,705,708,711,714,717,720,723,726,729,732,735,738,741,744,747,750,753,756,759,762,765,768,771,774,777,780,783,786,789,792,795,798,801,804,807,810,813,816,819,822,825,828,831,834,837,840,843,846,849,852,855,858,861,864,867,870,873,876,879,882,885,888,891,894,897,900],"tree_info":[0,1,2,0,1,2,0,1,2,0,1,2,0,1,2,0,1,2,0,1,2,0,1,2,0,1,2,0,1,2,0,1,2,0,1,2,0,1,2,0,1,2,0,1,2,0,1,2,0,1,2,0,1,2,0,1,2,0,1,2,0,1,2,0,1,2,0,1,2,0,1,2,0,1,2,0,1,2,0,1,2,0,1,2,0,1,2,0,1,2,0,1,2,0,1,2,0,1,2,0,1,2,0,1,2,0,1,2,0,1,2,0,1,2,0,1,2,0,1,2,0,1,2,0,1,2,0,1,2,0,1,2,0,1,2,0,1,2,0,1,2,0,1,2,0,1,2,0,1,2,0,1,2,0,1,2,0,1,2,0,1,2,0,1,2,0,1,2,0,1,2,0,1,2,0,1,2,0,1,2,0,1,2,0,1,2,0,1,2,0,1,2,0,1,2,0,1,2,0,1,2,0,1,2,0,1,2,0,1,2,0,1,2,0,1,2,0,1,2,0,1,2,0,1,2,0,1,2,0,1,2,0,1,2,0,1,2,0,1,2,0,1,2,0,1,2,0,1,2,0,1,2,0,1,2,0,1,2,0,1,2,0,1,2,0,1,2,0,1,2,0,1,2,0,1,2,0,1,2,0,1,2,0,1,2,0,1,2,0,1,2,0,1,2,0,1,2,0,1,2,0,1,2,0,1,2,0,1,2,0,1,2,0,1,2,0,1,2,0,1,2,0,1,2,0,1,2,0,1,2,0,1,2,0,1,2,0,1,2,0,1,2,0,1,2,0,1,2,0,1,2,0,1,2,0,1,2,0,1,2,0,1,2,0,1,2,0,1,2,0,1,2,0,1,2,0,1,2,0,1,2,0,1,2,0,1,2,0,1,2,0,1,2,0,1,2,0,1,2,0,1,2,0,1,2,0,1,2,0,1,2,0,1,2,0,1,2,0,1,2,0,1,2,0,1,2,0,1,2,0,1,2,0,1,2,0,1,2,0,1,2,0,1,2,0,1,2,0,1,2,0,1,2,0,1,2,0,1,2,0,1,2,0,1,2,0,1,2,0,1,2,0,1,2,0,1,2,0,1,2,0,1,2,0,1,2,0,1,2,0,1,2,0,1,2,0,1,2,0,1,2,0,1,2,0,1,2,0,1,2,0,1,2,0,1,2,0,1,2,0,1,2,0,1,2,0,1,2,0,1,2,0,1,2,0,1,2,0,1,2,0,1,2,0,1,2,0,1,2,0,1,2,0,1,2,0,1,2,0,1,2,0,1,2,0,1,2,0,1,2,0,1,2,0,1,2,0,1,2,0,1,2,0,1,2,0,1,2,0,1,2,0,1,2,0,1,2,0,1,2,0,1,2,0,1,2,0,1,2,0,1,2,0,1,2,0,1,2,0,1,2,0,1,2,0,1,2,0,1,2,0,1,2,0,1,2,0,1,2,0,1,2,0,1,2,0,1,2,0,1,2,0,1,2,0,1,2,0,1,2,0,1,2,0,1,2,0,1,2,0,1,2,0,1,2,0,1,2,0,1,2,0,1,2,0,1,2,0,1,2,0,1,2,0,1,2,0,1,2,0,1,2,0,1,2,0,1,2,0,1,2,0,1,2,0,1,2,0,1,2,0,1,2,0,1,2,0,1,2,0,1,2,0,1,2,0,1,2,0,1,2,0,1,2,0,1,2,0,1,2,0,1,2,0,1,2,0,1,2,0,1,2,0,1,2,0,1,2,0,1,2,0,1,2,0,1,2,0,1,2,0,1,2,0,1,2,0,1,2,0,1,2,0,1,2,0,1,2,0,1,2,0,1,2,0,1,2,0,1,2,0,1,2,0,1,2,0,1,2,0,1,2,0,1,2,0,1,2,0,1,2,0,1,2,0,1,2,0,1,2,0,1,2,0,1,2,0,1,2,0,1,2,0,1,2,0,1,2,0,1,2,0,1,2,0,1,2,0,1,2,0,1,2,0,1,2,0,1,2,0,1,2,0,1,2,0,1,2,0,1,2,0,1,2,0,1,2,0,1,2],"trees":[{"base_weights":[-8.492434E-4,3.245334E-1,-3.4211814E-1,1.7385681E-1,6.139676E-1,-2.1272685E-1,-5.591081E-1,1.4656015E-2,3.923078E-3,2.1959586E-2,3.404178E-2,-1.5139833E-2,-6.120361E-3,-3.2864098E-2,-2.5137445E-2],"categories":[],"categories_nodes":[],"categories_segments":[],"categories_sizes":[],"default_left":[0,0,0,0,0,0,0,0,0,0,0,0,0,0,0],"id":0,"left_children":[1,3,5,7,9,11,13,-1,-1,-1,-1,-1,-1,-1,-1],"loss_changes":[4.8897174E2,9.82007E1,6.022484E1,1.6858902E1,8.715698E0,1.0929108E1,4.1083527E0,0E0,0E0,0E0,0E0,0E0,0E0,0E0,0E0],"parents":[2147483647,0,0,1,1,2,2,3,3,4,4,5,5,6,6],"right_children":[2,4,6,8,10,12,14,-1,-1,-1,-1,-1,-1,-1,-1],"split_conditions":[-2.062599E-1,6.412803E-1,4.9632505E-1,2.687421E-1,2.1717975E0,3.2465336E-1,1.4791356E-1,1.4656015E-2,3.923078E-3,2.1959586E-2,3.404178E-2,-1.5139833E-2,-6.120361E-3,-3.2864098E-2,-2.5137445E-2],"split_indices":[8,0,8,1,6,0,0,0,0,0,0,0,0,0,0],"split_type":[0,0,0,0,0,0,0,0,0,0,0,0,0,0,0],"sum_hessian":[4.4014463E3,2.2531914E3,2.148255E3,1.4828401E3,7.7035114E2,1.3470112E3,8.0124365E2,6.580593E2,8.247808E2,2.152668E2,5.5508435E2,6.7326044E2,6.737508E2,2.8833002E2,5.1291364E2],"tree_param":{"num_deleted":"0","num_feature":"15","num_nodes":"15","size_leaf_vector":"1"}},{"base_weights":[-4.809207E-4,7.424253E-2,-2.2574125E-1,3.5705656E-2,2.1429822E-1,-4.5345345E-1,-2.0272478E-1,5.9472825E-3,3.0267978E-4,1.2366772E-2,-2.4562636E-3,-2.3530178E-2,-3.19067E-3,-1.0607927E-2,1.7184151E-2],"categories":[],"categories_nodes":[],"categories_segments":[],"categories_sizes":[],"default_left":[0,0,0,0,0,0,0,0,0,0,0,0,0,0,0],"id":1,"left_children":[1,3,5,7,9,11,13,-1,-1,-1,-1,-1,-1,-1,-1],"loss_changes":[5.732498E1,1.3795152E1,4.354244E0,4.952346E0,4.8128433E0,4.8495293E-1,4.0536537E0,0E0,0E0,0E0,0E0,0E0,0E0,0E0,0E0],"parents":[2147483647,0,0,1,1,2,2,3,3,4,4,5,5,6,6],"right_children":[2,4,6,8,10,12,14,-1,-1,-1,-1,-1,-1,-1,-1],"split_conditions":[6.3693184E-1,2.9671448E-1,6.918896E-2,4.207631E-1,4.1985527E-1,2.42342E-1,2.915726E-1,5.9472825E-3,3.0267978E-4,1.2366772E-2,-2.4562636E-3,-2.3530178E-2,-3.19067E-3,-1.0607927E-2,1.7184151E-2],"split_indices":[11,4,2,12,8,4,4,0,0,0,0,0,0,0,0],"split_type":[0,0,0,0,0,0,0,0,0,0,0,0,0,0,0],"sum_hessian":[3.4036719E3,2.556349E3,8.473228E2,2.0057217E3,5.506274E2,7.606605E1,7.712568E2,5.260289E2,1.4796927E3,4.893204E2,6.1306965E1,7.266011E1,3.4059424E0,7.587683E2,1.2488456E1],"tree_param":{"num_deleted":"0","num_feature":"15","num_nodes":"15","size_leaf_vector":"1"}},{"base_weights":[5.481657E-3,-2.5754634E-1,4.8689708E-1,-4.1641667E-1,-5.8096904E-2,9.774004E-1,3.7993386E-1,-2.6739467E-2,-1.6312556E-2,-7.3150024E-3,1.8790746E-3,3.2735676E-2,5.0428916E-2,1.2700903E-2,2.7198693E-2],"categories":[],"categories_nodes":[],"categories_segments":[],"categories_sizes":[],"default_left":[0,0,0,0,0,0,0,0,0,0,0,0,0,0,0],"id":2,"left_children":[1,3,5,7,9,11,13,-1,-1,-1,-1,-1,-1,-1,-1],"loss_changes":[4.895954E2,7.920436E1,7.130252E1,1.467836E1,9.371E0,1.7938232E0,2.3061172E1,0E0,0E0,0E0,0E0,0E0,0E0,0E0,0E0],"parents":[2147483647,0,0,1,1,2,2,3,3,4,4,5,5,6,6],"right_children":[2,4,6,8,10,12,14,-1,-1,-1,-1,-1,-1,-1,-1],"split_conditions":[3.6220324E-1,-5.197228E-1,1.4429848E-1,1.3301998E-1,-2.062599E-1,4.7307912E-1,4.8289943E-1,-2.6739467E-2,-1.6312556E-2,-7.3150024E-3,1.8790746E-3,3.2735676E-2,5.0428916E-2,1.2700903E-2,2.7198693E-2],"split_indices":[2,8,0,2,8,5,8,0,0,0,0,0,0,0,0],"split_type":[0,0,0,0,0,0,0,0,0,0,0,0,0,0,0],"sum_hessian":[3.864486E3,2.4993801E3,1.365106E3,1.3906097E3,1.1087703E3,2.4293524E2,1.1221707E3,5.99125E2,7.9148474E2,5.7664703E2,5.321233E2,2.3342533E1,2.1959271E2,6.363002E2,4.8587048E2],"tree_param":{"num_deleted":"0","num_feature":"15","num_nodes":"15","size_leaf_vector":"1"}},{"base_weights":[1.2077163E-3,3.1599838E-1,-3.3110687E-1,6.33386E-1,1.820698E-1,-1.4784741E-1,-4.764833E-1,4.0338527E-2,2.8880665E-2,1.6131459E-2,4.6113897E-3,-1.1258478E-2,-4.0299296E-3,-2.8654499E-2,-1.9419175E-2],"categories":[],"categories_nodes":[],"categories_segments":[],"categories_sizes":[],"default_left":[0,0,0,0,0,0,0,0,0,0,0,0,0,0,0],"id":3,"left_children":[1,3,5,7,9,11,13,-1,-1,-1,-1,-1,-1,-1,-1],"loss_changes":[4.6005792E2,9.588631E1,5.6926178E1,6.011078E0,2.0044857E1,4.9104214E0,9.927216E0,0E0,0E0,0E0,0E0,0E0,0E0,0E0,0E0],"parents":[2147483647,0,0,1,1,2,2,3,3,4,4,5,5,6,6],"right_children":[2,4,6,8,10,12,14,-1,-1,-1,-1,-1,-1,-1,-1],"split_conditions":[-2.062599E-1,1.29692E-1,2.4007766E-1,1.6116843E-1,-7.04354E-1,4.0483913E-1,2.4937242E-1,4.0338527E-2,2.8880665E-2,1.6131459E-2,4.6113897E-3,-1.1258478E-2,-4.0299296E-3,-2.8654499E-2,-1.9419175E-2],"split_indices":[8,2,8,4,8,12,1,0,0,0,0,0,0,0,0],"split_type":[0,0,0,0,0,0,0,0,0,0,0,0,0,0,0],"sum_hessian":[4.3958584E3,2.2574753E3,2.138383E3,6.6880164E2,1.5886738E3,9.468341E2,1.1915488E3,1.5949693E2,5.0930472E2,6.1847217E2,9.7020166E2,4.393382E2,5.074959E2,5.6570966E2,6.258392E2],"tree_param":{"num_deleted":"0","num_feature":"15","num_nodes":"15","size_leaf_vector":"1"}},{"base_weights":[-1.5600114E-3,6.988782E-2,-2.1717699E-1,3.9968878E-2,2.036258E-1,-1.8315466E-1,-3.9786658E-1,-1.3133606E-3,3.6271696E-3,5.706737E-3,1.485422E-2,-9.82646E-3,1.606728E-2,-3.0657131E-2,-1.8583035E-2],"categories":[],"categories_nodes":[],"categories_segments":[],"categories_sizes":[],"default_left":[0,0,0,0,0,0,0,0,0,0,0,0,0,0,0],"id":4,"left_children":[1,3,5,7,9,11,13,-1,-1,-1,-1,-1,-1,-1,-1],"loss_changes":[5.2391705E1,1.0212955E1,5.1306305E0,4.508497E0,3.8698235E0,4.882019E0,5.2396965E-1,0E0,0E0,0E0,0E0,0E0,0E0,0E0,0E0],"parents":[2147483647,0,0,1,1,2,2,3,3,4,4,5,5,6,6],"right_children":[2,4,6,8,10,12,14,-1,-1,-1,-1,-1,-1,-1,-1],"split_conditions":[6.3693184E-1,2.9952955E-1,7.917251E-1,2.6328117E-1,3.586127E-1,2.8764E-1,3.676001E-2,-1.3133606E-3,3.6271696E-3,5.706737E-3,1.485422E-2,-9.82646E-3,1.606728E-2,-3.0657131E-2,-1.8583035E-2],"split_indices":[11,4,11,1,3,4,5,0,0,0,0,0,0,0,0],"split_type":[0,0,0,0,0,0,0,0,0,0,0,0,0,0,0],"sum_hessian":[3.3988887E3,2.5534436E3,8.45445E2,2.0876973E3,4.6574646E2,7.13174E2,1.3227101E2,6.8830707E2,1.3993901E3,2.3905814E2,2.2668832E2,6.9535034E2,1.7823626E1,1.1923646E1,1.2034736E2],"tree_param":{"num_deleted":"0","num_feature":"15","num_nodes":"15","size_leaf_vector":"1"}},{"base_weights":[-1.6340481E-3,-2.3393993E-1,4.863091E-1,-4.0164828E-1,-4.155798E-2,8.9216006E-1,3.8559482E-1,-2.6014516E-2,-1.5655886E-2,-6.6375434E-3,3.136993E-3,2.8783012E-2,4.616925E-2,1.2762548E-2,2.603491E-2],"categories":[],"categories_nodes":[],"categories_segments":[],"categories_sizes":[],"default_left":[0,0,0,0,0,0,0,0,0,0,0,0,0,0,0],"id":5,"left_children":[1,3,5,7,9,11,13,-1,-1,-1,-1,-1,-1,-1,-1],"loss_changes":[4.3743515E2,8.4334076E1,5.0532776E1,1.4506699E1,1.1600032E1,1.9065552E0,1.7459152E1,0E0,0E0,0E0,0E0,0E0,0E0,0E0,0E0],"parents":[2147483647,0,0,1,1,2,2,3,3,4,4,5,5,6,6],"right_children":[2,4,6,8,10,12,14,-1,-1,-1,-1,-1,-1,-1,-1],"split_conditions":[1.4224334E-1,-5.1083606E-1,1.4429848E-1,1.3301998E-1,-1.6235235E-1,4.7139674E-1,4.8289943E-1,-2.6014516E-2,-1.5655886E-2,-6.6375434E-3,3.136993E-3,2.8783012E-2,4.616925E-2,1.2762548E-2,2.603491E-2],"split_indices":[8,8,0,2,8,12,8,0,0,0,0,0,0,0,0],"split_type":[0,0,0,0,0,0,0,0,0,0,0,0,0,0,0],"sum_hessian":[3.8570806E3,2.6133877E3,1.2436926E3,1.3956481E3,1.2177396E3,2.4570613E2,9.979866E2,5.9431494E2,8.013332E2,6.495406E2,5.681991E2,2.3809204E1,2.2189693E2,5.0941086E2,4.8857568E2],"tree_param":{"num_deleted":"0","num_feature":"15","num_nodes":"15","size_leaf_vector":"1"}},{"base_weights":[-1.9299279E-3,3.089844E-1,-2.9783472E-1,1.5912442E-1,5.681372E-1,-1.3039106E-1,-4.503707E-1,1.2581319E-2,3.5550834E-3,2.6632374E-2,4.195735E-2,-1.1222779E-2,-2.6540973E-3,-2.7280051E-2,-1.8172536E-2],"categories":[],"categories_nodes":[],"categories_segments":[],"categories_sizes":[],"default_left":[0,0,0,0,0,0,0,0,0,0,0,0,0,0,0],"id":6,"left_children":[1,3,5,7,9,11,13,-1,-1,-1,-1,-1,-1,-1,-1],"loss_changes":[4.033905E2,8.294588E1,5.732054E1,1.1023823E1,7.0839233E0,7.7862186E0,9.529251E0,0E0,0E0,0E0,0E0,0E0,0E0,0E0,0E0],"parents":[2147483647,0,0,1,1,2,2,3,3,4,4,5,5,6,6],"right_children":[2,4,6,8,10,12,14,-1,-1,-1,-1,-1,-1,-1,-1],"split_conditions":[-2.627185E-1,6.412803E-1,2.4007766E-1,2.687421E-1,8.116747E-1,4.0483913E-1,2.4937242E-1,1.2581319E-2,3.5550834E-3,2.6632374E-2,4.195735E-2,-1.1222779E-2,-2.6540973E-3,-2.7280051E-2,-1.8172536E-2],"split_indices":[8,0,8,1,11,12,1,0,0,0,0,0,0,0,0],"split_type":[0,0,0,0,0,0,0,0,0,0,0,0,0,0,0],"sum_hessian":[4.3826294E3,2.1370916E3,2.245538E3,1.3550961E3,7.8199554E2,1.071344E3,1.174194E3,6.598304E2,6.952656E2,6.940698E2,8.792571E1,4.8244006E2,5.8890393E2,5.577935E2,6.164005E2],"tree_param":{"num_deleted":"0","num_feature":"15","num_nodes":"15","size_leaf_vector":"1"}},{"base_weights":[-3.7487773E-3,-2.1795064E-1,4.2463686E-2,-4.5071146E-1,-1.8207839E-1,6.563631E-2,-2.6455247E-1,-2.3330187E-2,-4.9273577E-3,-9.622016E-3,3.4660567E-2,1.4645455E-3,9.865398E-3,-1.4522764E-2,8.948627E-3],"categories":[],"categories_nodes":[],"categories_segments":[],"categories_sizes":[],"default_left":[0,0,0,0,0,0,0,0,0,0,0,0,0,0,0],"id":7,"left_children":[1,3,5,7,9,11,13,-1,-1,-1,-1,-1,-1,-1,-1],"loss_changes":[3.3626404E1,4.9513035E0,1.989677E1,4.007511E-1,4.8859406E0,1.2431962E1,2.3071804E0,0E0,0E0,0E0,0E0,0E0,0E0,0E0,0E0],"parents":[2147483647,0,0,1,1,2,2,3,3,4,4,5,5,6,6],"right_children":[2,4,6,8,10,12,14,-1,-1,-1,-1,-1,-1,-1,-1],"split_conditions":[-1.0598372E0,6.918896E-2,6.5465534E-1,2.42342E-1,2.915726E-1,2.9671448E-1,1.0503232E0,-2.3330187E-2,-4.9273577E-3,-9.622016E-3,3.4660567E-2,1.4645455E-3,9.865398E-3,-1.4522764E-2,8.948627E-3],"split_indices":[8,2,2,4,4,4,6,0,0,0,0,0,0,0,0],"split_type":[0,0,0,0,0,0,0,0,0,0,0,0,0,0,0],"sum_hessian":[3.3950847E3,6.018236E2,2.793261E3,7.8821E1,5.230026E2,2.5979612E3,1.952998E2,7.510667E1,3.714333E0,5.176546E2,5.347998E0,2.036929E3,5.610323E2,1.8484933E2,1.0450475E1],"tree_param":{"num_deleted":"0","num_feature":"15","num_nodes":"15","size_leaf_vector":"1"}},{"base_weights":[-1.329638E-3,-2.2505622E-1,4.6663898E-1,-4.386118E-1,-7.996804E-2,3.6877412E-1,8.527932E-1,-2.5356758E-2,-1.770303E-2,-8.82491E-3,2.281131E-3,2.6076693E-2,1.3560667E-2,2.5947735E-2,4.5050625E-2],"categories":[],"categories_nodes":[],"categories_segments":[],"categories_sizes":[],"default_left":[0,0,0,0,0,0,0,0,0,0,0,0,0,0,0],"id":8,"left_children":[1,3,5,7,9,11,13,-1,-1,-1,-1,-1,-1,-1,-1],"loss_changes":[4.057597E2,8.120659E1,4.705789E1,5.964752E0,1.8950838E1,1.4789413E1,3.6001434E0,0E0,0E0,0E0,0E0,0E0,0E0,0E0,0E0],"parents":[2147483647,0,0,1,1,2,2,3,3,4,4,5,5,6,6],"right_children":[2,4,6,8,10,12,14,-1,-1,-1,-1,-1,-1,-1,-1],"split_conditions":[1.4224334E-1,2.561399E-1,6.463638E-1,1.3301998E-1,-2.062599E-1,2.6379764E-1,4.9910986E-1,-2.5356758E-2,-1.770303E-2,-8.82491E-3,2.281131E-3,2.6076693E-2,1.3560667E-2,2.5947735E-2,4.5050625E-2],"split_indices":[8,1,2,2,8,1,5,0,0,0,0,0,0,0,0],"split_type":[0,0,0,0,0,0,0,0,0,0,0,0,0,0,0],"sum_hessian":[3.8735579E3,2.6210193E3,1.2525386E3,1.0595065E3,1.5615128E3,1.00084485E3,2.5169379E2,5.824612E2,4.770453E2,8.826752E2,6.788377E2,3.88379E2,6.124658E2,3.3250607E1,2.1844318E2],"tree_param":{"num_deleted":"0","num_feature":"15","num_nodes":"15","size_leaf_vector":"1"}},{"base_weights":[2.267143E-3,3.1040743E-1,-2.9214907E-1,1.683083E-1,5.5000603E-1,-1.2222906E-1,-4.4380948E-1,1.2763672E-2,4.249007E-3,2.1671755E-2,3.0533884E-2,-1.0174482E-2,-2.54193E-3,-2.6991755E-2,-1.7881002E-2],"categories":[],"categories_nodes":[],"categories_segments":[],"categories_sizes":[],"default_left":[0,0,0,0,0,0,0,0,0,0,0,0,0,0,0],"id":9,"left_children":[1,3,5,7,9,11,13,-1,-1,-1,-1,-1,-1,-1,-1],"loss_changes":[3.9635358E2,7.258684E1,5.7521667E1,9.699162E0,5.352783E0,6.1102715E0,9.574371E0,0E0,0E0,0E0,0E0,0E0,0E0,0E0,0E0],"parents":[2147483647,0,0,1,1,2,2,3,3,4,4,5,5,6,6],"right_children":[2,4,6,8,10,12,14,-1,-1,-1,-1,-1,-1,-1,-1],"split_conditions":[-2.627185E-1,6.395315E-1,2.4007766E-1,2.687421E-1,2.216165E0,1.2738297E0,2.4937242E-1,1.2763672E-2,4.249007E-3,2.1671755E-2,3.0533884E-2,-1.0174482E-2,-2.54193E-3,-2.6991755E-2,-1.7881002E-2],"split_indices":[8,11,8,1,6,6,1,0,0,0,0,0,0,0,0],"split_type":[0,0,0,0,0,0,0,0,0,0,0,0,0,0,0],"sum_hessian":[4.3669053E3,2.1336948E3,2.2332102E3,1.3404277E3,7.9326715E2,1.054055E3,1.1791552E3,6.548903E2,6.855374E2,2.7432996E2,5.189372E2,4.920856E2,5.619695E2,5.5526196E2,6.2389325E2],"tree_param":{"num_deleted":"0","num_feature":"15","num_nodes":"15","size_leaf_vector":"1"}},{"base_weights":[1.0018678E-3,6.805956E-2,-2.1075699E-1,3.3011504E-2,1.9293734E-1,-2.2221172E-1,3.0067617E-1,-1.8600276E-3,3.4633272E-3,1.9790376E-2,6.293855E-3,-2.2880582E-2,-1.0055679E-2,5.602456E-2,1.5554226E-4],"categories":[],"categories_nodes":[],"categories_segments":[],"categories_sizes":[],"default_left":[0,0,0,0,0,0,0,0,0,0,0,0,0,0,0],"id":10,"left_children":[1,3,5,7,9,11,13,-1,-1,-1,-1,-1,-1,-1,-1],"loss_changes":[4.7793987E1,1.1181652E1,4.809101E0,5.0866647E0,7.568733E0,3.8431091E0,4.4262066E0,0E0,0E0,0E0,0E0,0E0,0E0,0E0,0E0],"parents":[2147483647,0,0,1,1,2,2,3,3,4,4,5,5,6,6],"right_children":[2,4,6,8,10,12,14,-1,-1,-1,-1,-1,-1,-1,-1],"split_conditions":[6.395315E-1,2.9671448E-1,2.8764E-1,2.6328117E-1,2.7979928E-1,-2.1595511E0,6.5203834E-1,-1.8600276E-3,3.4633272E-3,1.9790376E-2,6.293855E-3,-2.2880582E-2,-1.0055679E-2,5.602456E-2,1.5554226E-4],"split_indices":[11,4,4,1,5,8,11,0,0,0,0,0,0,0,0],"split_type":[0,0,0,0,0,0,0,0,0,0,0,0,0,0,0],"sum_hessian":[3.363749E3,2.5552546E3,8.084942E2,1.9962529E3,5.5900183E2,7.9133594E2,1.7158308E1,6.7977136E2,1.3164816E3,1.3765791E2,4.2134393E2,6.338922E1,7.2794666E2,3.832886E0,1.3325421E1],"tree_param":{"num_deleted":"0","num_feature":"15","num_nodes":"15","size_leaf_vector":"1"}},{"base_weights":[2.3403377E-3,4.813286E-1,-2.088549E-1,8.130417E-1,3.8357192E-1,-3.6432695E-1,-7.320159E-3,2.5300136E-2,4.215656E-2,2.52941E-2,1.3839662E-2,-2.4802068E-2,-1.4062702E-2,-6.4017647E-3,3.0847548E-3],"categories":[],"categories_nodes":[],"categories_segments":[],"categories_sizes":[],"default_left":[0,0,0,0,0,0,0,0,0,0,0,0,0,0,0],"id":11,"left_children":[1,3,5,7,9,11,13,-1,-1,-1,-1,-1,-1,-1,-1],"loss_changes":[3.9150323E2,3.809018E1,8.4154305E1,2.0555115E0,1.1830673E1,1.6450562E1,9.761148E0,0E0,0E0,0E0,0E0,0E0,0E0,0E0,0E0],"parents":[2147483647,0,0,1,1,2,2,3,3,4,4,5,5,6,6],"right_children":[2,4,6,8,10,12,14,-1,-1,-1,-1,-1,-1,-1,-1],"split_conditions":[3.0285043E-1,1.4429848E-1,2.4331272E-1,4.7307912E-1,2.2305462E-1,1.3417742E-1,-1.9863328E-1,2.5300136E-2,4.215656E-2,2.52941E-2,1.3839662E-2,-2.4802068E-2,-1.4062702E-2,-6.4017647E-3,3.0847548E-3],"split_indices":[0,0,2,5,0,2,8,0,0,0,0,0,0,0,0],"split_type":[0,0,0,0,0,0,0,0,0,0,0,0,0,0,0],"sum_hessian":[3.8681433E3,1.1832552E3,2.684888E3,2.6766916E2,9.155861E2,1.5151963E3,1.1696917E3,2.5480255E1,2.4218892E2,4.2501425E2,4.905719E2,5.841073E2,9.3108905E2,4.2516937E2,7.445223E2],"tree_param":{"num_deleted":"0","num_feature":"15","num_nodes":"15","size_leaf_vector":"1"}},{"base_weights":[-3.7970598E-4,2.9153055E-1,-2.826019E-1,1.6004536E-1,5.1857346E-1,-1.2253994E-1,-4.2742813E-1,1.2227628E-2,4.0123826E-3,1.8511314E-2,2.8693754E-2,-9.011547E-3,-1.4220228E-3,-2.6040947E-2,-1.7111465E-2],"categories":[],"categories_nodes":[],"categories_segments":[],"categories_sizes":[],"default_left":[0,0,0,0,0,0,0,0,0,0,0,0,0,0,0],"id":12,"left_children":[1,3,5,7,9,11,13,-1,-1,-1,-1,-1,-1,-1,-1],"loss_changes":[3.618121E2,6.436456E1,5.17101E1,9.2092705E0,6.2790833E0,5.7606153E0,9.146057E0,0E0,0E0,0E0,0E0,0E0,0E0,0E0,0E0],"parents":[2147483647,0,0,1,1,2,2,3,3,4,4,5,5,6,6],"right_children":[2,4,6,8,10,12,14,-1,-1,-1,-1,-1,-1,-1,-1],"split_conditions":[-2.627185E-1,6.412803E-1,2.4007766E-1,2.687421E-1,2.1717975E0,4.0395135E-1,2.4937242E-1,1.2227628E-2,4.0123826E-3,1.8511314E-2,2.8693754E-2,-9.011547E-3,-1.4220228E-3,-2.6040947E-2,-1.7111465E-2],"split_indices":[8,0,8,1,6,3,1,0,0,0,0,0,0,0,0],"split_type":[0,0,0,0,0,0,0,0,0,0,0,0,0,0,0],"sum_hessian":[4.3898003E3,2.1578464E3,2.2319536E3,1.3675659E3,7.902806E2,1.0610867E3,1.170867E3,6.631808E2,7.0438513E2,2.166932E2,5.7358734E2,6.572321E2,4.038546E2,5.561401E2,6.1472687E2],"tree_param":{"num_deleted":"0","num_feature":"15","num_nodes":"15","size_leaf_vector":"1"}},{"base_weights":[2.712658E-3,-2.428545E-1,5.59284E-2,-4.6091667E-1,-2.174794E-1,3.752832E-3,1.5830997E-1,-2.5261406E-2,3.318545E-2,-6.45068E-3,-1.2828861E-2,-2.0024227E-3,2.077907E-3,6.216748E-3,1.4432204E-2],"categories":[],"categories_nodes":[],"categories_segments":[],"categories_sizes":[],"default_left":[0,0,0,0,0,0,0,0,0,0,0,0,0,0,0],"id":13,"left_children":[1,3,5,7,9,11,13,-1,-1,-1,-1,-1,-1,-1,-1],"loss_changes":[4.418256E1,3.2318382E0,1.4842945E1,3.4188366E0,1.8391724E0,3.0514019E0,4.117792E0,0E0,0E0,0E0,0E0,0E0,0E0,0E0,0E0],"parents":[2147483647,0,0,1,1,2,2,3,3,4,4,5,5,6,6],"right_children":[2,4,6,8,10,12,14,-1,-1,-1,-1,-1,-1,-1,-1],"split_conditions":[1.9476154E-1,-2.1595511E0,2.8370845E-1,9.1438776E-1,1.0729087E-1,2.6682714E-1,3.1233218E-1,-2.5261406E-2,3.318545E-2,-6.45068E-3,-1.2828861E-2,-2.0024227E-3,2.077907E-3,6.216748E-3,1.4432204E-2],"split_indices":[1,8,4,7,5,1,1,0,0,0,0,0,0,0,0],"split_type":[0,0,0,0,0,0,0,0,0,0,0,0,0,0,0],"sum_hessian":[3.3789238E3,6.0118E2,2.777744E3,6.087594E1,5.40304E2,1.8407168E3,9.3702716E2,5.9098167E1,1.7777716E0,1.6691927E2,3.7338477E2,8.527083E2,9.880085E2,7.4482336E2,1.922038E2],"tree_param":{"num_deleted":"0","num_feature":"15","num_nodes":"15","size_leaf_vector":"1"}},{"base_weights":[-5.5976555E-4,-2.882482E-1,3.055232E-1,-4.162216E-1,-1.5437694E-1,5.801115E-1,1.4483112E-1,-2.4316939E-2,-1.6642293E-2,-1.3026819E-2,-6.304478E-3,2.3919387E-2,3.871001E-2,-7.4709806E-4,9.983259E-3],"categories":[],"categories_nodes":[],"categories_segments":[],"categories_sizes":[],"default_left":[0,0,0,0,0,0,0,0,0,0,0,0,0,0,0],"id":14,"left_children":[1,3,5,7,9,11,13,-1,-1,-1,-1,-1,-1,-1,-1],"loss_changes":[3.4036578E2,3.407161E1,8.2550995E1,5.7901E0,2.8962822E0,1.3273163E1,1.0365002E1,0E0,0E0,0E0,0E0,0E0,0E0,0E0,0E0],"parents":[2147483647,0,0,1,1,2,2,3,3,4,4,5,5,6,6],"right_children":[2,4,6,8,10,12,14,-1,-1,-1,-1,-1,-1,-1,-1],"split_conditions":[-1.6235235E-1,2.55344E-1,2.2305462E-1,-1.180474E0,9.8707056E-1,6.5941364E-1,1.2509031E0,-2.4316939E-2,-1.6642293E-2,-1.3026819E-2,-6.304478E-3,2.3919387E-2,3.871001E-2,-7.4709806E-4,9.983259E-3],"split_indices":[8,1,0,8,7,11,7,0,0,0,0,0,0,0,0],"split_type":[0,0,0,0,0,0,0,0,0,0,0,0,0,0,0],"sum_hessian":[3.86331E3,1.9915261E3,1.871784E3,1.01711365E3,9.744124E2,6.900413E2,1.1817427E3,5.498601E2,4.672535E2,2.0328723E2,7.711252E2,4.5502374E2,2.350176E2,3.0213187E2,8.7961084E2],"tree_param":{"num_deleted":"0","num_feature":"15","num_nodes":"15","size_leaf_vector":"1"}},{"base_weights":[4.6111512E-4,2.623699E-1,-2.8942296E-1,1.3180962E-1,5.0669074E-1,-4.5054975E-1,-1.5591826E-1,1.1696997E-2,2.581855E-3,3.5751414E-2,2.3692114E-2,-2.5666405E-2,-1.8069101E-2,-1.1892558E-2,-4.6914676E-3],"categories":[],"categories_nodes":[],"categories_segments":[],"categories_sizes":[],"default_left":[0,0,0,0,0,0,0,0,0,0,0,0,0,0,0],"id":15,"left_children":[1,3,5,7,9,11,13,-1,-1,-1,-1,-1,-1,-1,-1],"loss_changes":[3.3059952E2,7.290372E1,4.4389404E1,1.2206385E1,5.111038E0,5.054016E0,5.7353916E0,0E0,0E0,0E0,0E0,0E0,0E0,0E0,0E0],"parents":[2147483647,0,0,1,1,2,2,3,3,4,4,5,5,6,6],"right_children":[2,4,6,8,10,12,14,-1,-1,-1,-1,-1,-1,-1,-1],"split_conditions":[-1.9863328E-1,6.412803E-1,2.6013485E-1,2.687421E-1,6.918896E-2,2.4937242E-1,3.2465336E-1,1.1696997E-2,2.581855E-3,3.5751414E-2,2.3692114E-2,-2.5666405E-2,-1.8069101E-2,-1.1892558E-2,-4.6914676E-3],"split_indices":[8,0,0,1,2,1,0,0,0,0,0,0,0,0,0],"split_type":[0,0,0,0,0,0,0,0,0,0,0,0,0,0,0],"sum_hessian":[4.3523945E3,2.286578E3,2.0658164E3,1.4912322E3,7.953457E2,9.349957E2,1.1308208E3,6.549656E2,8.362666E2,1.054941E2,6.898516E2,5.458994E2,3.8909628E2,4.862852E2,6.4453564E2],"tree_param":{"num_deleted":"0","num_feature":"15","num_nodes":"15","size_leaf_vector":"1"}},{"base_weights":[6.1914725E-3,6.765225E-2,-1.9058052E-1,-1.0241186E-2,1.0324485E-1,-2.871275E-1,-1.3741165E-1,1.9734816E-3,-5.4203537E-3,5.028663E-3,4.975568E-2,-2.1954393E-2,-1.2224121E-2,2.9801251E-3,-8.071474E-3],"categories":[],"categories_nodes":[],"categories_segments":[],"categories_sizes":[],"default_left":[0,0,0,0,0,0,0,0,0,0,0,0,0,0,0],"id":16,"left_children":[1,3,5,7,9,11,13,-1,-1,-1,-1,-1,-1,-1,-1],"loss_changes":[4.1127625E1,7.1851587E0,4.1154346E0,3.9746082E0,4.1379375E0,1.749443E0,2.488515E0,0E0,0E0,0E0,0E0,0E0,0E0,0E0,0E0],"parents":[2147483647,0,0,1,1,2,2,3,3,4,4,5,5,6,6],"right_children":[2,4,6,8,10,12,14,-1,-1,-1,-1,-1,-1,-1,-1],"split_conditions":[6.395315E-1,2.6682714E-1,1.599413E-1,2.521625E-1,6.885381E-1,-2.1595511E0,5.0453615E-1,1.9734816E-3,-5.4203537E-3,5.028663E-3,4.975568E-2,-2.1954393E-2,-1.2224121E-2,2.9801251E-3,-8.071474E-3],"split_indices":[11,1,1,1,12,8,12,0,0,0,0,0,0,0,0],"split_type":[0,0,0,0,0,0,0,0,0,0,0,0,0,0,0],"sum_hessian":[3.3986653E3,2.590265E3,8.084004E2,8.126077E2,1.7776571E3,2.8552606E2,5.228743E2,5.3983527E2,2.727725E2,1.7734575E3,4.199619E0,6.0531914E1,2.2499414E2,5.665567E1,4.662187E2],"tree_param":{"num_deleted":"0","num_feature":"15","num_nodes":"15","size_leaf_vector":"1"}},{"base_weights":[2.4037967E-3,-2.1632293E-1,3.9519525E-1,-4.1127825E-1,-7.826152E-2,2.1569654E-1,5.7841474E-1,-2.3811352E-2,-1.657715E-2,-7.7082664E-3,1.6968657E-3,1.2746287E-2,-1.6262478E-3,3.8347434E-2,2.2951474E-2],"categories":[],"categories_nodes":[],"categories_segments":[],"categories_sizes":[],"default_left":[0,0,0,0,0,0,0,0,0,0,0,0,0,0,0],"id":17,"left_children":[1,3,5,7,9,11,13,-1,-1,-1,-1,-1,-1,-1,-1],"loss_changes":[3.3127533E2,6.6631065E1,4.5232803E1,5.158386E0,1.2363847E1,6.8075447E0,1.4996613E1,0E0,0E0,0E0,0E0,0E0,0E0,0E0,0E0],"parents":[2147483647,0,0,1,1,2,2,3,3,4,4,5,5,6,6],"right_children":[2,4,6,8,10,12,14,-1,-1,-1,-1,-1,-1,-1,-1],"split_conditions":[3.7006682E-1,2.561399E-1,1.6517135E0,1.3301998E-1,-2.062599E-1,1.2569567E0,1.4429848E-1,-2.3811352E-2,-1.657715E-2,-7.7082664E-3,1.6968657E-3,1.2746287E-2,-1.6262478E-3,3.8347434E-2,2.2951474E-2],"split_indices":[2,1,7,2,8,6,0,0,0,0,0,0,0,0,0],"split_type":[0,0,0,0,0,0,0,0,0,0,0,0,0,0,0],"sum_hessian":[3.8539E3,2.4757324E3,1.3781675E3,1.0255638E3,1.4501686E3,6.972522E2,6.809153E2,5.624469E2,4.631169E2,8.647686E2,5.854E2,6.0207294E2,9.517925E1,2.6189883E2,4.1901645E2],"tree_param":{"num_deleted":"0","num_feature":"15","num_nodes":"15","size_leaf_vector":"1"}},{"base_weights":[-1.5397826E-3,2.6824492E-1,-2.645203E-1,1.458639E-1,4.7641736E-1,-1.6561852E-1,-4.4958383E-1,1.17101325E-2,3.0245483E-3,1.7490102E-2,2.7126348E-2,-1.2842551E-2,-4.4665337E-3,-2.0162115E-2,-2.8558204E-2],"categories":[],"categories_nodes":[],"categories_segments":[],"categories_sizes":[],"default_left":[0,0,0,0,0,0,0,0,0,0,0,0,0,0,0],"id":18,"left_children":[1,3,5,7,9,11,13,-1,-1,-1,-1,-1,-1,-1,-1],"loss_changes":[3.114039E2,5.5126663E1,4.0606293E1,1.0286917E1,6.5207214E0,1.0069561E1,4.1279144E0,0E0,0E0,0E0,0E0,0E0,0E0,0E0,0E0],"parents":[2147483647,0,0,1,1,2,2,3,3,4,4,5,5,6,6],"right_children":[2,4,6,8,10,12,14,-1,-1,-1,-1,-1,-1,-1,-1],"split_conditions":[-2.627185E-1,6.412803E-1,4.9632505E-1,2.687421E-1,2.216165E0,3.2465336E-1,1.1963117E0,1.17101325E-2,3.0245483E-3,1.7490102E-2,2.7126348E-2,-1.2842551E-2,-4.4665337E-3,-2.0162115E-2,-2.8558204E-2],"split_indices":[8,0,8,1,6,0,8,0,0,0,0,0,0,0,0],"split_type":[0,0,0,0,0,0,0,0,0,0,0,0,0,0,0],"sum_hessian":[4.3871777E3,2.1655635E3,2.221614E3,1.3648766E3,8.0068695E2,1.449087E3,7.7252704E2,6.699302E2,6.949464E2,2.7681427E2,5.2387274E2,6.588285E2,7.902586E2,5.624574E2,2.1006963E2],"tree_param":{"num_deleted":"0","num_feature":"15","num_nodes":"15","size_leaf_vector":"1"}},{"base_weights":[1.5646288E-3,5.752685E-2,-1.7795964E-1,2.5506994E-2,1.7094006E-1,-1.5319592E-1,-4.1042614E-1,8.740117E-4,1.1363206E-2,1.0409342E-2,-6.117113E-3,-8.1772385E-3,1.9838506E-2,-2.3040164E-2,7.563812E-3],"categories":[],"categories_nodes":[],"categories_segments":[],"categories_sizes":[],"default_left":[0,0,0,0,0,0,0,0,0,0,0,0,0,0,0],"id":19,"left_children":[1,3,5,7,9,11,13,-1,-1,-1,-1,-1,-1,-1,-1],"loss_changes":[3.38432E1,9.321525E0,4.5456257E0,3.241152E0,6.1999836E0,4.191622E0,2.2336626E0,0E0,0E0,0E0,0E0,0E0,0E0,0E0,0E0],"parents":[2147483647,0,0,1,1,2,2,3,3,4,4,5,5,6,6],"right_children":[2,4,6,8,10,12,14,-1,-1,-1,-1,-1,-1,-1,-1],"split_conditions":[6.3693184E-1,2.9671448E-1,2.8891933E0,6.2193877E-1,4.1985527E-1,2.915726E-1,9.1438776E-1,8.740117E-4,1.1363206E-2,1.0409342E-2,-6.117113E-3,-8.1772385E-3,1.9838506E-2,-2.3040164E-2,7.563812E-3],"split_indices":[11,4,6,11,8,4,7,0,0,0,0,0,0,0,0],"split_type":[0,0,0,0,0,0,0,0,0,0,0,0,0,0,0],"sum_hessian":[3.366611E3,2.5670703E3,7.995408E2,2.0028363E3,5.6423413E2,7.2406775E2,7.5473015E1,1.9272487E3,7.558754E1,5.00909E2,6.3325153E1,7.113841E2,1.2683656E1,6.942606E1,6.0469513E0],"tree_param":{"num_deleted":"0","num_feature":"15","num_nodes":"15","size_leaf_vector":"1"}},{"base_weights":[2.6669633E-3,-2.134585E-1,3.6014253E-1,-3.8566583E-1,-8.1327364E-2,1.8072625E-1,5.107676E-1,-2.3116602E-2,-1.5064995E-2,-7.4194544E-3,1.0105404E-3,1.1055417E-2,2.1312104E-3,2.0718198E-2,3.456276E-2],"categories":[],"categories_nodes":[],"categories_segments":[],"categories_sizes":[],"default_left":[0,0,0,0,0,0,0,0,0,0,0,0,0,0,0],"id":20,"left_children":[1,3,5,7,9,11,13,-1,-1,-1,-1,-1,-1,-1,-1],"loss_changes":[2.960645E2,5.430976E1,3.892778E1,6.5654144E0,9.213387E0,3.674118E0,1.3361298E1,0E0,0E0,0E0,0E0,0E0,0E0,0E0,0E0],"parents":[2147483647,0,0,1,1,2,2,3,3,4,4,5,5,6,6],"right_children":[2,4,6,8,10,12,14,-1,-1,-1,-1,-1,-1,-1,-1],"split_conditions":[3.6220324E-1,1.9207752E-1,4.8289943E-1,1.3301998E-1,-2.062599E-1,3.801779E-1,6.463638E-1,-2.3116602E-2,-1.5064995E-2,-7.4194544E-3,1.0105404E-3,1.1055417E-2,2.1312104E-3,2.0718198E-2,3.456276E-2],"split_indices":[2,2,8,2,8,3,2,0,0,0,0,0,0,0,0],"split_type":[0,0,0,0,0,0,0,0,0,0,0,0,0,0,0],"sum_hessian":[3.8300806E3,2.3872068E3,1.4428738E3,1.035593E3,1.3516138E3,6.5950616E2,7.833676E2,5.4020764E2,4.9538538E2,8.137226E2,5.378912E2,5.0982764E2,1.4967856E2,5.1277527E2,2.7059238E2],"tree_param":{"num_deleted":"0","num_feature":"15","num_nodes":"15","size_leaf_vector":"1"}},{"base_weights":[7.436807E-3,2.643659E-1,-2.4609834E-1,1.4505498E-1,4.7221315E-1,-1.0723227E-1,-3.7360606E-1,1.0801868E-2,3.8780177E-3,1.7653141E-2,2.668993E-2,-9.522124E-3,-2.034226E-3,-2.6352985E-2,-1.625078E-2],"categories":[],"categories_nodes":[],"categories_segments":[],"categories_sizes":[],"default_left":[0,0,0,0,0,0,0,0,0,0,0,0,0,0,0],"id":21,"left_children":[1,3,5,7,9,11,13,-1,-1,-1,-1,-1,-1,-1,-1],"loss_changes":[2.845725E2,5.373813E1,3.88936E1,6.5943203E0,5.6147003E0,5.828392E0,8.37291E0,0E0,0E0,0E0,0E0,0E0,0E0,0E0,0E0],"parents":[2147483647,0,0,1,1,2,2,3,3,4,4,5,5,6,6],"right_children":[2,4,6,8,10,12,14,-1,-1,-1,-1,-1,-1,-1,-1],"split_conditions":[1.1489818E0,6.412803E-1,2.4007766E-1,2.7189276E-1,2.216165E0,4.0762958E-1,1.4791356E-1,1.0801868E-2,3.8780177E-3,1.7653141E-2,2.668993E-2,-9.522124E-3,-2.034226E-3,-2.6352985E-2,-1.625078E-2],"split_indices":[7,0,8,1,6,12,0,0,0,0,0,0,0,0,0],"split_type":[0,0,0,0,0,0,0,0,0,0,0,0,0,0,0],"sum_hessian":[4.3665933E3,2.168759E3,2.197834E3,1.3789155E3,7.8984357E2,1.0529397E3,1.1448943E3,6.710201E2,7.078955E2,2.7143216E2,5.184114E2,4.6706616E2,5.858735E2,2.729725E2,8.719218E2],"tree_param":{"num_deleted":"0","num_feature":"15","num_nodes":"15","size_leaf_vector":"1"}},{"base_weights":[2.7343675E-3,5.9954505E-2,-1.7987771E-1,3.2187074E-2,1.8007377E-1,-3.5807383E-1,-1.5501247E-1,1.3397874E-3,1.5162572E-2,1.7519915E-2,6.196003E-3,-1.580006E-2,-3.0037373E-2,-8.337072E-3,1.2833752E-2],"categories":[],"categories_nodes":[],"categories_segments":[],"categories_sizes":[],"default_left":[0,0,0,0,0,0,0,0,0,0,0,0,0,0,0],"id":22,"left_children":[1,3,5,7,9,11,13,-1,-1,-1,-1,-1,-1,-1,-1],"loss_changes":[3.537522E1,8.59196E0,3.5234394E0,3.0534205E0,4.583623E0,8.122053E-1,3.4739647E0,0E0,0E0,0E0,0E0,0E0,0E0,0E0,0E0],"parents":[2147483647,0,0,1,1,2,2,3,3,4,4,5,5,6,6],"right_children":[2,4,6,8,10,12,14,-1,-1,-1,-1,-1,-1,-1,-1],"split_conditions":[6.3693184E-1,2.9952955E-1,1.2587881E-1,6.761013E-1,2.7979928E-1,6.077551E-1,2.8764E-1,1.3397874E-3,1.5162572E-2,1.7519915E-2,6.196003E-3,-1.580006E-2,-3.0037373E-2,-8.337072E-3,1.2833752E-2],"split_indices":[11,4,1,12,5,5,4,0,0,0,0,0,0,0,0],"split_type":[0,0,0,0,0,0,0,0,0,0,0,0,0,0,0],"sum_hessian":[3.3834517E3,2.5767256E3,8.0672614E2,2.0939456E3,4.8278003E2,9.7144165E1,7.09582E2,2.0541877E3,3.975786E1,1.18402756E2,3.6437726E2,8.475266E1,1.23915E1,6.9050446E2,1.9077477E1],"tree_param":{"num_deleted":"0","num_feature":"15","num_nodes":"15","size_leaf_vector":"1"}},{"base_weights":[-2.0353135E-3,-2.7425128E-1,2.633791E-1,-3.8909918E-1,-1.4878635E-1,5.086659E-1,1.271111E-1,-2.2910729E-2,-1.53817255E-2,6.3328855E-3,-8.015945E-3,2.0055687E-2,3.5250064E-2,9.167793E-3,-7.519878E-5],"categories":[],"categories_nodes":[],"categories_segments":[],"categories_sizes":[],"default_left":[0,0,0,0,0,0,0,0,0,0,0,0,0,0,0],"id":23,"left_children":[1,3,5,7,9,11,13,-1,-1,-1,-1,-1,-1,-1,-1],"loss_changes":[2.7761224E2,2.727501E1,6.496318E1,5.431656E0,2.9051323E0,1.4382034E1,9.057291E0,0E0,0E0,0E0,0E0,0E0,0E0,0E0,0E0],"parents":[2147483647,0,0,1,1,2,2,3,3,4,4,5,5,6,6],"right_children":[2,4,6,8,10,12,14,-1,-1,-1,-1,-1,-1,-1,-1],"split_conditions":[2.9505065E-1,2.561399E-1,2.2054482E-1,1.3301998E-1,2.5958043E-1,6.5941364E-1,3.897576E-1,-2.2910729E-2,-1.53817255E-2,6.3328855E-3,-8.015945E-3,2.0055687E-2,3.5250064E-2,9.167793E-3,-7.519878E-5],"split_indices":[2,1,0,2,1,11,3,0,0,0,0,0,0,0,0],"split_type":[0,0,0,0,0,0,0,0,0,0,0,0,0,0,0],"sum_hessian":[3.8403818E3,1.8958822E3,1.9444996E3,9.887241E2,9.071581E2,6.934801E2,1.2510195E3,5.3240344E2,4.5632068E2,3.6054195E1,8.711039E2,4.5000903E2,2.434711E2,8.700929E2,3.8092657E2],"tree_param":{"num_deleted":"0","num_feature":"15","num_nodes":"15","size_leaf_vector":"1"}},{"base_weights":[-2.3019658E-3,2.2633654E-1,-2.6422393E-1,1.4064698E-1,4.855404E-1,-4.1026863E-1,-1.5600708E-1,2.0437182E-3,1.1512718E-2,2.2953896E-2,3.6403693E-2,-1.7152146E-2,-2.384991E-2,-1.068526E-2,-3.500192E-3],"categories":[],"categories_nodes":[],"categories_segments":[],"categories_sizes":[],"default_left":[0,0,0,0,0,0,0,0,0,0,0,0,0,0,0],"id":24,"left_children":[1,3,5,7,9,11,13,-1,-1,-1,-1,-1,-1,-1,-1],"loss_changes":[2.6108197E2,5.1633476E1,3.2049835E1,1.5643566E1,3.3749084E0,3.7131653E0,5.7845783E0,0E0,0E0,0E0,0E0,0E0,0E0,0E0,0E0],"parents":[2147483647,0,0,1,1,2,2,3,3,4,4,5,5,6,6],"right_children":[2,4,6,8,10,12,14,-1,-1,-1,-1,-1,-1,-1,-1],"split_conditions":[2.9505065E-1,2.1717975E0,1.1061833E0,5.168871E-1,3.0953796E0,5.8143127E-1,1.2738297E0,2.0437182E-3,1.1512718E-2,2.2953896E-2,3.6403693E-2,-1.7152146E-2,-2.384991E-2,-1.068526E-2,-3.500192E-3],"split_indices":[2,6,6,11,6,2,6,0,0,0,0,0,0,0,0],"split_type":[0,0,0,0,0,0,0,0,0,0,0,0,0,0,0],"sum_hessian":[4.3576914E3,2.3267483E3,2.0309434E3,1.7498217E3,5.769266E2,8.6320654E2,1.1677368E3,8.2863776E2,9.2118396E2,5.2277966E2,5.414691E1,4.330636E2,4.301429E2,6.979853E2,4.697515E2],"tree_param":{"num_deleted":"0","num_feature":"15","num_nodes":"15","size_leaf_vector":"1"}},{"base_weights":[6.6097225E-3,-1.7741787E-1,6.4137995E-2,-1.4718375E-1,-3.4558842E-1,-9.464764E-3,1.0517123E-1,-5.9775915E-3,-1.1624479E-2,-2.9673988E-2,-1.5685996E-2,8.850403E-3,-1.5013149E-3,4.0748743E-3,1.1966674E-2],"categories":[],"categories_nodes":[],"categories_segments":[],"categories_sizes":[],"default_left":[0,0,0,0,0,0,0,0,0,0,0,0,0,0,0],"id":25,"left_children":[1,3,5,7,9,11,13,-1,-1,-1,-1,-1,-1,-1,-1],"loss_changes":[3.5854916E1,4.0502396E0,7.793293E0,1.5878506E0,7.789593E-1,3.5497963E0,5.242214E0,0E0,0E0,0E0,0E0,0E0,0E0,0E0,0E0],"parents":[2147483647,0,0,1,1,2,2,3,3,4,4,5,5,6,6],"right_children":[2,4,6,8,10,12,14,-1,-1,-1,-1,-1,-1,-1,-1],"split_conditions":[2.1708044E-1,7.917251E-1,2.611587E-1,6.5465534E-1,1.2841696E-1,9.183846E-1,3.1271404E-1,-5.9775915E-3,-1.1624479E-2,-2.9673988E-2,-1.5685996E-2,8.850403E-3,-1.5013149E-3,4.0748743E-3,1.1966674E-2],"split_indices":[1,11,4,2,3,7,1,0,0,0,0,0,0,0,0],"split_type":[0,0,0,0,0,0,0,0,0,0,0,0,0,0,0],"sum_hessian":[3.3846853E3,8.055908E2,2.5790945E3,6.844193E2,1.2117149E2,9.2344617E2,1.6556482E3,5.187798E2,1.6563954E2,1.1795627E1,1.0937587E2,9.0956024E1,8.324902E2,1.4086847E3,2.469636E2],"tree_param":{"num_deleted":"0","num_feature":"15","num_nodes":"15","size_leaf_vector":"1"}},{"base_weights":[2.8488436E-3,-2.1768163E-1,3.049646E-1,-3.7184843E-1,-9.703374E-2,1.4793085E-1,4.5165828E-1,-2.233802E-2,-1.4367759E-2,-9.148132E-3,-1.9428643E-3,1.1262096E-2,3.2419953E-4,1.870487E-2,3.1541336E-2],"categories":[],"categories_nodes":[],"categories_segments":[],"categories_sizes":[],"default_left":[0,0,0,0,0,0,0,0,0,0,0,0,0,0,0],"id":26,"left_children":[1,3,5,7,9,11,13,-1,-1,-1,-1,-1,-1,-1,-1],"loss_changes":[2.5429242E2,4.100029E1,3.703163E1,6.000122E0,6.186878E0,8.520571E0,1.1328064E1,0E0,0E0,0E0,0E0,0E0,0E0,0E0,0E0],"parents":[2147483647,0,0,1,1,2,2,3,3,4,4,5,5,6,6],"right_children":[2,4,6,8,10,12,14,-1,-1,-1,-1,-1,-1,-1,-1],"split_conditions":[1.2702428E0,2.55344E-1,1.5846345E0,-1.180474E0,1.0813419E0,1.2569567E0,6.5941364E-1,-2.233802E-2,-1.4367759E-2,-9.148132E-3,-1.9428643E-3,1.1262096E-2,3.2419953E-4,1.870487E-2,3.1541336E-2],"split_indices":[7,1,7,8,7,6,11,0,0,0,0,0,0,0,0],"split_type":[0,0,0,0,0,0,0,0,0,0,0,0,0,0,0],"sum_hessian":[3.8147336E3,2.205269E3,1.6094645E3,9.6723303E2,1.238036E3,7.78306E2,8.311585E2,5.1041245E2,4.5682056E2,4.9893887E2,7.390972E2,5.0286237E2,2.7544363E2,5.8221094E2,2.4894754E2],"tree_param":{"num_deleted":"0","num_feature":"15","num_nodes":"15","size_leaf_vector":"1"}},{"base_weights":[-1.4732858E-3,2.2934362E-1,-2.3903184E-1,4.5400903E-1,1.3743235E-1,-4.1834605E-1,-1.546767E-1,2.0952132E-2,3.1926703E-2,2.9659048E-3,1.1177081E-2,-2.4719609E-2,-1.8464189E-2,-1.1243789E-2,-3.476447E-3],"categories":[],"categories_nodes":[],"categories_segments":[],"categories_sizes":[],"default_left":[0,0,0,0,0,0,0,0,0,0,0,0,0,0,0],"id":27,"left_children":[1,3,5,7,9,11,13,-1,-1,-1,-1,-1,-1,-1,-1],"loss_changes":[2.3869305E2,4.5529076E1,3.238424E1,3.86557E0,1.0535791E1,2.3759003E0,8.714199E0,0E0,0E0,0E0,0E0,0E0,0E0,0E0,0E0],"parents":[2147483647,0,0,1,1,2,2,3,3,4,4,5,5,6,6],"right_children":[2,4,6,8,10,12,14,-1,-1,-1,-1,-1,-1,-1,-1],"split_conditions":[1.1589798E0,1.2750348E-1,2.2305462E-1,7.8855383E-1,5.3378624E-1,1.4791356E-1,1.2738297E0,2.0952132E-2,3.1926703E-2,2.9659048E-3,1.1177081E-2,-2.4719609E-2,-1.8464189E-2,-1.1243789E-2,-3.476447E-3],"split_indices":[7,2,0,3,0,0,6,0,0,0,0,0,0,0,0],"split_type":[0,0,0,0,0,0,0,0,0,0,0,0,0,0,0],"sum_hessian":[4.3511284E3,2.2068962E3,2.1442324E3,6.395814E2,1.5673148E3,6.847327E2,1.4594996E3,5.404418E2,9.913963E1,8.226943E2,7.446205E2,2.6496402E2,4.1976868E2,7.9907263E2,6.6042706E2],"tree_param":{"num_deleted":"0","num_feature":"15","num_nodes":"15","size_leaf_vector":"1"}},{"base_weights":[-4.5053274E-3,5.0551645E-2,-1.891813E-1,2.5506077E-2,1.5645E-1,-3.788174E-1,-1.5946668E-1,-1.8280741E-3,2.7540275E-3,1.0679216E-2,1.3465328E-4,-2.088268E-2,-5.106482E-3,-8.568882E-3,1.3218137E-2],"categories":[],"categories_nodes":[],"categories_segments":[],"categories_sizes":[],"default_left":[0,0,0,0,0,0,0,0,0,0,0,0,0,0,0],"id":28,"left_children":[1,3,5,7,9,11,13,-1,-1,-1,-1,-1,-1,-1,-1],"loss_changes":[3.4524204E1,6.933691E0,4.3337307E0,3.8873186E0,4.3928432E0,1.08465E0,3.4573364E0,0E0,0E0,0E0,0E0,0E0,0E0,0E0,0E0],"parents":[2147483647,0,0,1,1,2,2,3,3,4,4,5,5,6,6],"right_children":[2,4,6,8,10,12,14,-1,-1,-1,-1,-1,-1,-1,-1],"split_conditions":[6.3693184E-1,2.9952955E-1,1.2903707E-1,2.6328117E-1,3.733084E-1,2.2442399E-1,2.87193E-1,-1.8280741E-3,2.7540275E-3,1.0679216E-2,1.3465328E-4,-2.088268E-2,-5.106482E-3,-8.568882E-3,1.3218137E-2],"split_indices":[11,4,1,1,5,4,4,0,0,0,0,0,0,0,0],"split_type":[0,0,0,0,0,0,0,0,0,0,0,0,0,0,0],"sum_hessian":[3.3935376E3,2.6147385E3,7.78799E2,2.1156226E3,4.99116E2,1.0390943E2,6.748896E2,6.8267175E2,1.4329507E3,3.636126E2,1.3550339E2,9.0673004E1,1.3236423E1,6.570209E2,1.7868706E1],"tree_param":{"num_deleted":"0","num_feature":"15","num_nodes":"15","size_leaf_vector":"1"}},{"base_weights":[-3.587661E-3,-2.5266573E-1,2.4383105E-1,-3.7399116E-1,-1.3137773E-1,1.0390181E-1,4.3487E-1,-2.224916E-2,-1.4277349E-2,-4.3927254E-3,-1.0447079E-2,7.829947E-3,-1.5711541E-3,1.9112086E-2,3.135302E-2],"categories":[],"categories_nodes":[],"categories_segments":[],"categories_sizes":[],"default_left":[0,0,0,0,0,0,0,0,0,0,0,0,0,0,0],"id":29,"left_children":[1,3,5,7,9,11,13,-1,-1,-1,-1,-1,-1,-1,-1],"loss_changes":[2.3546951E2,2.7969765E1,5.1195847E1,5.8462524E0,3.2012348E0,7.9044857E0,7.954239E0,0E0,0E0,0E0,0E0,0E0,0E0,0E0,0E0],"parents":[2147483647,0,0,1,1,2,2,3,3,4,4,5,5,6,6],"right_children":[2,4,6,8,10,12,14,-1,-1,-1,-1,-1,-1,-1,-1],"split_conditions":[-1.6235235E-1,1.8477656E-1,4.8289943E-1,1.3301998E-1,2.846843E-1,3.094084E-1,1.3079602E0,-2.224916E-2,-1.4277349E-2,-4.3927254E-3,-1.0447079E-2,7.829947E-3,-1.5711541E-3,1.9112086E-2,3.135302E-2],"split_indices":[8,2,8,2,4,1,8,0,0,0,0,0,0,0,0],"split_type":[0,0,0,0,0,0,0,0,0,0,0,0,0,0,0],"sum_hessian":[3.818909E3,1.9030623E3,1.9158467E3,9.503428E2,9.527194E2,1.1067417E3,8.0910504E2,5.24948E2,4.2539478E2,6.116425E2,3.410769E2,7.9644086E2,3.1030084E2,6.375192E2,1.7158575E2],"tree_param":{"num_deleted":"0","num_feature":"15","num_nodes":"15","size_leaf_vector":"1"}},{"base_weights":[-3.0393002E-3,2.2739139E-1,-2.3080246E-1,4.439947E-1,1.4030448E-1,-1.0325969E-1,-3.5111216E-1,2.050179E-2,3.0567868E-2,1.1324095E-2,3.479595E-3,-8.019774E-3,-4.6704835E-4,-1.4450468E-2,-2.2702746E-2],"categories":[],"categories_nodes":[],"categories_segments":[],"categories_sizes":[],"default_left":[0,0,0,0,0,0,0,0,0,0,0,0,0,0,0],"id":30,"left_children":[1,3,5,7,9,11,13,-1,-1,-1,-1,-1,-1,-1,-1],"loss_changes":[2.263086E2,4.0370224E1,3.323915E1,3.2400742E0,9.309311E0,5.654626E0,7.000168E0,0E0,0E0,0E0,0E0,0E0,0E0,0E0,0E0],"parents":[2147483647,0,0,1,1,2,2,3,3,4,4,5,5,6,6],"right_children":[2,4,6,8,10,12,14,-1,-1,-1,-1,-1,-1,-1,-1],"split_conditions":[-2.627185E-1,1.24474406E-1,2.4007766E-1,7.8855383E-1,-7.04354E-1,4.0395135E-1,5.83686E-1,2.050179E-2,3.0567868E-2,1.1324095E-2,3.479595E-3,-8.019774E-3,-4.6704835E-4,-1.4450468E-2,-2.2702746E-2],"split_indices":[8,2,8,3,8,3,11,0,0,0,0,0,0,0,0],"split_type":[0,0,0,0,0,0,0,0,0,0,0,0,0,0,0],"sum_hessian":[4.309985E3,2.142447E3,2.1675376E3,6.1319794E2,1.5292491E3,1.0530433E3,1.1144943E3,5.126319E2,1.00566055E2,6.882618E2,8.409874E2,6.5429364E2,3.987497E2,6.9751086E2,4.1698346E2],"tree_param":{"num_deleted":"0","num_feature":"15","num_nodes":"15","size_leaf_vector":"1"}},{"base_weights":[2.8014893E-3,5.385117E-2,-1.6925304E-1,3.1574026E-2,1.488752E-1,-3.8201627E-1,-1.484069E-1,1.2000647E-3,1.1546455E-2,1.0046276E-2,1.9646592E-4,-1.9989833E-2,-1.3558113E-3,-7.896545E-3,1.2320478E-2],"categories":[],"categories_nodes":[],"categories_segments":[],"categories_sizes":[],"default_left":[0,0,0,0,0,0,0,0,0,0,0,0,0,0,0],"id":31,"left_children":[1,3,5,7,9,11,13,-1,-1,-1,-1,-1,-1,-1,-1],"loss_changes":[2.9712545E1,5.517664E0,3.37644E0,3.186759E0,3.7350025E0,4.210148E-1,2.695941E0,0E0,0E0,0E0,0E0,0E0,0E0,0E0,0E0],"parents":[2147483647,0,0,1,1,2,2,3,3,4,4,5,5,6,6],"right_children":[2,4,6,8,10,12,14,-1,-1,-1,-1,-1,-1,-1,-1],"split_conditions":[6.3693184E-1,2.9952955E-1,6.918896E-2,6.2193877E-1,3.733084E-1,2.42342E-1,2.8764E-1,1.2000647E-3,1.1546455E-2,1.0046276E-2,1.9646592E-4,-1.9989833E-2,-1.3558113E-3,-7.896545E-3,1.2320478E-2],"split_indices":[11,4,2,11,5,4,4,0,0,0,0,0,0,0,0],"split_type":[0,0,0,0,0,0,0,0,0,0,0,0,0,0,0],"sum_hessian":[3.3807966E3,2.607748E3,7.730486E2,2.1135793E3,4.941688E2,6.743697E1,7.056116E2,2.0373102E3,7.626919E1,3.633154E2,1.3085338E2,6.409912E1,3.3378534E0,6.8957715E2,1.6034428E1],"tree_param":{"num_deleted":"0","num_feature":"15","num_nodes":"15","size_leaf_vector":"1"}},{"base_weights":[4.3054037E-3,-2.4976332E-1,2.2959347E-1,-3.806099E-1,-1.5281835E-1,9.634952E-2,4.192558E-1,-2.1488076E-2,-1.5555672E-2,-1.985637E-2,-6.9194892E-3,6.8042763E-3,-2.2045912E-3,1.690228E-2,2.8679995E-2],"categories":[],"categories_nodes":[],"categories_segments":[],"categories_sizes":[],"default_left":[0,0,0,0,0,0,0,0,0,0,0,0,0,0,0],"id":32,"left_children":[1,3,5,7,9,11,13,-1,-1,-1,-1,-1,-1,-1,-1],"loss_changes":[2.1794263E2,2.264161E1,5.0959747E1,2.4654846E0,3.574379E0,6.6281967E0,1.0240295E1,0E0,0E0,0E0,0E0,0E0,0E0,0E0,0E0],"parents":[2147483647,0,0,1,1,2,2,3,3,4,4,5,5,6,6],"right_children":[2,4,6,8,10,12,14,-1,-1,-1,-1,-1,-1,-1,-1],"split_conditions":[-2.062599E-1,-8.832407E-1,1.5846345E0,1.9679604E-1,1.5264852E-1,3.1271404E-1,6.463638E-1,-2.1488076E-2,-1.5555672E-2,-1.985637E-2,-6.9194892E-3,6.8042763E-3,-2.2045912E-3,1.690228E-2,2.8679995E-2],"split_indices":[8,8,7,1,5,1,11,0,0,0,0,0,0,0,0],"split_type":[0,0,0,0,0,0,0,0,0,0,0,0,0,0,0],"sum_hessian":[3.8056106E3,1.7885095E3,2.0171011E3,7.599199E2,1.0285896E3,1.1856509E3,8.3145026E2,4.4207614E2,3.1784378E2,5.5880512E1,9.727091E2,9.2419366E2,2.614572E2,5.46888E2,2.845623E2],"tree_param":{"num_deleted":"0","num_feature":"15","num_nodes":"15","size_leaf_vector":"1"}},{"base_weights":[1.0601723E-3,2.2421978E-1,-2.2354366E-1,4.231371E-1,1.4467208E-1,-9.36071E-2,-3.467691E-1,1.9389093E-2,3.0045772E-2,1.1131201E-2,2.5041162E-3,-8.11926E-3,-1.8742916E-3,-1.56053575E-2,-2.5204455E-2],"categories":[],"categories_nodes":[],"categories_segments":[],"categories_sizes":[],"default_left":[0,0,0,0,0,0,0,0,0,0,0,0,0,0,0],"id":33,"left_children":[1,3,5,7,9,11,13,-1,-1,-1,-1,-1,-1,-1,-1],"loss_changes":[2.1684866E2,3.4278152E1,3.4491684E1,3.6602783E0,1.1430546E1,4.0502796E0,5.8754425E0,0E0,0E0,0E0,0E0,0E0,0E0,0E0,0E0],"parents":[2147483647,0,0,1,1,2,2,3,3,4,4,5,5,6,6],"right_children":[2,4,6,8,10,12,14,-1,-1,-1,-1,-1,-1,-1,-1],"split_conditions":[-2.627185E-1,1.24474406E-1,2.4007766E-1,7.8855383E-1,2.687421E-1,4.0483913E-1,1.1963117E0,1.9389093E-2,3.0045772E-2,1.1131201E-2,2.5041162E-3,-8.11926E-3,-1.8742916E-3,-1.56053575E-2,-2.5204455E-2],"split_indices":[8,2,8,3,1,12,8,0,0,0,0,0,0,0,0],"split_type":[0,0,0,0,0,0,0,0,0,0,0,0,0,0,0],"sum_hessian":[4.324373E3,2.1691614E3,2.1552117E3,6.184195E2,1.550742E3,1.0498959E3,1.1053159E3,5.1848773E2,9.9931755E1,8.493963E2,7.0134564E2,4.709009E2,5.78995E2,9.0819855E2,1.9711736E2],"tree_param":{"num_deleted":"0","num_feature":"15","num_nodes":"15","size_leaf_vector":"1"}},{"base_weights":[1.4675764E-3,5.185905E-2,-1.6696142E-1,-1.0129051E-2,8.205745E-2,-1.15774415E-1,-2.3840158E-1,-2.7372723E-2,-8.249735E-5,-2.4418046E-3,4.841284E-3,5.308065E-3,-7.7084065E-3,-7.6604425E-3,-1.4737996E-2],"categories":[],"categories_nodes":[],"categories_segments":[],"categories_sizes":[],"default_left":[0,0,0,0,0,0,0,0,0,0,0,0,0,0,0],"id":34,"left_children":[1,3,5,7,9,11,13,-1,-1,-1,-1,-1,-1,-1,-1],"loss_changes":[2.8673214E1,4.868489E0,2.8173504E0,3.8840451E0,3.3849277E0,3.8949633E0,1.5095234E0,0E0,0E0,0E0,0E0,0E0,0E0,0E0,0E0],"parents":[2147483647,0,0,1,1,2,2,3,3,4,4,5,5,6,6],"right_children":[2,4,6,8,10,12,14,-1,-1,-1,-1,-1,-1,-1,-1],"split_conditions":[6.3693184E-1,2.687421E-1,7.302048E-1,4.6976832E-1,2.429455E-1,1.747772E-1,9.7113475E-2,-2.7372723E-2,-8.249735E-5,-2.4418046E-3,4.841284E-3,5.308065E-3,-7.7084065E-3,-7.6604425E-3,-1.4737996E-2],"split_indices":[11,1,11,11,4,1,5,0,0,0,0,0,0,0,0],"split_type":[0,0,0,0,0,0,0,0,0,0,0,0,0,0,0],"sum_hessian":[3.376313E3,2.5993252E3,7.7698773E2,8.5170306E2,1.7476221E3,4.5418442E2,3.228033E2,1.2243767E1,8.394593E2,1.7695245E2,1.5706697E3,6.672337E1,3.8746103E2,1.3000415E2,1.9279918E2],"tree_param":{"num_deleted":"0","num_feature":"15","num_nodes":"15","size_leaf_vector":"1"}},{"base_weights":[1.6941932E-3,-1.9006757E-1,2.6160187E-1,-3.4520006E-1,-7.746039E-2,1.4010648E-1,4.3129784E-1,-2.0857802E-2,-1.3816364E-2,-7.905115E-3,-1.3899541E-3,1.0222947E-2,1.0897819E-4,2.8197164E-2,1.6963316E-2],"categories":[],"categories_nodes":[],"categories_segments":[],"categories_sizes":[],"default_left":[0,0,0,0,0,0,0,0,0,0,0,0,0,0,0],"id":35,"left_children":[1,3,5,7,9,11,13,-1,-1,-1,-1,-1,-1,-1,-1],"loss_changes":[1.8959334E2,3.8212585E1,3.3237236E1,4.445854E0,5.080145E0,8.366608E0,8.028885E0,0E0,0E0,0E0,0E0,0E0,0E0,0E0,0E0],"parents":[2147483647,0,0,1,1,2,2,3,3,4,4,5,5,6,6],"right_children":[2,4,6,8,10,12,14,-1,-1,-1,-1,-1,-1,-1,-1],"split_conditions":[1.2702428E0,1.8477656E-1,1.6764892E0,1.4813077E-1,1.0813419E0,1.2569567E0,1.4429848E-1,-2.0857802E-2,-1.3816364E-2,-7.905115E-3,-1.3899541E-3,1.0222947E-2,1.0897819E-4,2.8197164E-2,1.6963316E-2],"split_indices":[7,2,7,5,7,6,0,0,0,0,0,0,0,0,0],"split_type":[0,0,0,0,0,0,0,0,0,0,0,0,0,0,0],"sum_hessian":[3.802015E3,2.1879778E3,1.6140371E3,9.19361E2,1.2686167E3,9.416674E2,6.7236975E2,4.4714355E2,4.722175E2,4.8266443E2,7.859523E2,6.4175977E2,2.9990768E2,2.733138E2,3.990559E2],"tree_param":{"num_deleted":"0","num_feature":"15","num_nodes":"15","size_leaf_vector":"1"}},{"base_weights":[2.408875E-3,1.8671732E-1,-2.4248806E-1,9.394668E-2,3.743507E-1,-1.6680521E-1,-4.032475E-1,9.080425E-3,1.8411797E-3,1.8929984E-2,-3.5711415E-2,-5.1441225E-3,-1.14874365E-2,-1.7852416E-2,-2.4872614E-2],"categories":[],"categories_nodes":[],"categories_segments":[],"categories_sizes":[],"default_left":[0,0,0,0,0,0,0,0,0,0,0,0,0,0,0],"id":36,"left_children":[1,3,5,7,9,11,13,-1,-1,-1,-1,-1,-1,-1,-1],"loss_changes":[1.9398578E2,4.2650185E1,2.2386887E1,8.216863E0,4.021431E0,5.031933E0,2.3903122E0,0E0,0E0,0E0,0E0,0E0,0E0,0E0,0E0],"parents":[2147483647,0,0,1,1,2,2,3,3,4,4,5,5,6,6],"right_children":[2,4,6,8,10,12,14,-1,-1,-1,-1,-1,-1,-1,-1],"split_conditions":[-1.2365679E-1,6.361718E-1,5.304361E-1,2.687421E-1,1.5099935E-1,3.9881432E-1,1.1963117E0,9.080425E-3,1.8411797E-3,1.8929984E-2,-3.5711415E-2,-5.1441225E-3,-1.14874365E-2,-1.7852416E-2,-2.4872614E-2],"split_indices":[8,0,11,1,2,11,8,0,0,0,0,0,0,0,0],"split_type":[0,0,0,0,0,0,0,0,0,0,0,0,0,0,0],"sum_hessian":[4.295749E3,2.4512134E3,1.8445356E3,1.6412426E3,8.099707E2,1.2555033E3,5.8903235E2,6.466721E2,9.945705E2,8.074712E2,2.4995453E0,6.242134E2,6.3128986E2,3.9842838E2,1.90604E2],"tree_param":{"num_deleted":"0","num_feature":"15","num_nodes":"15","size_leaf_vector":"1"}},{"base_weights":[4.599849E-3,-1.5505628E-1,5.202591E-2,-2.4119604E-1,-1.10299066E-1,6.70257E-2,-6.53481E-2,-8.011904E-3,-1.6131023E-2,-4.46869E-3,-1.6013296E-2,2.662876E-3,7.956622E-3,6.589365E-3,-6.9394256E-3],"categories":[],"categories_nodes":[],"categories_segments":[],"categories_sizes":[],"default_left":[0,0,0,0,0,0,0,0,0,0,0,0,0,0,0],"id":37,"left_children":[1,3,5,7,9,11,13,-1,-1,-1,-1,-1,-1,-1,-1],"loss_changes":[2.5497675E1,2.9467258E0,4.575112E0,1.6810455E0,2.2093039E0,2.9113684E0,4.2846565E0,0E0,0E0,0E0,0E0,0E0,0E0,0E0,0E0],"parents":[2147483647,0,0,1,1,2,2,3,3,4,4,5,5,6,6],"right_children":[2,4,6,8,10,12,14,-1,-1,-1,-1,-1,-1,-1,-1],"split_conditions":[2.1708044E-1,1.599413E-1,1.6517135E0,1.10106066E-1,7.375341E-1,3.1233218E-1,1.9060025E-1,-8.011904E-3,-1.6131023E-2,-4.46869E-3,-1.6013296E-2,2.662876E-3,7.956622E-3,6.589365E-3,-6.9394256E-3],"split_indices":[1,1,7,5,12,1,3,0,0,0,0,0,0,0,0],"split_type":[0,0,0,0,0,0,0,0,0,0,0,0,0,0,0],"sum_hessian":[3.3653599E3,7.7021655E2,2.5951433E3,2.6185712E2,5.0835944E2,2.3014578E3,2.9368533E2,1.327929E2,1.2906424E2,4.6358435E2,4.4775078E1,2.0035448E3,2.9791306E2,7.949721E1,2.1418814E2],"tree_param":{"num_deleted":"0","num_feature":"15","num_nodes":"15","size_leaf_vector":"1"}},{"base_weights":[-3.1736563E-3,-2.2641774E-1,2.1133631E-1,-3.5791332E-1,-1.3706556E-1,8.8102736E-2,3.8129464E-1,-2.029112E-2,-1.3206996E-2,-9.64168E-3,-4.3642325E-3,-1.0092538E-3,7.242617E-3,1.574033E-2,2.6781593E-2],"categories":[],"categories_nodes":[],"categories_segments":[],"categories_sizes":[],"default_left":[0,0,0,0,0,0,0,0,0,0,0,0,0,0,0],"id":38,"left_children":[1,3,5,7,9,11,13,-1,-1,-1,-1,-1,-1,-1,-1],"loss_changes":[1.828267E2,2.1931786E1,4.0745277E1,3.290474E0,3.0800571E0,6.9467163E0,8.225899E0,0E0,0E0,0E0,0E0,0E0,0E0,0E0,0E0],"parents":[2147483647,0,0,1,1,2,2,3,3,4,4,5,5,6,6],"right_children":[2,4,6,8,10,12,14,-1,-1,-1,-1,-1,-1,-1,-1],"split_conditions":[-1.6235235E-1,-8.832407E-1,4.8289943E-1,1.3301998E-1,2.5374833E-1,3.7711582E-1,6.5941364E-1,-2.029112E-2,-1.3206996E-2,-9.64168E-3,-4.3642325E-3,-1.0092538E-3,7.242617E-3,1.574033E-2,2.6781593E-2],"split_indices":[8,8,8,2,5,11,11,0,0,0,0,0,0,0,0],"split_type":[0,0,0,0,0,0,0,0,0,0,0,0,0,0,0],"sum_hessian":[3.815792E3,1.8698024E3,1.9459897E3,7.55282E2,1.1145204E3,1.1289371E3,8.170527E2,4.9768555E2,2.5759647E2,5.242951E2,5.902253E2,3.8841675E2,7.405203E2,5.731716E2,2.4388107E2],"tree_param":{"num_deleted":"0","num_feature":"15","num_nodes":"15","size_leaf_vector":"1"}},{"base_weights":[1.6406039E-4,2.3730384E-1,-1.815292E-1,4.0780428E-1,1.5494639E-1,-5.470138E-2,-3.1707597E-1,3.0399326E-2,1.934558E-2,5.564391E-3,1.1315809E-2,-7.6086456E-3,-5.9992995E-4,-2.0680273E-2,-1.2362636E-2],"categories":[],"categories_nodes":[],"categories_segments":[],"categories_sizes":[],"default_left":[0,0,0,0,0,0,0,0,0,0,0,0,0,0,0],"id":39,"left_children":[1,3,5,7,9,11,13,-1,-1,-1,-1,-1,-1,-1,-1],"loss_changes":[1.8466806E2,2.6044899E1,4.169992E1,2.2949524E0,3.886259E0,5.221319E0,7.8024826E0,0E0,0E0,0E0,0E0,0E0,0E0,0E0,0E0],"parents":[2147483647,0,0,1,1,2,2,3,3,4,4,5,5,6,6],"right_children":[2,4,6,8,10,12,14,-1,-1,-1,-1,-1,-1,-1,-1],"split_conditions":[1.0929798E0,1.24474406E-1,3.9924297E-1,1.126281E-1,1.7789986E0,1.2738297E0,2.4841803E-1,3.0399326E-2,1.934558E-2,5.564391E-3,1.1315809E-2,-7.6086456E-3,-5.9992995E-4,-2.0680273E-2,-1.2362636E-2],"split_indices":[7,2,2,1,6,6,1,0,0,0,0,0,0,0,0],"split_type":[0,0,0,0,0,0,0,0,0,0,0,0,0,0,0],"sum_hessian":[4.2839653E3,1.858287E3,2.4256782E3,6.0396906E2,1.2543179E3,1.2538682E3,1.1718102E3,5.442255E1,5.495465E2,7.798344E2,4.7448352E2,3.8119812E2,8.7267004E2,4.8977747E2,6.820327E2],"tree_param":{"num_deleted":"0","num_feature":"15","num_nodes":"15","size_leaf_vector":"1"}},{"base_weights":[7.0826844E-3,5.314815E-2,-1.5398847E-1,7.024506E-2,-7.282929E-2,-1.3352141E-1,-3.5790202E-1,1.435957E-3,5.7512163E-3,2.3532566E-2,-4.784202E-3,-4.4022677E-3,-1.0675198E-2,-2.067619E-2,1.0939641E-2],"categories":[],"categories_nodes":[],"categories_segments":[],"categories_sizes":[],"default_left":[0,0,0,0,0,0,0,0,0,0,0,0,0,0,0],"id":40,"left_children":[1,3,5,7,9,11,13,-1,-1,-1,-1,-1,-1,-1,-1],"loss_changes":[2.5017931E1,5.65202E0,3.0817833E0,4.290311E0,3.942626E0,2.4656935E0,2.2654276E0,0E0,0E0,0E0,0E0,0E0,0E0,0E0,0E0],"parents":[2147483647,0,0,1,1,2,2,3,3,4,4,5,5,6,6],"right_children":[2,4,6,8,10,12,14,-1,-1,-1,-1,-1,-1,-1,-1],"split_conditions":[6.395315E-1,1.6661398E0,2.8891933E0,2.7623138E-1,1.960431E-1,1.3841009E-1,9.1438776E-1,1.435957E-3,5.7512163E-3,2.3532566E-2,-4.784202E-3,-4.4022677E-3,-1.0675198E-2,-2.067619E-2,1.0939641E-2],"split_indices":[11,7,6,4,4,2,7,0,0,0,0,0,0,0,0],"split_type":[0,0,0,0,0,0,0,0,0,0,0,0,0,0,0],"sum_hessian":[3.3696687E3,2.6208035E3,7.488653E2,2.3080156E3,3.127877E2,6.820608E2,6.680453E1,1.198361E3,1.1096548E3,1.1832016E1,3.009557E2,4.361677E2,2.458931E2,6.1186115E1,5.618412E0],"tree_param":{"num_deleted":"0","num_feature":"15","num_nodes":"15","size_leaf_vector":"1"}},{"base_weights":[3.4619295E-3,-1.7515877E-1,2.787388E-1,-3.3337867E-1,-7.3574364E-2,1.5908642E-1,4.1931838E-1,-1.9894548E-2,-1.2851615E-2,-2.4487966E-4,-6.1115543E-3,9.619674E-3,-1.1110189E-3,1.7395204E-2,2.7184147E-2],"categories":[],"categories_nodes":[],"categories_segments":[],"categories_sizes":[],"default_left":[0,0,0,0,0,0,0,0,0,0,0,0,0,0,0],"id":41,"left_children":[1,3,5,7,9,11,13,-1,-1,-1,-1,-1,-1,-1,-1],"loss_changes":[1.8682266E2,3.701201E1,2.5083656E1,4.3339844E0,4.693007E0,4.891672E0,5.9112167E0,0E0,0E0,0E0,0E0,0E0,0E0,0E0,0E0],"parents":[2147483647,0,0,1,1,2,2,3,3,4,4,5,5,6,6],"right_children":[2,4,6,8,10,12,14,-1,-1,-1,-1,-1,-1,-1,-1],"split_conditions":[3.6220324E-1,1.8477656E-1,1.6764892E0,-1.1627741E0,4.1313925E-1,1.2569567E0,6.5941364E-1,-1.9894548E-2,-1.2851615E-2,-2.4487966E-4,-6.1115543E-3,9.619674E-3,-1.1110189E-3,1.7395204E-2,2.7184147E-2],"split_indices":[2,2,7,8,11,6,11,0,0,0,0,0,0,0,0],"split_type":[0,0,0,0,0,0,0,0,0,0,0,0,0,0,0],"sum_hessian":[3.797521E3,2.3033167E3,1.4942043E3,8.9971277E2,1.403604E3,8.083338E2,6.8587054E2,4.8536786E2,4.1434488E2,5.8251337E2,8.2109064E2,6.8283264E2,1.25501205E2,4.380977E2,2.4777287E2],"tree_param":{"num_deleted":"0","num_feature":"15","num_nodes":"15","size_leaf_vector":"1"}},{"base_weights":[4.312554E-3,1.9984551E-1,-1.9501878E-1,1.3003916E-1,3.984806E-1,-3.3835635E-1,-1.0741088E-1,9.000472E-3,2.3008918E-3,2.1159636E-2,1.1874117E-2,-1.7600242E-2,-4.574617E-3,-7.1281022E-3,-1.515982E-3],"categories":[],"categories_nodes":[],"categories_segments":[],"categories_sizes":[],"default_left":[0,0,0,0,0,0,0,0,0,0,0,0,0,0,0],"id":42,"left_children":[1,3,5,7,9,11,13,-1,-1,-1,-1,-1,-1,-1,-1],"loss_changes":[1.6791675E2,3.0104263E1,2.6753868E1,6.7545986E0,2.1476593E0,2.6930008E0,3.587778E0,0E0,0E0,0E0,0E0,0E0,0E0,0E0,0E0],"parents":[2147483647,0,0,1,1,2,2,3,3,4,4,5,5,6,6],"right_children":[2,4,6,8,10,12,14,-1,-1,-1,-1,-1,-1,-1,-1],"split_conditions":[-2.627185E-1,2.1717975E0,1.1061833E0,2.7505407E-1,1.9084257E-1,3.1665498E-1,4.0395135E-1,9.000472E-3,2.3008918E-3,2.1159636E-2,1.1874117E-2,-1.7600242E-2,-4.574617E-3,-7.1281022E-3,-1.515982E-3],"split_indices":[8,6,6,1,5,4,3,0,0,0,0,0,0,0,0],"split_type":[0,0,0,0,0,0,0,0,0,0,0,0,0,0,0],"sum_hessian":[4.306226E3,2.1738235E3,2.1324026E3,1.6097599E3,5.6406354E2,8.078295E2,1.3245731E3,1.0087064E3,6.010535E2,4.8759283E2,7.647072E1,7.65103E2,4.272651E1,9.091707E2,4.1540237E2],"tree_param":{"num_deleted":"0","num_feature":"15","num_nodes":"15","size_leaf_vector":"1"}},{"base_weights":[1.1369718E-2,5.064873E-2,-1.2628764E-1,2.8315565E-2,1.2800333E-1,-1.3560933E-1,4.510769E-1,4.549093E-3,2.9529232E-4,8.932642E-3,-4.2031435E-4,-1.730094E-2,-5.925133E-3,4.229814E-2,6.7780697E-4],"categories":[],"categories_nodes":[],"categories_segments":[],"categories_sizes":[],"default_left":[0,0,0,0,0,0,0,0,0,0,0,0,0,0,0],"id":43,"left_children":[1,3,5,7,9,11,13,-1,-1,-1,-1,-1,-1,-1,-1],"loss_changes":[1.8250051E1,4.532539E0,4.0939665E0,2.8625894E0,4.063794E0,2.6159792E0,2.0854015E0,0E0,0E0,0E0,0E0,0E0,0E0,0E0,0E0],"parents":[2147483647,0,0,1,1,2,2,3,3,4,4,5,5,6,6],"right_children":[2,4,6,8,10,12,14,-1,-1,-1,-1,-1,-1,-1,-1],"split_conditions":[6.395315E-1,2.9671448E-1,2.915726E-1,4.207631E-1,3.733084E-1,-2.1595511E0,1.3301998E-1,4.549093E-3,2.9529232E-4,8.932642E-3,-4.2031435E-4,-1.730094E-2,-5.925133E-3,4.229814E-2,6.7780697E-4],"split_indices":[11,4,4,12,5,8,2,0,0,0,0,0,0,0,0],"split_type":[0,0,0,0,0,0,0,0,0,0,0,0,0,0,0],"sum_hessian":[3.373053E3,2.6247434E3,7.483096E2,2.0377792E3,5.8696423E2,7.3717285E2,1.1136713E1,5.3596173E2,1.5018174E3,4.2780765E2,1.5915659E2,5.3981506E1,6.8319135E2,5.362885E0,5.773828E0],"tree_param":{"num_deleted":"0","num_feature":"15","num_nodes":"15","size_leaf_vector":"1"}},{"base_weights":[-5.60208E-3,-2.0384818E-1,2.0255686E-1,-3.911046E-1,-1.4176069E-1,8.482327E-2,3.4432602E-1,-2.5644196E-2,-1.783958E-2,-9.7957365E-3,-2.938323E-3,-1.8731149E-2,4.860425E-3,2.4183512E-2,1.4027908E-2],"categories":[],"categories_nodes":[],"categories_segments":[],"categories_sizes":[],"default_left":[0,0,0,0,0,0,0,0,0,0,0,0,0,0,0],"id":44,"left_children":[1,3,5,7,9,11,13,-1,-1,-1,-1,-1,-1,-1,-1],"loss_changes":[1.5609912E2,2.2470055E1,3.0769432E1,1.8305435E0,6.535124E0,5.7802134E0,7.3001175E0,0E0,0E0,0E0,0E0,0E0,0E0,0E0,0E0],"parents":[2147483647,0,0,1,1,2,2,3,3,4,4,5,5,6,6],"right_children":[2,4,6,8,10,12,14,-1,-1,-1,-1,-1,-1,-1,-1],"split_conditions":[1.219442E0,-1.1627741E0,1.5846345E0,1.5774184E-1,1.0846535E0,-3.2532245E-1,1.4230715E-1,-2.5644196E-2,-1.783958E-2,-9.7957365E-3,-2.938323E-3,-1.8731149E-2,4.860425E-3,2.4183512E-2,1.4027908E-2],"split_indices":[7,8,7,4,7,8,0,0,0,0,0,0,0,0,0],"split_type":[0,0,0,0,0,0,0,0,0,0,0,0,0,0,0],"sum_hessian":[3.7806887E3,1.9364634E3,1.8442253E3,4.8086655E2,1.4555968E3,1.0083934E3,8.3583203E2,1.02640526E2,3.7822604E2,8.8002E2,5.755768E2,2.5701853E1,9.826915E2,2.6034543E2,5.754866E2],"tree_param":{"num_deleted":"0","num_feature":"15","num_nodes":"15","size_leaf_vector":"1"}},{"base_weights":[-8.510422E-3,1.6794519E-1,-2.127067E-1,8.057959E-2,3.380313E-1,-3.3420637E-1,-1.2873214E-1,8.33355E-3,2.2018666E-3,7.903091E-3,1.8487819E-2,-2.072363E-2,-1.4037055E-2,1.5220663E-3,-7.505342E-3],"categories":[],"categories_nodes":[],"categories_segments":[],"categories_sizes":[],"default_left":[0,0,0,0,0,0,0,0,0,0,0,0,0,0,0],"id":45,"left_children":[1,3,5,7,9,11,13,-1,-1,-1,-1,-1,-1,-1,-1],"loss_changes":[1.536703E2,3.396978E1,2.012822E1,4.751893E0,4.372566E0,3.3483734E0,3.9874954E0,0E0,0E0,0E0,0E0,0E0,0E0,0E0,0E0],"parents":[2147483647,0,0,1,1,2,2,3,3,4,4,5,5,6,6],"right_children":[2,4,6,8,10,12,14,-1,-1,-1,-1,-1,-1,-1,-1],"split_conditions":[-1.9863328E-1,6.412803E-1,1.1061833E0,2.5435308E-1,5.6157666E-1,2.2821468E-1,2.718963E-1,8.33355E-3,2.2018666E-3,7.903091E-3,1.8487819E-2,-2.072363E-2,-1.4037055E-2,1.5220663E-3,-7.505342E-3],"split_indices":[8,0,6,1,3,1,5,0,0,0,0,0,0,0,0],"split_type":[0,0,0,0,0,0,0,0,0,0,0,0,0,0,0],"sum_hessian":[4.262887E3,2.2868713E3,1.9760155E3,1.5118009E3,7.750705E2,8.063533E2,1.1696624E3,4.4942383E2,1.0623771E3,1.1705049E2,6.5802E2,3.196771E2,4.8667615E2,1.3842339E2,1.0312389E3],"tree_param":{"num_deleted":"0","num_feature":"15","num_nodes":"15","size_leaf_vector":"1"}},{"base_weights":[5.4812552E-3,4.5074932E-2,-1.3550442E-1,9.200354E-3,1.0736757E-1,-3.633141E-1,-1.1400337E-1,2.6891718E-4,2.6401365E-2,6.8676113E-3,-8.0251975E-6,-1.5590966E-2,-2.8167253E-2,-4.2031184E-3,-1.3138068E-2],"categories":[],"categories_nodes":[],"categories_segments":[],"categories_sizes":[],"default_left":[0,0,0,0,0,0,0,0,0,0,0,0,0,0,0],"id":46,"left_children":[1,3,5,7,9,11,13,-1,-1,-1,-1,-1,-1,-1,-1],"loss_changes":[1.8775408E1,5.86717E0,3.5708818E0,3.3035033E0,3.0937157E0,4.7476387E-1,2.9858437E0,0E0,0E0,0E0,0E0,0E0,0E0,0E0,0E0],"parents":[2147483647,0,0,1,1,2,2,3,3,4,4,5,5,6,6],"right_children":[2,4,6,8,10,12,14,-1,-1,-1,-1,-1,-1,-1,-1],"split_conditions":[6.395315E-1,2.8370845E-1,6.918896E-2,6.7774135E-1,3.9472672E-1,6.621877E-2,1.3079602E0,2.6891718E-4,2.6401365E-2,6.8676113E-3,-8.0251975E-6,-1.5590966E-2,-2.8167253E-2,-4.2031184E-3,-1.3138068E-2],"split_indices":[11,4,2,5,5,2,8,0,0,0,0,0,0,0,0],"split_type":[0,0,0,0,0,0,0,0,0,0,0,0,0,0,0],"sum_hessian":[3.3613838E3,2.624901E3,7.3648303E2,1.666376E3,9.585249E2,6.2144737E1,6.743383E2,1.6551931E3,1.1182843E1,7.493016E2,2.092233E2,5.145685E1,1.0687887E1,5.626559E2,1.11682465E2],"tree_param":{"num_deleted":"0","num_feature":"15","num_nodes":"15","size_leaf_vector":"1"}},{"base_weights":[-5.6750316E-4,-2.1494666E-1,1.8111722E-1,-3.1248683E-1,-1.1660224E-1,8.5902795E-2,3.6429128E-1,-1.9034646E-2,-1.2360215E-2,4.6299066E-2,-6.034928E-3,5.5395397E-3,-5.81329E-3,1.544866E-2,2.527525E-2],"categories":[],"categories_nodes":[],"categories_segments":[],"categories_sizes":[],"default_left":[0,0,0,0,0,0,0,0,0,0,0,0,0,0,0],"id":47,"left_children":[1,3,5,7,9,11,13,-1,-1,-1,-1,-1,-1,-1,-1],"loss_changes":[1.468395E2,1.6552856E1,3.555858E1,3.7692642E0,3.7963228E0,6.7752514E0,5.293396E0,0E0,0E0,0E0,0E0,0E0,0E0,0E0,0E0],"parents":[2147483647,0,0,1,1,2,2,3,3,4,4,5,5,6,6],"right_children":[2,4,6,8,10,12,14,-1,-1,-1,-1,-1,-1,-1,-1],"split_conditions":[-1.9863328E-1,1.8477656E-1,1.6764892E0,1.4813077E-1,2.5315848E-1,3.1971335E-1,1.2644887E0,-1.9034646E-2,-1.2360215E-2,4.6299066E-2,-6.034928E-3,5.5395397E-3,-5.81329E-3,1.544866E-2,2.527525E-2],"split_indices":[8,2,7,5,3,1,8,0,0,0,0,0,0,0,0],"split_type":[0,0,0,0,0,0,0,0,0,0,0,0,0,0,0],"sum_hessian":[3.7680056E3,1.7283975E3,2.0396082E3,8.666537E2,8.617438E2,1.3429879E3,6.966202E2,4.2147354E2,4.4518015E2,2.4917684E0,8.59252E2,1.1961836E3,1.4680437E2,5.028322E2,1.9378798E2],"tree_param":{"num_deleted":"0","num_feature":"15","num_nodes":"15","size_leaf_vector":"1"}},{"base_weights":[-1.9600613E-3,1.6742222E-1,-2.040006E-1,1.0788685E-1,3.5252059E-1,-1.3382138E-1,-3.7770054E-1,8.512883E-3,2.2087232E-3,1.628675E-2,2.7377484E-2,-8.7327575E-3,-1.4123812E-3,-1.9810174E-2,-1.0179414E-2],"categories":[],"categories_nodes":[],"categories_segments":[],"categories_sizes":[],"default_left":[0,0,0,0,0,0,0,0,0,0,0,0,0,0,0],"id":48,"left_children":[1,3,5,7,9,11,13,-1,-1,-1,-1,-1,-1,-1,-1],"loss_changes":[1.4495288E2,2.5352333E1,2.3495987E1,6.92581E0,2.7485657E0,5.932623E0,1.7082672E0,0E0,0E0,0E0,0E0,0E0,0E0,0E0,0E0],"parents":[2147483647,0,0,1,1,2,2,3,3,4,4,5,5,6,6],"right_children":[2,4,6,8,10,12,14,-1,-1,-1,-1,-1,-1,-1,-1],"split_conditions":[2.9505065E-1,2.1717975E0,5.304361E-1,2.687421E-1,8.227576E-1,3.9586306E-1,2.8554374E-1,8.512883E-3,2.2087232E-3,1.628675E-2,2.7377484E-2,-8.7327575E-3,-1.4123812E-3,-1.9810174E-2,-1.0179414E-2],"split_indices":[2,6,11,1,11,3,4,0,0,0,0,0,0,0,0],"split_type":[0,0,0,0,0,0,0,0,0,0,0,0,0,0,0],"sum_hessian":[4.2336543E3,2.3030476E3,1.9306067E3,1.7437633E3,5.5928436E2,1.3763118E3,5.542949E2,8.803138E2,8.634495E2,4.9409473E2,6.518959E1,9.9197986E2,3.8433197E2,4.9989545E2,5.4399475E1],"tree_param":{"num_deleted":"0","num_feature":"15","num_nodes":"15","size_leaf_vector":"1"}},{"base_weights":[4.594475E-3,-1.3050918E-1,4.218121E-2,-3.6403218E-1,-1.07938714E-1,9.055946E-3,9.975717E-2,-1.2075914E-2,-2.2580037E-2,-5.672637E-3,1.9539395E-2,2.2509782E-2,1.7175921E-4,3.8444072E-3,1.279402E-2],"categories":[],"categories_nodes":[],"categories_segments":[],"categories_sizes":[],"default_left":[0,0,0,0,0,0,0,0,0,0,0,0,0,0,0],"id":49,"left_children":[1,3,5,7,9,11,13,-1,-1,-1,-1,-1,-1,-1,-1],"loss_changes":[1.7078833E1,3.819025E0,5.0172124E0,5.785637E-1,1.8838944E0,4.142508E0,3.4108171E0,0E0,0E0,0E0,0E0,0E0,0E0,0E0,0E0],"parents":[2147483647,0,0,1,1,2,2,3,3,4,4,5,5,6,6],"right_children":[2,4,6,8,10,12,14,-1,-1,-1,-1,-1,-1,-1,-1],"split_conditions":[2.147058E-1,6.918896E-2,2.8370845E-1,7.694077E-1,8.064575E-1,1.2841696E-1,1.5536124E0,-1.2075914E-2,-2.2580037E-2,-5.672637E-3,1.9539395E-2,2.2509782E-2,1.7175921E-4,3.8444072E-3,1.279402E-2],"split_indices":[1,2,4,7,0,3,6,0,0,0,0,0,0,0,0],"split_type":[0,0,0,0,0,0,0,0,0,0,0,0,0,0,0],"sum_hessian":[3.3611453E3,7.3102826E2,2.6301172E3,6.309488E1,6.679334E2,1.6702988E3,9.5981824E2,2.7866268E1,3.522861E1,6.6139343E2,6.53998E0,2.001918E1,1.6502797E3,8.3848846E2,1.2132982E2],"tree_param":{"num_deleted":"0","num_feature":"15","num_nodes":"15","size_leaf_vector":"1"}},{"base_weights":[-4.8900917E-3,-1.8099917E-1,2.0622481E-1,-3.1272838E-1,-8.292896E-2,3.4052294E-1,1.07592985E-1,-1.9119969E-2,-1.1915441E-2,-1.9851793E-3,-7.751029E-3,1.4750749E-2,2.3945544E-2,6.951985E-3,-1.4681013E-3],"categories":[],"categories_nodes":[],"categories_segments":[],"categories_sizes":[],"default_left":[0,0,0,0,0,0,0,0,0,0,0,0,0,0,0],"id":50,"left_children":[1,3,5,7,9,11,13,-1,-1,-1,-1,-1,-1,-1,-1],"loss_changes":[1.3952834E2,2.6406342E1,2.2571823E1,4.4343414E0,3.652957E0,4.407379E0,4.248582E0,0E0,0E0,0E0,0E0,0E0,0E0,0E0,0E0],"parents":[2147483647,0,0,1,1,2,2,3,3,4,4,5,5,6,6],"right_children":[2,4,6,8,10,12,14,-1,-1,-1,-1,-1,-1,-1,-1],"split_conditions":[3.3009824E-1,2.55344E-1,2.2054482E-1,-1.180474E0,2.8676432E-1,1.3079602E0,1.2871009E0,-1.9119969E-2,-1.1915441E-2,-1.9851793E-3,-7.751029E-3,1.4750749E-2,2.3945544E-2,6.951985E-3,-1.4681013E-3],"split_indices":[2,1,0,8,4,8,6,0,0,0,0,0,0,0,0],"split_type":[0,0,0,0,0,0,0,0,0,0,0,0,0,0,0],"sum_hessian":[3.750851E3,2.0450455E3,1.7058054E3,8.7181854E2,1.173227E3,7.212676E2,9.845379E2,4.4813733E2,4.236812E2,7.3442456E2,4.3880246E2,5.451352E2,1.761324E2,8.006766E2,1.8386131E2],"tree_param":{"num_deleted":"0","num_feature":"15","num_nodes":"15","size_leaf_vector":"1"}},{"base_weights":[-1.2183724E-3,1.7422692E-1,-1.8347926E-1,3.4088054E-1,1.0384601E-1,-3.137941E-1,-1.0481614E-1,1.5499038E-2,2.5366724E-2,8.612193E-3,2.5732466E-3,-2.0966535E-2,-1.3347189E-2,-3.9539314E-3,-1.13402335E-2],"categories":[],"categories_nodes":[],"categories_segments":[],"categories_sizes":[],"default_left":[0,0,0,0,0,0,0,0,0,0,0,0,0,0,0],"id":51,"left_children":[1,3,5,7,9,11,13,-1,-1,-1,-1,-1,-1,-1,-1],"loss_changes":[1.3447054E2,2.509674E1,2.111036E1,3.1127853E0,5.393629E0,3.7243576E0,4.0249567E0,0E0,0E0,0E0,0E0,0E0,0E0,0E0,0E0],"parents":[2147483647,0,0,1,1,2,2,3,3,4,4,5,5,6,6],"right_children":[2,4,6,8,10,12,14,-1,-1,-1,-1,-1,-1,-1,-1],"split_conditions":[-2.627185E-1,1.2819816E-1,1.1061833E0,7.8855383E-1,-7.04354E-1,1.4996444E-1,1.5344514E0,1.5499038E-2,2.5366724E-2,8.612193E-3,2.5732466E-3,-2.0966535E-2,-1.3347189E-2,-3.9539314E-3,-1.13402335E-2],"split_indices":[8,2,6,3,8,0,7,0,0,0,0,0,0,0,0],"split_type":[0,0,0,0,0,0,0,0,0,0,0,0,0,0,0],"sum_hessian":[4.2032515E3,2.141692E3,2.0615598E3,6.347756E2,1.5069163E3,7.748837E2,1.286676E3,5.378024E2,9.6973114E1,6.5254785E2,8.543684E2,2.3578833E2,5.390954E2,1.0638665E3,2.2280956E2],"tree_param":{"num_deleted":"0","num_feature":"15","num_nodes":"15","size_leaf_vector":"1"}},{"base_weights":[4.474806E-3,3.5707433E-2,-1.2213375E-1,1.384598E-2,1.1371037E-1,-3.7869143E-1,-1.0032088E-1,1.2105556E-2,3.057818E-4,1.2776199E-2,3.3398464E-3,-2.1427931E-2,2.5582025E-2,1.6730195E-3,-6.7668543E-3],"categories":[],"categories_nodes":[],"categories_segments":[],"categories_sizes":[],"default_left":[0,0,0,0,0,0,0,0,0,0,0,0,0,0,0],"id":52,"left_children":[1,3,5,7,9,11,13,-1,-1,-1,-1,-1,-1,-1,-1],"loss_changes":[1.3268608E1,4.5879602E0,3.6777458E0,3.7100456E0,3.9017925E0,2.5132213E0,2.877542E0,0E0,0E0,0E0,0E0,0E0,0E0,0E0,0E0],"parents":[2147483647,0,0,1,1,2,2,3,3,4,4,5,5,6,6],"right_children":[2,4,6,8,10,12,14,-1,-1,-1,-1,-1,-1,-1,-1],"split_conditions":[6.5203834E-1,2.9671448E-1,-2.1595511E0,1.9979279E-1,2.7979928E-1,9.1438776E-1,9.7113475E-2,1.2105556E-2,3.057818E-4,1.2776199E-2,3.3398464E-3,-2.1427931E-2,2.5582025E-2,1.6730195E-3,-6.7668543E-3],"split_indices":[11,4,8,4,5,7,5,0,0,0,0,0,0,0,0],"split_type":[0,0,0,0,0,0,0,0,0,0,0,0,0,0,0],"sum_hessian":[3.3533704E3,2.690402E3,6.62968E2,2.1023623E3,5.880399E2,5.0667553E1,6.123005E2,6.7872505E1,2.0344897E3,1.4506859E2,4.4297134E2,4.8471344E1,2.19621E0,1.27027916E2,4.8527258E2],"tree_param":{"num_deleted":"0","num_feature":"15","num_nodes":"15","size_leaf_vector":"1"}},{"base_weights":[-6.260507E-3,-2.0034319E-1,1.688838E-1,-3.3496603E-1,-1.1378218E-1,6.5884456E-2,3.0387318E-1,-1.7209768E-2,4.3300497E-3,-7.930367E-3,-2.8433602E-3,-3.35189E-3,5.2904235E-3,1.2260473E-2,2.2224564E-2],"categories":[],"categories_nodes":[],"categories_segments":[],"categories_sizes":[],"default_left":[0,0,0,0,0,0,0,0,0,0,0,0,0,0,0],"id":53,"left_children":[1,3,5,7,9,11,13,-1,-1,-1,-1,-1,-1,-1,-1],"loss_changes":[1.2768266E2,2.0724854E1,2.7432411E1,2.7408142E0,2.7615423E0,5.95709E0,6.9378586E0,0E0,0E0,0E0,0E0,0E0,0E0,0E0,0E0],"parents":[2147483647,0,0,1,1,2,2,3,3,4,4,5,5,6,6],"right_children":[2,4,6,8,10,12,14,-1,-1,-1,-1,-1,-1,-1,-1],"split_conditions":[-1.6235235E-1,-8.832407E-1,1.5846345E0,1.0929798E0,1.0813419E0,3.6619353E-1,6.5941364E-1,-1.7209768E-2,4.3300497E-3,-7.930367E-3,-2.8433602E-3,-3.35189E-3,5.2904235E-3,1.2260473E-2,2.2224564E-2],"split_indices":[8,8,7,7,7,11,11,0,0,0,0,0,0,0,0],"split_type":[0,0,0,0,0,0,0,0,0,0,0,0,0,0,0],"sum_hessian":[3.7542083E3,1.7807555E3,1.9734528E3,6.957813E2,1.0849741E3,1.1202046E3,8.532482E2,6.810546E2,1.4726705E1,6.059515E2,4.7902267E2,2.5858786E2,8.616167E2,6.040087E2,2.4923949E2],"tree_param":{"num_deleted":"0","num_feature":"15","num_nodes":"15","size_leaf_vector":"1"}},{"base_weights":[-2.2500515E-4,2.017333E-1,-1.4832017E-1,3.3171043E-1,1.3073727E-1,-5.674014E-2,-2.6916668E-1,1.4945814E-2,2.5735376E-2,7.555555E-3,-5.159555E-3,-7.1179653E-3,-5.1919516E-4,-1.036198E-2,-1.8412197E-2],"categories":[],"categories_nodes":[],"categories_segments":[],"categories_sizes":[],"default_left":[0,0,0,0,0,0,0,0,0,0,0,0,0,0,0],"id":54,"left_children":[1,3,5,7,9,11,13,-1,-1,-1,-1,-1,-1,-1,-1],"loss_changes":[1.2538484E2,1.6322914E1,2.6752018E1,3.6022263E0,5.490263E0,5.464575E0,6.319641E0,0E0,0E0,0E0,0E0,0E0,0E0,0E0,0E0],"parents":[2147483647,0,0,1,1,2,2,3,3,4,4,5,5,6,6],"right_children":[2,4,6,8,10,12,14,-1,-1,-1,-1,-1,-1,-1,-1],"split_conditions":[1.0846535E0,1.2819816E-1,2.4007766E-1,7.8855383E-1,3.1837603E-1,1.2871009E0,5.8143127E-1,1.4945814E-2,2.5735376E-2,7.555555E-3,-5.159555E-3,-7.1179653E-3,-5.1919516E-4,-1.036198E-2,-1.8412197E-2],"split_indices":[7,2,8,3,5,6,2,0,0,0,0,0,0,0,0],"split_type":[0,0,0,0,0,0,0,0,0,0,0,0,0,0,0],"sum_hessian":[4.190204E3,1.772573E3,2.417631E3,6.2488403E2,1.147689E3,1.3761927E3,1.0414384E3,5.321526E2,9.273143E1,1.0560657E3,9.162322E1,4.82659E2,8.935337E2,6.4277264E2,3.986657E2],"tree_param":{"num_deleted":"0","num_feature":"15","num_nodes":"15","size_leaf_vector":"1"}},{"base_weights":[1.1308158E-2,4.6860345E-2,-1.1621258E-1,2.2359634E-2,1.2923671E-1,-1.2666216E-1,2.5593308E-1,1.6161101E-2,9.396396E-4,7.7600437E-3,-4.793178E-3,-5.7957405E-3,-2.3321813E-2,4.4840183E-2,-9.996217E-4],"categories":[],"categories_nodes":[],"categories_segments":[],"categories_sizes":[],"default_left":[0,0,0,0,0,0,0,0,0,0,0,0,0,0,0],"id":55,"left_children":[1,3,5,7,9,11,13,-1,-1,-1,-1,-1,-1,-1,-1],"loss_changes":[1.5177287E1,5.2802205E0,2.87072E0,2.1603246E0,3.520792E0,2.5408354E0,3.6015468E0,0E0,0E0,0E0,0E0,0E0,0E0,0E0,0E0],"parents":[2147483647,0,0,1,1,2,2,3,3,4,4,5,5,6,6],"right_children":[2,4,6,8,10,12,14,-1,-1,-1,-1,-1,-1,-1,-1],"split_conditions":[6.3693184E-1,2.9671448E-1,2.8764E-1,1.2841696E-1,4.1985527E-1,2.7580714E-1,6.5203834E-1,1.6161101E-2,9.396396E-4,7.7600437E-3,-4.793178E-3,-5.7957405E-3,-2.3321813E-2,4.4840183E-2,-9.996217E-4],"split_indices":[11,4,4,3,8,4,11,0,0,0,0,0,0,0,0],"split_type":[0,0,0,0,0,0,0,0,0,0,0,0,0,0,0],"sum_hessian":[3.3455027E3,2.6166309E3,7.2887195E2,2.0177692E3,5.9886163E2,7.096064E2,1.92656E1,2.2591156E1,1.9951781E3,5.37208E2,6.1653633E1,6.891491E2,2.0457241E1,5.1210876E0,1.4144513E1],"tree_param":{"num_deleted":"0","num_feature":"15","num_nodes":"15","size_leaf_vector":"1"}},{"base_weights":[-4.350485E-3,2.4652044E-1,-1.3480553E-1,2.015846E-1,4.2861608E-1,-2.4293667E-1,-1.7345857E-2,-6.6269585E-3,1.0652993E-2,8.225574E-3,2.2695296E-2,-1.7937755E-2,-9.031246E-3,-9.952742E-5,-8.953429E-3],"categories":[],"categories_nodes":[],"categories_segments":[],"categories_sizes":[],"default_left":[0,0,0,0,0,0,0,0,0,0,0,0,0,0,0],"id":56,"left_children":[1,3,5,7,9,11,13,-1,-1,-1,-1,-1,-1,-1,-1],"loss_changes":[1.2158415E2,1.0313393E1,3.1038197E1,3.9440231E0,1.5995979E0,9.118622E0,2.9115262E0,0E0,0E0,0E0,0E0,0E0,0E0,0E0,0E0],"parents":[2147483647,0,0,1,1,2,2,3,3,4,4,5,5,6,6],"right_children":[2,4,6,8,10,12,14,-1,-1,-1,-1,-1,-1,-1,-1],"split_conditions":[3.0285043E-1,6.5941364E-1,1.0813419E0,2.0270506E-1,4.7139674E-1,1.3301998E-1,3.2068762E-1,-6.6269585E-3,1.0652993E-2,8.225574E-3,2.2695296E-2,-1.7937755E-2,-9.031246E-3,-9.952742E-5,-8.953429E-3],"split_indices":[0,11,7,4,12,2,1,0,0,0,0,0,0,0,0],"split_type":[0,0,0,0,0,0,0,0,0,0,0,0,0,0,0],"sum_hessian":[3.713044E3,1.2699613E3,2.4430825E3,1.0202906E3,2.4967068E2,1.2714977E3,1.1715848E3,3.3527355E1,9.8676324E2,2.247428E1,2.271964E2,4.4311868E2,8.28379E2,1.0709155E3,1.0066938E2],"tree_param":{"num_deleted":"0","num_feature":"15","num_nodes":"15","size_leaf_vector":"1"}},{"base_weights":[-1.1536323E-2,1.4840123E-1,-1.7880085E-1,8.9625016E-2,3.0271003E-1,-3.0680236E-1,-1.0251322E-1,7.285884E-3,1.5807598E-3,2.124644E-2,1.2744509E-2,-1.9185351E-2,-1.2379311E-2,-8.300973E-3,-2.184463E-3],"categories":[],"categories_nodes":[],"categories_segments":[],"categories_sizes":[],"default_left":[0,0,0,0,0,0,0,0,0,0,0,0,0,0,0],"id":57,"left_children":[1,3,5,7,9,11,13,-1,-1,-1,-1,-1,-1,-1,-1],"loss_changes":[1.1217534E2,1.941444E1,1.9982826E1,5.051094E0,3.3449059E0,3.3882751E0,4.7958164E0,0E0,0E0,0E0,0E0,0E0,0E0,0E0,0E0],"parents":[2147483647,0,0,1,1,2,2,3,3,4,4,5,5,6,6],"right_children":[2,4,6,8,10,12,14,-1,-1,-1,-1,-1,-1,-1,-1],"split_conditions":[1.1559645E0,6.7578137E-1,1.1061833E0,2.6756102E-1,1.6594833E-1,1.7126954E-1,1.2738297E0,7.285884E-3,1.5807598E-3,2.124644E-2,1.2744509E-2,-1.9185351E-2,-1.2379311E-2,-8.300973E-3,-2.184463E-3],"split_indices":[7,11,6,4,4,0,6,0,0,0,0,0,0,0,0],"split_type":[0,0,0,0,0,0,0,0,0,0,0,0,0,0,0],"sum_hessian":[4.1911836E3,2.1425757E3,2.048608E3,1.5527239E3,5.898517E2,7.6388275E2,1.2847252E3,7.886378E2,7.640861E2,1.6366583E2,4.2618588E2,3.2992532E2,4.339574E2,6.168995E2,6.6782574E2],"tree_param":{"num_deleted":"0","num_feature":"15","num_nodes":"15","size_leaf_vector":"1"}},{"base_weights":[5.007333E-3,-6.009998E-2,5.886058E-2,-1.9265044E-1,-3.5704777E-2,5.69484E-2,6.0071837E-2,-2.0990081E-2,-8.660729E-3,-2.2349327E-3,1.2159967E-2,2.3971412E-3,1.4207422E-2],"categories":[],"categories_nodes":[],"categories_segments":[],"categories_sizes":[],"default_left":[0,0,0,0,0,0,0,0,0,0,0,0,0],"id":58,"left_children":[1,3,5,7,9,11,-1,-1,-1,-1,-1,-1,-1],"loss_changes":[1.1715046E1,4.8842363E0,3.926721E0,9.6427727E-1,3.2184176E0,3.7237067E0,0E0,0E0,0E0,0E0,0E0,0E0,0E0],"parents":[2147483647,0,0,1,1,2,2,3,3,4,4,5,5],"right_children":[2,4,6,8,10,12,-1,-1,-1,-1,-1,-1,-1],"split_conditions":[2.6682714E-1,1.599413E-1,6.944942E-1,7.454158E-1,6.7774135E-1,3.289554E-1,6.0071837E-2,-2.0990081E-2,-8.660729E-3,-2.2349327E-3,1.2159967E-2,2.3971412E-3,1.4207422E-2],"split_indices":[1,1,12,11,5,4,0,0,0,0,0,0,0],"split_type":[0,0,0,0,0,0,0,0,0,0,0,0,0],"sum_hessian":[3.33919E3,1.5115933E3,1.8275967E3,2.3388585E2,1.2777074E3,1.8255913E3,2.0054126E0,1.681114E1,2.1707472E2,1.2386056E3,3.9101826E1,1.7571537E3,6.843769E1],"tree_param":{"num_deleted":"0","num_feature":"15","num_nodes":"13","size_leaf_vector":"1"}},{"base_weights":[-4.78426E-3,-1.9785996E-1,1.517638E-1,-3.0439976E-1,-1.2598825E-1,5.9530616E-2,2.896838E-1,-1.4171031E-2,-2.2195118E-2,4.5215838E-2,-6.476196E-3,-1.3878221E-3,4.8353444E-3,1.2437121E-2,2.1955881E-2],"categories":[],"categories_nodes":[],"categories_segments":[],"categories_sizes":[],"default_left":[0,0,0,0,0,0,0,0,0,0,0,0,0,0,0],"id":59,"left_children":[1,3,5,7,9,11,13,-1,-1,-1,-1,-1,-1,-1,-1],"loss_changes":[1.1223817E2,1.2693138E1,2.6068909E1,1.832386E0,3.7402306E0,3.99446E0,4.9169846E0,0E0,0E0,0E0,0E0,0E0,0E0,0E0,0E0],"parents":[2147483647,0,0,1,1,2,2,3,3,4,4,5,5,6,6],"right_children":[2,4,6,8,10,12,14,-1,-1,-1,-1,-1,-1,-1,-1],"split_conditions":[-2.062599E-1,-8.832407E-1,4.8289943E-1,7.701452E-1,2.5315848E-1,3.739997E-1,1.3079602E0,-1.4171031E-2,-2.2195118E-2,4.5215838E-2,-6.476196E-3,-1.3878221E-3,4.8353444E-3,1.2437121E-2,2.1955881E-2],"split_indices":[8,8,8,3,3,11,8,0,0,0,0,0,0,0,0],"split_type":[0,0,0,0,0,0,0,0,0,0,0,0,0,0,0],"sum_hessian":[3.7113516E3,1.6616823E3,2.0496694E3,6.680925E2,9.9358966E2,1.2291287E3,8.205408E2,5.8339075E2,8.470181E1,2.5267112E0,9.910629E2,3.6720728E2,8.619214E2,6.4616986E2,1.7437091E2],"tree_param":{"num_deleted":"0","num_feature":"15","num_nodes":"15","size_leaf_vector":"1"}},{"base_weights":[-2.8446637E-4,1.7429325E-1,-1.3596366E-1,2.9594016E-1,1.11839786E-1,-2.904097E-1,-6.0956586E-2,1.3317424E-2,2.3807278E-2,6.432444E-3,-2.503667E-3,-1.6279854E-2,-9.776379E-3,-6.487208E-3,-6.610661E-4],"categories":[],"categories_nodes":[],"categories_segments":[],"categories_sizes":[],"default_left":[0,0,0,0,0,0,0,0,0,0,0,0,0,0,0],"id":60,"left_children":[1,3,5,7,9,11,13,-1,-1,-1,-1,-1,-1,-1,-1],"loss_changes":[9.918945E1,1.3879654E1,2.7278965E1,3.1827316E0,3.3040924E0,2.5070877E0,5.2103405E0,0E0,0E0,0E0,0E0,0E0,0E0,0E0,0E0],"parents":[2147483647,0,0,1,1,2,2,3,3,4,4,5,5,6,6],"right_children":[2,4,6,8,10,12,14,-1,-1,-1,-1,-1,-1,-1,-1],"split_conditions":[1.0929798E0,1.2819816E-1,1.1061833E0,8.116747E-1,3.156724E-1,2.9165453E-1,3.568999E-1,1.3317424E-2,2.3807278E-2,6.432444E-3,-2.503667E-3,-1.6279854E-2,-9.776379E-3,-6.487208E-3,-6.610661E-4],"split_indices":[7,2,6,11,5,3,3,0,0,0,0,0,0,0,0],"split_type":[0,0,0,0,0,0,0,0,0,0,0,0,0,0,0],"sum_hessian":[4.185582E3,1.8302826E3,2.3552996E3,6.196294E2,1.2106532E3,7.689969E2,1.5863026E3,5.3435974E2,8.526966E1,1.0969756E3,1.1367762E2,5.591884E2,2.0980846E2,6.49148E2,9.3715466E2],"tree_param":{"num_deleted":"0","num_feature":"15","num_nodes":"15","size_leaf_vector":"1"}},{"base_weights":[5.6146462E-3,3.8092025E-2,-1.1107119E-1,5.070266E-2,-5.909986E-2,-8.8095106E-2,-3.0147102E-1,3.8382018E-3,-7.867122E-4,-4.4572144E-3,1.8851196E-2,4.2561903E-3,-5.337675E-3,1.2528306E-3,-1.6532078E-2],"categories":[],"categories_nodes":[],"categories_segments":[],"categories_sizes":[],"default_left":[0,0,0,0,0,0,0,0,0,0,0,0,0,0,0],"id":61,"left_children":[1,3,5,7,9,11,13,-1,-1,-1,-1,-1,-1,-1,-1],"loss_changes":[1.2742726E1,3.2267766E0,3.17626E0,4.033232E0,3.9978507E0,2.125101E0,7.5525665E-1,0E0,0E0,0E0,0E0,0E0,0E0,0E0,0E0],"parents":[2147483647,0,0,1,1,2,2,3,3,4,4,5,5,6,6],"right_children":[2,4,6,8,10,12,14,-1,-1,-1,-1,-1,-1,-1,-1],"split_conditions":[6.3693184E-1,1.6661398E0,8.0134153E-1,4.7846735E-1,2.1297357E0,5.0453615E-1,7.0706755E-1,3.8382018E-3,-7.867122E-4,-4.4572144E-3,1.8851196E-2,4.2561903E-3,-5.337675E-3,1.2528306E-3,-1.6532078E-2],"split_indices":[11,7,11,3,7,12,7,0,0,0,0,0,0,0,0],"split_type":[0,0,0,0,0,0,0,0,0,0,0,0,0,0,0],"sum_hessian":[3.3603906E3,2.629258E3,7.3113257E2,2.3277156E3,3.0154254E2,6.537102E2,7.742236E1,1.6717705E3,6.55945E2,2.8285254E2,1.8690018E1,6.32212E1,5.90489E2,6.360917E0,7.106145E1],"tree_param":{"num_deleted":"0","num_feature":"15","num_nodes":"15","size_leaf_vector":"1"}},{"base_weights":[-7.496691E-3,-1.8140341E-1,1.4762828E-1,-2.8295195E-1,-9.157507E-2,5.6882944E-2,2.7225325E-1,-1.7463434E-2,-1.1120505E-2,-2.6579103E-3,-8.635948E-3,4.718262E-3,-2.0976344E-3,1.1855463E-2,2.0137997E-2],"categories":[],"categories_nodes":[],"categories_segments":[],"categories_sizes":[],"default_left":[0,0,0,0,0,0,0,0,0,0,0,0,0,0,0],"id":62,"left_children":[1,3,5,7,9,11,13,-1,-1,-1,-1,-1,-1,-1,-1],"loss_changes":[1.0007016E2,1.5926735E1,2.215731E1,3.2161026E0,2.8881555E0,4.21155E0,3.692196E0,0E0,0E0,0E0,0E0,0E0,0E0,0E0,0E0],"parents":[2147483647,0,0,1,1,2,2,3,3,4,4,5,5,6,6],"right_children":[2,4,6,8,10,12,14,-1,-1,-1,-1,-1,-1,-1,-1],"split_conditions":[-1.6235235E-1,1.8477656E-1,4.8289943E-1,1.4813077E-1,2.8764E-1,3.094084E-1,1.3079602E0,-1.7463434E-2,-1.1120505E-2,-2.6579103E-3,-8.635948E-3,4.718262E-3,-2.0976344E-3,1.1855463E-2,2.0137997E-2],"split_indices":[8,2,8,5,4,1,8,0,0,0,0,0,0,0,0],"split_type":[0,0,0,0,0,0,0,0,0,0,0,0,0,0,0],"sum_hessian":[3.7074316E3,1.7478224E3,1.9596093E3,8.1938245E2,9.2843994E2,1.1347792E3,8.248301E2,3.8876523E2,4.3061722E2,6.3124E2,2.9719998E2,8.2279047E2,3.119887E2,6.520556E2,1.7277446E2],"tree_param":{"num_deleted":"0","num_feature":"15","num_nodes":"15","size_leaf_vector":"1"}},{"base_weights":[-7.6489863E-3,1.6446187E-1,-1.405119E-1,1.0567643E-1,3.289789E-1,-2.8043932E-1,-7.3935196E-2,7.725326E-3,2.0073033E-3,1.4482076E-2,2.2701005E-2,1.2963737E-2,-1.4446089E-2,-6.286902E-3,-2.9488775E-4],"categories":[],"categories_nodes":[],"categories_segments":[],"categories_sizes":[],"default_left":[0,0,0,0,0,0,0,0,0,0,0,0,0,0,0],"id":63,"left_children":[1,3,5,7,9,11,13,-1,-1,-1,-1,-1,-1,-1,-1],"loss_changes":[9.458691E1,1.739317E1,2.1725498E1,4.246787E0,2.199627E0,3.5186615E0,5.5789156E0,0E0,0E0,0E0,0E0,0E0,0E0,0E0,0E0],"parents":[2147483647,0,0,1,1,2,2,3,3,4,4,5,5,6,6],"right_children":[2,4,6,8,10,12,14,-1,-1,-1,-1,-1,-1,-1,-1],"split_conditions":[1.0929798E0,2.216165E0,1.1061833E0,2.6787725E-1,1.747772E-1,3.6962998E-1,3.9586306E-1,7.725326E-3,2.0073033E-3,1.4482076E-2,2.2701005E-2,1.2963737E-2,-1.4446089E-2,-6.286902E-3,-2.9488775E-4],"split_indices":[7,6,6,4,1,11,3,0,0,0,0,0,0,0,0],"split_type":[0,0,0,0,0,0,0,0,0,0,0,0,0,0,0],"sum_hessian":[4.134356E3,1.8010435E3,2.3333127E3,1.3281202E3,4.7292322E2,7.512218E2,1.582091E3,7.6025604E2,5.678642E2,3.6227087E2,1.10652336E2,1.1166456E1,7.400553E2,8.9772577E2,6.843651E2],"tree_param":{"num_deleted":"0","num_feature":"15","num_nodes":"15","size_leaf_vector":"1"}},{"base_weights":[9.331584E-3,-5.4603785E-2,6.504924E-2,-1.732095E-1,-3.306404E-2,-5.5921774E-2,8.0023296E-2,-1.4825462E-2,-6.6230246E-3,-2.095269E-3,1.3366349E-2,8.429254E-3,-8.007574E-3,3.29917E-3,1.0004141E-2],"categories":[],"categories_nodes":[],"categories_segments":[],"categories_sizes":[],"default_left":[0,0,0,0,0,0,0,0,0,0,0,0,0,0,0],"id":64,"left_children":[1,3,5,7,9,11,13,-1,-1,-1,-1,-1,-1,-1,-1],"loss_changes":[1.1971187E1,3.9922519E0,3.2570176E0,1.1680069E0,3.5319195E0,4.668835E0,2.6807652E0,0E0,0E0,0E0,0E0,0E0,0E0,0E0,0E0],"parents":[2147483647,0,0,1,1,2,2,3,3,4,4,5,5,6,6],"right_children":[2,4,6,8,10,12,14,-1,-1,-1,-1,-1,-1,-1,-1],"split_conditions":[2.687421E-1,1.599413E-1,2.442167E-1,6.918896E-2,6.7774135E-1,2.4089286E-1,1.5406485E0,-1.4825462E-2,-6.6230246E-3,-2.095269E-3,1.3366349E-2,8.429254E-3,-8.007574E-3,3.29917E-3,1.0004141E-2],"split_indices":[1,1,4,2,5,5,6,0,0,0,0,0,0,0,0],"split_type":[0,0,0,0,0,0,0,0,0,0,0,0,0,0,0],"sum_hessian":[3.3584973E3,1.5639281E3,1.7945693E3,2.3928664E2,1.3246415E3,1.973667E2,1.5972026E3,5.7878742E1,1.814079E2,1.2876041E3,3.7037266E1,6.2381603E1,1.3498509E2,1.4313666E3,1.6583603E2],"tree_param":{"num_deleted":"0","num_feature":"15","num_nodes":"15","size_leaf_vector":"1"}},{"base_weights":[-4.505937E-3,2.130945E-1,-1.1889338E-1,1.7203967E-1,3.815204E-1,-2.6384673E-1,-4.5962237E-2,-9.787517E-3,9.197808E-3,1.9868849E-2,-4.457019E-3,-1.6774723E-2,-9.409244E-3,4.9967645E-4,-5.2249674E-3],"categories":[],"categories_nodes":[],"categories_segments":[],"categories_sizes":[],"default_left":[0,0,0,0,0,0,0,0,0,0,0,0,0,0,0],"id":65,"left_children":[1,3,5,7,9,11,13,-1,-1,-1,-1,-1,-1,-1,-1],"loss_changes":[9.187531E1,8.728481E0,2.556401E1,4.525585E0,1.8894768E0,4.325676E0,5.276967E0,0E0,0E0,0E0,0E0,0E0,0E0,0E0,0E0],"parents":[2147483647,0,0,1,1,2,2,3,3,4,4,5,5,6,6],"right_children":[2,4,6,8,10,12,14,-1,-1,-1,-1,-1,-1,-1,-1],"split_conditions":[3.0285043E-1,6.5941364E-1,2.55344E-1,2.0270506E-1,1.0696244E0,-1.180474E0,4.1313925E-1,-9.787517E-3,9.197808E-3,1.9868849E-2,-4.457019E-3,-1.6774723E-2,-9.409244E-3,4.9967645E-4,-5.2249674E-3],"split_indices":[0,11,1,4,6,8,11,0,0,0,0,0,0,0,0],"split_type":[0,0,0,0,0,0,0,0,0,0,0,0,0,0,0],"sum_hessian":[3.6891238E3,1.2708016E3,2.4183223E3,1.02337036E3,2.4743126E2,8.0859393E2,1.6097283E3,3.1632742E1,9.917376E2,2.3951762E2,7.913644E0,4.135501E2,3.950438E2,8.234345E2,7.8629376E2],"tree_param":{"num_deleted":"0","num_feature":"15","num_nodes":"15","size_leaf_vector":"1"}},{"base_weights":[2.2709358E-3,1.4669998E-1,-1.4896479E-1,2.2279824E-1,4.837269E-2,-2.7349174E-1,-7.5890474E-2,1.2034928E-2,-7.8081765E-4,-6.5207714E-3,3.1720307E-3,-1.18569955E-2,-1.9517256E-2,2.3029645E-3,-4.7800145E-3],"categories":[],"categories_nodes":[],"categories_segments":[],"categories_sizes":[],"default_left":[0,0,0,0,0,0,0,0,0,0,0,0,0,0,0],"id":66,"left_children":[1,3,5,7,9,11,13,-1,-1,-1,-1,-1,-1,-1,-1],"loss_changes":[9.118411E1,1.5966843E1,1.8535686E1,5.139717E0,2.5214045E0,3.109192E0,3.0966291E0,0E0,0E0,0E0,0E0,0E0,0E0,0E0,0E0],"parents":[2147483647,0,0,1,1,2,2,3,3,4,4,5,5,6,6],"right_children":[2,4,6,8,10,12,14,-1,-1,-1,-1,-1,-1,-1,-1],"split_conditions":[-2.627185E-1,2.5435308E-1,1.1061833E0,2.810733E-1,1.6713573E-1,1.1542958E0,2.7013397E-1,1.2034928E-2,-7.8081765E-4,-6.5207714E-3,3.1720307E-3,-1.18569955E-2,-1.9517256E-2,2.3029645E-3,-4.7800145E-3],"split_indices":[8,1,6,4,5,8,5,0,0,0,0,0,0,0,0],"split_type":[0,0,0,0,0,0,0,0,0,0,0,0,0,0,0],"sum_hessian":[4.1725547E3,2.1343223E3,2.0382324E3,1.202448E3,9.318743E2,7.5273834E2,1.2854941E3,1.1184634E3,8.398457E1,7.1837135E1,8.6003723E2,5.764426E2,1.7629572E2,1.7867126E2,1.1068229E3],"tree_param":{"num_deleted":"0","num_feature":"15","num_nodes":"15","size_leaf_vector":"1"}},{"base_weights":[1.071043E-2,-1.0435758E-1,3.7142612E-2,-1.8064646E-1,-6.470232E-2,3.648094E-1,3.3793297E-2,-4.3254667E-3,-1.3800606E-2,2.105503E-3,-5.679044E-3,2.4088865E-2,-1.6140703E-2,2.2658983E-3,-2.9670228E-3],"categories":[],"categories_nodes":[],"categories_segments":[],"categories_sizes":[],"default_left":[0,0,0,0,0,0,0,0,0,0,0,0,0,0,0],"id":67,"left_children":[1,3,5,7,9,11,13,-1,-1,-1,-1,-1,-1,-1,-1],"loss_changes":[1.0173752E1,1.8786888E0,2.9725876E0,1.8897438E0,2.1594567E0,2.360755E0,2.8936348E0,0E0,0E0,0E0,0E0,0E0,0E0,0E0,0E0],"parents":[2147483647,0,0,1,1,2,2,3,3,4,4,5,5,6,6],"right_children":[2,4,6,8,10,12,14,-1,-1,-1,-1,-1,-1,-1,-1],"split_conditions":[2.0847824E-1,1.565074E-1,1.2841696E-1,1.10106066E-1,1.747772E-1,7.375341E-1,5.836929E-1,-4.3254667E-3,-1.3800606E-2,2.105503E-3,-5.679044E-3,2.4088865E-2,-1.6140703E-2,2.2658983E-3,-2.9670228E-3],"split_indices":[1,1,3,5,1,12,8,0,0,0,0,0,0,0,0],"split_type":[0,0,0,0,0,0,0,0,0,0,0,0,0,0,0],"sum_hessian":[3.3427053E3,6.2386536E2,2.71884E3,2.1215868E2,4.1170673E2,2.6418047E1,2.6924219E3,1.077268E2,1.0443188E2,1.2929718E2,2.8240952E2,2.2833347E1,3.5846982E0,2.3963975E3,2.9602448E2],"tree_param":{"num_deleted":"0","num_feature":"15","num_nodes":"15","size_leaf_vector":"1"}},{"base_weights":[5.8331183E-4,-1.5924323E-1,1.40222E-1,-3.3065078E-1,-1.0363177E-1,5.5164423E-2,2.5710478E-1,-2.2300964E-2,-1.5002749E-2,-4.31312E-3,-1.2866655E-2,-1.2671718E-3,4.563141E-3,1.0022736E-2,1.8486783E-2],"categories":[],"categories_nodes":[],"categories_segments":[],"categories_sizes":[],"default_left":[0,0,0,0,0,0,0,0,0,0,0,0,0,0,0],"id":68,"left_children":[1,3,5,7,9,11,13,-1,-1,-1,-1,-1,-1,-1,-1],"loss_changes":[8.257802E1,1.6411865E1,1.9618305E1,1.3563957E0,3.459446E0,3.3277507E0,5.2312737E0,0E0,0E0,0E0,0E0,0E0,0E0,0E0,0E0],"parents":[2147483647,0,0,1,1,2,2,3,3,4,4,5,5,6,6],"right_children":[2,4,6,8,10,12,14,-1,-1,-1,-1,-1,-1,-1,-1],"split_conditions":[-1.6235235E-1,1.3301998E-1,4.8289943E-1,1.5774184E-1,6.182794E-1,1.2702428E0,6.463638E-1,-2.2300964E-2,-1.5002749E-2,-4.31312E-3,-1.2866655E-2,-1.2671718E-3,4.563141E-3,1.0022736E-2,1.8486783E-2],"split_indices":[8,2,8,4,12,7,2,0,0,0,0,0,0,0,0],"split_type":[0,0,0,0,0,0,0,0,0,0,0,0,0,0,0],"sum_hessian":[3.698068E3,1.7243197E3,1.9737485E3,4.2118457E2,1.3031351E3,1.1432548E3,8.304938E2,8.543908E1,3.3574548E2,1.1722262E3,1.309089E2,3.5401547E2,7.892393E2,5.544175E2,2.7607626E2],"tree_param":{"num_deleted":"0","num_feature":"15","num_nodes":"15","size_leaf_vector":"1"}},{"base_weights":[-9.2499135E-3,9.7865276E-2,-1.9166137E-1,1.433669E-2,2.0583673E-1,-2.7645093E-1,-1.1157013E-1,3.698056E-2,5.0743594E-4,6.9513135E-3,1.4103206E-2,-1.5886774E-2,-1.044875E-2,-6.0991007E-3,1.7166145E-2],"categories":[],"categories_nodes":[],"categories_segments":[],"categories_sizes":[],"default_left":[0,0,0,0,0,0,0,0,0,0,0,0,0,0,0],"id":69,"left_children":[1,3,5,7,9,11,13,-1,-1,-1,-1,-1,-1,-1,-1],"loss_changes":[8.128983E1,2.3637194E1,1.0421608E1,4.484786E0,5.7831497E0,2.014492E0,3.7987013E0,0E0,0E0,0E0,0E0,0E0,0E0,0E0,0E0],"parents":[2147483647,0,0,1,1,2,2,3,3,4,4,5,5,6,6],"right_children":[2,4,6,8,10,12,14,-1,-1,-1,-1,-1,-1,-1,-1],"split_conditions":[-3.2387473E-2,1.7603705E0,1.1061833E0,8.085533E-1,2.1717975E0,2.7450308E-1,1.4389858E0,3.698056E-2,5.0743594E-4,6.9513135E-3,1.4103206E-2,-1.5886774E-2,-1.044875E-2,-6.0991007E-3,1.7166145E-2],"split_indices":[8,6,6,7,6,4,6,0,0,0,0,0,0,0,0],"split_type":[0,0,0,0,0,0,0,0,0,0,0,0,0,0,0],"sum_hessian":[4.1584204E3,2.6202356E3,1.5381846E3,1.4779785E3,1.1422571E3,7.4598596E2,7.921986E2,7.4771624E0,1.4705013E3,6.102338E2,5.3202325E2,4.60515E2,2.8547098E2,7.7518744E2,1.7011147E1],"tree_param":{"num_deleted":"0","num_feature":"15","num_nodes":"15","size_leaf_vector":"1"}},{"base_weights":[9.5472415E-4,2.5885703E-2,-1.2380154E-1,3.327335E-3,1.0656049E-1,-3.4496E-1,-1.0307264E-1,3.6282116E-3,-7.680891E-4,1.2315652E-2,2.9724955E-3,-2.002973E-2,3.420313E-2,1.6629846E-4,-7.331416E-3],"categories":[],"categories_nodes":[],"categories_segments":[],"categories_sizes":[],"default_left":[0,0,0,0,0,0,0,0,0,0,0,0,0,0,0],"id":70,"left_children":[1,3,5,7,9,11,13,-1,-1,-1,-1,-1,-1,-1,-1],"loss_changes":[1.0365207E1,5.054334E0,2.508997E0,2.8110764E0,3.9810538E0,2.972743E0,2.358911E0,0E0,0E0,0E0,0E0,0E0,0E0,0E0,0E0],"parents":[2147483647,0,0,1,1,2,2,3,3,4,4,5,5,6,6],"right_children":[2,4,6,8,10,12,14,-1,-1,-1,-1,-1,-1,-1,-1],"split_conditions":[6.68586E-1,2.9671448E-1,-2.1595511E0,4.1125086E-1,2.7979928E-1,9.1438776E-1,1.0729087E-1,3.6282116E-3,-7.680891E-4,1.2315652E-2,2.9724955E-3,-2.002973E-2,3.420313E-2,1.6629846E-4,-7.331416E-3],"split_indices":[11,4,8,12,5,7,5,0,0,0,0,0,0,0,0],"split_type":[0,0,0,0,0,0,0,0,0,0,0,0,0,0,0],"sum_hessian":[3.3305166E3,2.776467E3,5.540497E2,2.1705708E3,6.05896E2,4.6139675E1,5.0791E2,4.6075305E2,1.7098179E3,1.516881E2,4.5420792E2,4.4352444E1,1.787232E0,1.4779567E2,3.6011435E2],"tree_param":{"num_deleted":"0","num_feature":"15","num_nodes":"15","size_leaf_vector":"1"}},{"base_weights":[-4.9345423E-3,2.0386279E-1,-1.1708551E-1,3.4091854E-1,1.6607192E-1,-2.1575888E-1,-1.3712819E-2,6.2356484E-3,1.8673852E-2,-1.2681248E-2,8.909317E-3,-1.5916653E-2,-8.199718E-3,1.6179374E-4,-1.07898805E-2],"categories":[],"categories_nodes":[],"categories_segments":[],"categories_sizes":[],"default_left":[0,0,0,0,0,0,0,0,0,0,0,0,0,0,0],"id":71,"left_children":[1,3,5,7,9,11,13,-1,-1,-1,-1,-1,-1,-1,-1],"loss_changes":[8.5858925E1,6.5794754E0,2.4327377E1,1.89608E0,5.1614075E0,6.4273224E0,3.9942524E0,0E0,0E0,0E0,0E0,0E0,0E0,0E0,0E0],"parents":[2147483647,0,0,1,1,2,2,3,3,4,4,5,5,6,6],"right_children":[2,4,6,8,10,12,14,-1,-1,-1,-1,-1,-1,-1,-1],"split_conditions":[3.0285043E-1,1.4429848E-1,1.0813419E0,4.970645E-1,1.9873336E-1,1.3301998E-1,3.210508E-1,6.2356484E-3,1.8673852E-2,-1.2681248E-2,8.909317E-3,-1.5916653E-2,-8.199718E-3,1.6179374E-4,-1.07898805E-2],"split_indices":[0,0,7,12,4,2,1,0,0,0,0,0,0,0,0],"split_type":[0,0,0,0,0,0,0,0,0,0,0,0,0,0,0],"sum_hessian":[3.6645295E3,1.2802338E3,2.384296E3,2.7497247E2,1.0052613E3,1.2193195E3,1.1649764E3,3.6620903E1,2.3835158E2,2.7643187E1,9.776181E2,4.0722726E2,8.120922E2,1.075739E3,8.9237404E1],"tree_param":{"num_deleted":"0","num_feature":"15","num_nodes":"15","size_leaf_vector":"1"}},{"base_weights":[-4.662178E-3,1.4974102E-1,-1.2524214E-1,1.031858E-1,2.6361656E-1,-2.6028833E-1,-6.2941924E-2,5.963148E-3,-4.2075985E-3,1.4401021E-2,5.2901595E-3,-1.121275E-2,-1.8737612E-2,-6.0018036E-3,-8.483981E-4],"categories":[],"categories_nodes":[],"categories_segments":[],"categories_sizes":[],"default_left":[0,0,0,0,0,0,0,0,0,0,0,0,0,0,0],"id":72,"left_children":[1,3,5,7,9,11,13,-1,-1,-1,-1,-1,-1,-1,-1],"loss_changes":[7.657912E1,9.534828E0,1.94147E1,3.8709126E0,1.9827919E0,2.9218178E0,4.149836E0,0E0,0E0,0E0,0E0,0E0,0E0,0E0,0E0],"parents":[2147483647,0,0,1,1,2,2,3,3,4,4,5,5,6,6],"right_children":[2,4,6,8,10,12,14,-1,-1,-1,-1,-1,-1,-1,-1],"split_conditions":[1.0929798E0,2.1717975E0,1.1061833E0,3.1837603E-1,1.9084257E-1,1.1542958E0,1.2871009E0,5.963148E-3,-4.2075985E-3,1.4401021E-2,5.2901595E-3,-1.121275E-2,-1.8737612E-2,-6.0018036E-3,-8.483981E-4],"split_indices":[7,6,6,5,5,8,6,0,0,0,0,0,0,0,0],"split_type":[0,0,0,0,0,0,0,0,0,0,0,0,0,0,0],"sum_hessian":[4.1111836E3,1.8026458E3,2.3085378E3,1.280891E3,5.217547E2,7.277783E2,1.5807595E3,1.1799888E3,1.0090223E2,4.511629E2,7.05918E1,5.557781E2,1.7200024E2,7.0438586E2,8.7637366E2],"tree_param":{"num_deleted":"0","num_feature":"15","num_nodes":"15","size_leaf_vector":"1"}},{"base_weights":[1.4173684E-2,-4.2736214E-2,5.9702087E-2,-3.3055823E-2,-2.832016E-1,5.6644853E-2,5.3792693E-2,-1.4138249E-3,-1.7270831E-2,-1.8139273E-2,1.7737849E-2,-1.670775E-3,3.7682466E-3],"categories":[],"categories_nodes":[],"categories_segments":[],"categories_sizes":[],"default_left":[0,0,0,0,0,0,0,0,0,0,0,0,0],"id":73,"left_children":[1,3,5,7,9,11,-1,-1,-1,-1,-1,-1,-1],"loss_changes":[8.585449E0,3.4191139E0,5.657462E0,2.1055984E0,3.0158186E0,3.0983253E0,0E0,0E0,0E0,0E0,0E0,0E0,0E0],"parents":[2147483647,0,0,1,1,2,2,3,3,4,4,5,5],"right_children":[2,4,6,8,10,12,-1,-1,-1,-1,-1,-1,-1],"split_conditions":[2.6682714E-1,2.8891933E0,6.885381E-1,1.871687E0,9.1438776E-1,2.519533E-1,5.3792693E-2,-1.4138249E-3,-1.7270831E-2,-1.8139273E-2,1.7737849E-2,-1.670775E-3,3.7682466E-3],"split_indices":[1,6,12,8,7,4,0,0,0,0,0,0,0],"split_type":[0,0,0,0,0,0,0,0,0,0,0,0,0],"sum_hessian":[3.3115596E3,1.4718402E3,1.8397194E3,1.415975E3,5.586528E1,1.8352534E3,4.4658704E0,1.3957102E3,2.0264765E1,5.005266E1,5.8126197E0,3.1569464E2,1.5195588E3],"tree_param":{"num_deleted":"0","num_feature":"15","num_nodes":"13","size_leaf_vector":"1"}},{"base_weights":[-2.4525218E-3,-1.5864676E-1,1.2139529E-1,-3.042144E-1,-1.10317826E-1,4.563312E-2,2.279657E-1,-1.351607E-2,-2.1987623E-2,-1.0639515E-2,-3.9473535E-3,4.0407977E-3,-2.3024525E-3,8.956199E-3,1.735231E-2],"categories":[],"categories_nodes":[],"categories_segments":[],"categories_sizes":[],"default_left":[0,0,0,0,0,0,0,0,0,0,0,0,0,0,0],"id":74,"left_children":[1,3,5,7,9,11,13,-1,-1,-1,-1,-1,-1,-1,-1],"loss_changes":[7.088608E1,1.1367439E1,1.6491756E1,1.7340889E0,3.899333E0,3.8611164E0,4.8757477E0,0E0,0E0,0E0,0E0,0E0,0E0,0E0,0E0],"parents":[2147483647,0,0,1,1,2,2,3,3,4,4,5,5,6,6],"right_children":[2,4,6,8,10,12,14,-1,-1,-1,-1,-1,-1,-1,-1],"split_conditions":[-1.9863328E-1,1.4991254E-1,1.5846345E0,7.701452E-1,-8.727003E-1,3.094084E-1,6.5941364E-1,-1.351607E-2,-2.1987623E-2,-1.0639515E-2,-3.9473535E-3,4.0407977E-3,-2.3024525E-3,8.956199E-3,1.735231E-2],"split_indices":[8,5,7,3,8,1,11,0,0,0,0,0,0,0,0],"split_type":[0,0,0,0,0,0,0,0,0,0,0,0,0,0,0],"sum_hessian":[3.662444E3,1.6195813E3,2.0428627E3,4.0236273E2,1.2172185E3,1.1948546E3,8.480081E2,3.2426947E2,7.809327E1,2.839416E2,9.33277E2,8.635772E2,3.312774E2,6.0313293E2,2.4487518E2],"tree_param":{"num_deleted":"0","num_feature":"15","num_nodes":"15","size_leaf_vector":"1"}},{"base_weights":[-4.770278E-3,1.3967742E-1,-1.1802831E-1,2.5415018E-1,8.336697E-2,-6.631865E-2,-2.5431338E-1,2.252875E-2,1.1776563E-2,6.2623234E-3,1.6930256E-3,-6.339408E-3,-8.8529364E-4,-1.08396625E-2,-1.806354E-2],"categories":[],"categories_nodes":[],"categories_segments":[],"categories_sizes":[],"default_left":[0,0,0,0,0,0,0,0,0,0,0,0,0,0,0],"id":75,"left_children":[1,3,5,7,9,11,13,-1,-1,-1,-1,-1,-1,-1,-1],"loss_changes":[6.7550896E1,1.1676262E1,1.6293118E1,2.08033E0,2.5206995E0,4.933732E0,2.4749374E0,0E0,0E0,0E0,0E0,0E0,0E0,0E0,0E0],"parents":[2147483647,0,0,1,1,2,2,3,3,4,4,5,5,6,6],"right_children":[2,4,6,8,10,12,14,-1,-1,-1,-1,-1,-1,-1,-1],"split_conditions":[1.0929798E0,1.2750348E-1,4.9632505E-1,1.126281E-1,2.6756102E-1,1.2738297E0,1.1963117E0,2.252875E-2,1.1776563E-2,6.2623234E-3,1.6930256E-3,-6.339408E-3,-8.8529364E-4,-1.08396625E-2,-1.806354E-2],"split_indices":[7,2,8,1,4,6,8,0,0,0,0,0,0,0,0],"split_type":[0,0,0,0,0,0,0,0,0,0,0,0,0,0,0],"sum_hessian":[4.127054E3,1.8136796E3,2.3133748E3,5.9684607E2,1.2168335E3,1.6781377E3,6.3523706E2,4.966748E1,5.471786E2,6.5836566E2,5.584679E2,7.471495E2,9.309882E2,4.725099E2,1.6272717E2],"tree_param":{"num_deleted":"0","num_feature":"15","num_nodes":"15","size_leaf_vector":"1"}},{"base_weights":[1.5743047E-2,-4.0286418E-2,6.0760856E-2,-1.5675531E-1,-1.9013455E-2,5.8911067E-2,5.8191866E-2,-1.1741665E-2,-2.2716129E-3,-1.4800167E-3,1.55216595E-2,3.259177E-2,2.8030956E-3],"categories":[],"categories_nodes":[],"categories_segments":[],"categories_sizes":[],"default_left":[0,0,0,0,0,0,0,0,0,0,0,0,0],"id":76,"left_children":[1,3,5,7,9,11,-1,-1,-1,-1,-1,-1,-1],"loss_changes":[8.44353E0,3.6924937E0,3.718566E0,1.9903336E0,4.411907E0,3.0954218E0,0E0,0E0,0E0,0E0,0E0,0E0,0E0],"parents":[2147483647,0,0,1,1,2,2,3,3,4,4,5,5],"right_children":[2,4,6,8,10,12,-1,-1,-1,-1,-1,-1,-1],"split_conditions":[2.6682714E-1,1.599413E-1,6.9086707E-1,7.238083E-1,6.7774135E-1,1.9750069E-1,5.8191866E-2,-1.1741665E-2,-2.2716129E-3,-1.4800167E-3,1.55216595E-2,3.259177E-2,2.8030956E-3],"split_indices":[1,1,3,3,5,0,0,0,0,0,0,0,0],"split_type":[0,0,0,0,0,0,0,0,0,0,0,0,0],"sum_hessian":[3.34555E3,1.4905306E3,1.8550193E3,2.2921515E2,1.2613154E3,1.8529655E3,2.0538971E0,1.3407224E2,9.514291E1,1.2229265E3,3.8388996E1,7.7720785E0,1.8451934E3],"tree_param":{"num_deleted":"0","num_feature":"15","num_nodes":"13","size_leaf_vector":"1"}},{"base_weights":[-9.30657E-3,-1.6153564E-1,1.0963064E-1,-3.2213286E-1,-1.0952763E-1,4.118088E-2,2.1028431E-1,1.4524534E-2,-1.6375503E-2,-7.614482E-3,-2.5927878E-3,-1.7747739E-3,3.968502E-3,8.754501E-3,1.7194804E-2],"categories":[],"categories_nodes":[],"categories_segments":[],"categories_sizes":[],"default_left":[0,0,0,0,0,0,0,0,0,0,0,0,0,0,0],"id":77,"left_children":[1,3,5,7,9,11,13,-1,-1,-1,-1,-1,-1,-1,-1],"loss_changes":[6.630546E1,1.338055E1,1.4156033E1,1.3878021E0,2.9880733E0,3.5897698E0,3.8519402E0,0E0,0E0,0E0,0E0,0E0,0E0,0E0,0E0],"parents":[2147483647,0,0,1,1,2,2,3,3,4,4,5,5,6,6],"right_children":[2,4,6,8,10,12,14,-1,-1,-1,-1,-1,-1,-1,-1],"split_conditions":[-2.062599E-1,-1.180474E0,1.5846345E0,6.412803E-1,-5.1083606E-1,